digraph Tree {
node [shape=box, style="rounded", color="black", fontname="helvetica"] ;
edge [fontname="helvetica"] ;
0 [label="Age_Type <= 2.5\ngini = 0.2\nsamples = 10418\nvalue = [2346, 14149]"] ;
1 [label="Intervention <= 3.5\ngini = 0.2\nsamples = 1375\nvalue = [181, 2011]"] ;
0 -> 1 [labeldistance=2.5, labelangle=45, headlabel="True"] ;
2 [label="EFraction <= 0.3\ngini = 0.2\nsamples = 753\nvalue = [134, 1086]"] ;
1 -> 2 ;
3 [label="gini = 0.4\nsamples = 54\nvalue = [67, 22]"] ;
2 -> 3 ;
4 [label="gini = 0.1\nsamples = 699\nvalue = [67, 1064]"] ;
2 -> 4 ;
5 [label="EFraction <= 0.2\ngini = 0.1\nsamples = 622\nvalue = [47, 925]"] ;
1 -> 5 ;
6 [label="gini = 0.5\nsamples = 18\nvalue = [15, 8]"] ;
5 -> 6 ;
7 [label="gini = 0.1\nsamples = 604\nvalue = [32, 917]"] ;
5 -> 7 ;
8 [label="Phases <= 0.2\ngini = 0.3\nsamples = 9043\nvalue = [2165, 12138]"] ;
0 -> 8 [labeldistance=2.5, labelangle=-45, headlabel="False"] ;
9 [label="Intervention <= 1.5\ngini = 0.2\nsamples = 3436\nvalue = [597, 4853]"] ;
8 -> 9 ;
10 [label="gini = 0.1\nsamples = 926\nvalue = [114, 1339]"] ;
9 -> 10 ;
11 [label="gini = 0.2\nsamples = 2510\nvalue = [483, 3514]"] ;
9 -> 11 ;
12 [label="EFraction <= 0.5\ngini = 0.3\nsamples = 5607\nvalue = [1568, 7285]"] ;
8 -> 12 ;
13 [label="gini = 0.5\nsamples = 1004\nvalue = [966, 623]"] ;
12 -> 13 ;
14 [label="gini = 0.2\nsamples = 4603\nvalue = [602, 6662]"] ;
12 -> 14 ;
}