digraph Tree {
node [shape=box, style="rounded", color="black", fontname="helvetica"] ;
edge [fontname="helvetica"] ;
0 [label="Intervention <= 0.5\ngini = 0.2\nsamples = 10520\nvalue = [2385, 14110]"] ;
1 [label="Phases <= 2.2\ngini = 0.3\nsamples = 5088\nvalue = [1395, 6538]"] ;
0 -> 1 [labeldistance=2.5, labelangle=45, headlabel="True"] ;
2 [label="Age_Type <= 2.5\ngini = 0.3\nsamples = 3231\nvalue = [975, 4086]"] ;
1 -> 2 ;
3 [label="EFraction <= 0.4\ngini = 0.2\nsamples = 360\nvalue = [59, 523]"] ;
2 -> 3 ;
4 [label="EFraction <= 0.3\ngini = 0.5\nsamples = 26\nvalue = [30, 16]"] ;
3 -> 4 ;
5 [label="gini = 0.5\nsamples = 22\nvalue = [21, 16]"] ;
4 -> 5 ;
6 [label="gini = 0.0\nsamples = 4\nvalue = [9, 0]"] ;
4 -> 6 ;
7 [label="Estimated <= 109.0\ngini = 0.1\nsamples = 334\nvalue = [29, 507]"] ;
3 -> 7 ;
8 [label="gini = 0.1\nsamples = 294\nvalue = [19, 457]"] ;
7 -> 8 ;
9 [label="gini = 0.3\nsamples = 40\nvalue = [10, 50]"] ;
7 -> 9 ;
10 [label="Months <= 43.5\ngini = 0.3\nsamples = 2871\nvalue = [916, 3563]"] ;
2 -> 10 ;
11 [label="Actual <= 9.5\ngini = 0.4\nsamples = 1834\nvalue = [676, 2182]"] ;
10 -> 11 ;
12 [label="gini = 0.4\nsamples = 252\nvalue = [292, 116]"] ;
11 -> 12 ;
13 [label="gini = 0.3\nsamples = 1582\nvalue = [384, 2066]"] ;
11 -> 13 ;
14 [label="Actual <= 16.5\ngini = 0.3\nsamples = 1037\nvalue = [240, 1381]"] ;
10 -> 14 ;
15 [label="gini = 0.5\nsamples = 136\nvalue = [84, 123]"] ;
14 -> 15 ;
16 [label="gini = 0.2\nsamples = 901\nvalue = [156, 1258]"] ;
14 -> 16 ;
17 [label="Actual <= 19.5\ngini = 0.2\nsamples = 1857\nvalue = [420, 2452]"] ;
1 -> 17 ;
18 [label="Actual <= 7.5\ngini = 0.5\nsamples = 163\nvalue = [141, 105]"] ;
17 -> 18 ;
19 [label="Months <= 64.0\ngini = 0.3\nsamples = 63\nvalue = [75, 20]"] ;
18 -> 19 ;
20 [label="gini = 0.3\nsamples = 62\nvalue = [75, 17]"] ;
19 -> 20 ;
21 [label="gini = 0.0\nsamples = 1\nvalue = [0, 3]"] ;
19 -> 21 ;
22 [label="Phases <= 3.5\ngini = 0.5\nsamples = 100\nvalue = [66, 85]"] ;
18 -> 22 ;
23 [label="gini = 0.5\nsamples = 41\nvalue = [38, 26]"] ;
22 -> 23 ;
24 [label="gini = 0.4\nsamples = 59\nvalue = [28, 59]"] ;
22 -> 24 ;
25 [label="Actual <= 46.5\ngini = 0.2\nsamples = 1694\nvalue = [279, 2347]"] ;
17 -> 25 ;
26 [label="Estimated <= 47.0\ngini = 0.3\nsamples = 252\nvalue = [82, 315]"] ;
25 -> 26 ;
27 [label="gini = 0.1\nsamples = 170\nvalue = [13, 257]"] ;
26 -> 27 ;
28 [label="gini = 0.5\nsamples = 82\nvalue = [69, 58]"] ;
26 -> 28 ;
29 [label="EFraction <= 0.6\ngini = 0.2\nsamples = 1442\nvalue = [197, 2032]"] ;
25 -> 29 ;
30 [label="gini = 0.5\nsamples = 167\nvalue = [103, 157]"] ;
29 -> 30 ;
31 [label="gini = 0.1\nsamples = 1275\nvalue = [94, 1875]"] ;
29 -> 31 ;
32 [label="Actual <= 9.5\ngini = 0.2\nsamples = 5432\nvalue = [990, 7572]"] ;
0 -> 32 [labeldistance=2.5, labelangle=-45, headlabel="False"] ;
33 [label="Estimated <= 13.0\ngini = 0.5\nsamples = 378\nvalue = [338, 266]"] ;
32 -> 33 ;
34 [label="Intervention <= 4.5\ngini = 0.3\nsamples = 115\nvalue = [31, 149]"] ;
33 -> 34 ;
35 [label="Gender <= 0.5\ngini = 0.4\nsamples = 28\nvalue = [10, 31]"] ;
34 -> 35 ;
36 [label="gini = 0.0\nsamples = 1\nvalue = [1, 0]"] ;
35 -> 36 ;
37 [label="gini = 0.3\nsamples = 27\nvalue = [9, 31]"] ;
35 -> 37 ;
38 [label="EFraction <= 0.3\ngini = 0.3\nsamples = 87\nvalue = [21, 118]"] ;
34 -> 38 ;
39 [label="gini = 0.3\nsamples = 9\nvalue = [10, 2]"] ;
38 -> 39 ;
40 [label="gini = 0.2\nsamples = 78\nvalue = [11, 116]"] ;
38 -> 40 ;
41 [label="EFraction <= 0.2\ngini = 0.4\nsamples = 263\nvalue = [307, 117]"] ;
33 -> 41 ;
42 [label="Estimated <= 155.0\ngini = 0.3\nsamples = 219\nvalue = [281, 77]"] ;
41 -> 42 ;
43 [label="gini = 0.4\nsamples = 194\nvalue = [238, 76]"] ;
42 -> 43 ;
44 [label="gini = 0.0\nsamples = 25\nvalue = [43, 1]"] ;
42 -> 44 ;
45 [label="Estimated <= 15.5\ngini = 0.5\nsamples = 44\nvalue = [26, 40]"] ;
41 -> 45 ;
46 [label="gini = 0.5\nsamples = 8\nvalue = [8, 5]"] ;
45 -> 46 ;
47 [label="gini = 0.4\nsamples = 36\nvalue = [18, 35]"] ;
45 -> 47 ;
48 [label="EFraction <= 0.5\ngini = 0.2\nsamples = 5054\nvalue = [652, 7306]"] ;
32 -> 48 ;
49 [label="EFraction <= 0.2\ngini = 0.5\nsamples = 623\nvalue = [338, 644]"] ;
48 -> 49 ;
50 [label="Phases <= 1.8\ngini = 0.5\nsamples = 175\nvalue = [149, 116]"] ;
49 -> 50 ;
51 [label="gini = 0.5\nsamples = 134\nvalue = [106, 96]"] ;
50 -> 51 ;
52 [label="gini = 0.4\nsamples = 41\nvalue = [43, 20]"] ;
50 -> 52 ;
53 [label="Estimated <= 445.0\ngini = 0.4\nsamples = 448\nvalue = [189, 528]"] ;
49 -> 53 ;
54 [label="gini = 0.4\nsamples = 383\nvalue = [174, 433]"] ;
53 -> 54 ;
55 [label="gini = 0.2\nsamples = 65\nvalue = [15, 95]"] ;
53 -> 55 ;
56 [label="Age_Type <= 2.5\ngini = 0.1\nsamples = 4431\nvalue = [314, 6662]"] ;
48 -> 56 ;
57 [label="Age_Type <= 0.5\ngini = 0.0\nsamples = 707\nvalue = [26, 1072]"] ;
56 -> 57 ;
58 [label="gini = 0.1\nsamples = 251\nvalue = [17, 377]"] ;
57 -> 58 ;
59 [label="gini = 0.0\nsamples = 456\nvalue = [9, 695]"] ;
57 -> 59 ;
60 [label="Intervention <= 1.5\ngini = 0.1\nsamples = 3724\nvalue = [288, 5590]"] ;
56 -> 60 ;
61 [label="gini = 0.0\nsamples = 643\nvalue = [21, 981]"] ;
60 -> 61 ;
62 [label="gini = 0.1\nsamples = 3081\nvalue = [267, 4609]"] ;
60 -> 62 ;
}