digraph Tree {
node [shape=box, style="rounded", color="black", fontname="helvetica"] ;
edge [fontname="helvetica"] ;
0 [label="Intervention <= 0.5\ngini = 0.2\nsamples = 10520\nvalue = [2385, 14110]"] ;
1 [label="Phases <= 2.2\ngini = 0.3\nsamples = 5088\nvalue = [1395, 6538]"] ;
0 -> 1 [labeldistance=2.5, labelangle=45, headlabel="True"] ;
2 [label="Age_Type <= 2.5\ngini = 0.3\nsamples = 3231\nvalue = [975, 4086]"] ;
1 -> 2 ;
3 [label="Months <= 22.5\ngini = 0.2\nsamples = 360\nvalue = [59, 523]"] ;
2 -> 3 ;
4 [label="EFraction <= 0.4\ngini = 0.1\nsamples = 256\nvalue = [18, 387]"] ;
3 -> 4 ;
5 [label="Months <= 15.5\ngini = 0.5\nsamples = 9\nvalue = [9, 5]"] ;
4 -> 5 ;
6 [label="EFraction <= 0.3\ngini = 0.3\nsamples = 8\nvalue = [9, 2]"] ;
5 -> 6 ;
7 [label="Phases <= 1.5\ngini = 0.2\nsamples = 6\nvalue = [8, 1]"] ;
6 -> 7 ;
8 [label="gini = 0.0\nsamples = 1\nvalue = [1, 0]"] ;
7 -> 8 ;
9 [label="Age_Type <= 1.0\ngini = 0.2\nsamples = 5\nvalue = [7, 1]"] ;
7 -> 9 ;
10 [label="EFraction <= 0.1\ngini = 0.4\nsamples = 3\nvalue = [3, 1]"] ;
9 -> 10 ;
11 [label="gini = 0.0\nsamples = 1\nvalue = [0, 1]"] ;
10 -> 11 ;
12 [label="gini = 0.0\nsamples = 2\nvalue = [3, 0]"] ;
10 -> 12 ;
13 [label="gini = 0.0\nsamples = 2\nvalue = [4, 0]"] ;
9 -> 13 ;
14 [label="EFraction <= 0.3\ngini = 0.5\nsamples = 2\nvalue = [1, 1]"] ;
6 -> 14 ;
15 [label="gini = 0.0\nsamples = 1\nvalue = [0, 1]"] ;
14 -> 15 ;
16 [label="gini = 0.0\nsamples = 1\nvalue = [1, 0]"] ;
14 -> 16 ;
17 [label="gini = 0.0\nsamples = 1\nvalue = [0, 3]"] ;
5 -> 17 ;
18 [label="Phases <= 1.2\ngini = 0.0\nsamples = 247\nvalue = [9, 382]"] ;
4 -> 18 ;
19 [label="EFraction <= 0.8\ngini = 0.0\nsamples = 212\nvalue = [5, 332]"] ;
18 -> 19 ;
20 [label="EFraction <= 0.8\ngini = 0.1\nsamples = 17\nvalue = [2, 27]"] ;
19 -> 20 ;
21 [label="Months <= 7.5\ngini = 0.1\nsamples = 16\nvalue = [1, 27]"] ;
20 -> 21 ;
22 [label="gini = 0.0\nsamples = 10\nvalue = [0, 16]"] ;
21 -> 22 ;
23 [label="EFraction <= 0.5\ngini = 0.2\nsamples = 6\nvalue = [1, 11]"] ;
21 -> 23 ;
24 [label="gini = 0.0\nsamples = 4\nvalue = [0, 10]"] ;
23 -> 24 ;
25 [label="EFraction <= 0.6\ngini = 0.5\nsamples = 2\nvalue = [1, 1]"] ;
23 -> 25 ;
26 [label="gini = 0.0\nsamples = 1\nvalue = [1, 0]"] ;
25 -> 26 ;
27 [label="gini = 0.0\nsamples = 1\nvalue = [0, 1]"] ;
25 -> 27 ;
28 [label="gini = 0.0\nsamples = 1\nvalue = [1, 0]"] ;
20 -> 28 ;
29 [label="Gender <= 0.5\ngini = 0.0\nsamples = 195\nvalue = [3, 305]"] ;
19 -> 29 ;
30 [label="Months <= 18.5\ngini = 0.1\nsamples = 9\nvalue = [1, 12]"] ;
29 -> 30 ;
31 [label="gini = 0.0\nsamples = 7\nvalue = [0, 11]"] ;
30 -> 31 ;
32 [label="Months <= 20.0\ngini = 0.5\nsamples = 2\nvalue = [1, 1]"] ;
30 -> 32 ;
33 [label="gini = 0.0\nsamples = 1\nvalue = [1, 0]"] ;
32 -> 33 ;
34 [label="gini = 0.0\nsamples = 1\nvalue = [0, 1]"] ;
32 -> 34 ;
35 [label="Gender <= 1.5\ngini = 0.0\nsamples = 186\nvalue = [2, 293]"] ;
29 -> 35 ;
36 [label="gini = 0.0\nsamples = 51\nvalue = [0, 85]"] ;
35 -> 36 ;
37 [label="Months <= 1.5\ngini = 0.0\nsamples = 135\nvalue = [2, 208]"] ;
35 -> 37 ;
38 [label="Months <= 0.5\ngini = 0.1\nsamples = 21\nvalue = [2, 29]"] ;
37 -> 38 ;
39 [label="gini = 0.0\nsamples = 4\nvalue = [0, 5]"] ;
38 -> 39 ;
40 [label="Phases <= 0.5\ngini = 0.1\nsamples = 17\nvalue = [2, 24]"] ;
38 -> 40 ;
41 [label="gini = 0.0\nsamples = 3\nvalue = [0, 3]"] ;
40 -> 41 ;
42 [label="gini = 0.2\nsamples = 14\nvalue = [2, 21]"] ;
40 -> 42 ;
43 [label="gini = 0.0\nsamples = 114\nvalue = [0, 179]"] ;
37 -> 43 ;
44 [label="Phases <= 1.8\ngini = 0.1\nsamples = 35\nvalue = [4, 50]"] ;
18 -> 44 ;
45 [label="EFraction <= 0.8\ngini = 0.3\nsamples = 8\nvalue = [2, 8]"] ;
44 -> 45 ;
46 [label="gini = 0.0\nsamples = 2\nvalue = [2, 0]"] ;
45 -> 46 ;
47 [label="gini = 0.0\nsamples = 6\nvalue = [0, 8]"] ;
45 -> 47 ;
48 [label="Age_Type <= 1.5\ngini = 0.1\nsamples = 27\nvalue = [2, 42]"] ;
44 -> 48 ;
49 [label="Months <= 11.5\ngini = 0.2\nsamples = 10\nvalue = [2, 15]"] ;
48 -> 49 ;
50 [label="gini = 0.0\nsamples = 6\nvalue = [0, 11]"] ;
49 -> 50 ;
51 [label="EFraction <= 0.9\ngini = 0.4\nsamples = 4\nvalue = [2, 4]"] ;
49 -> 51 ;
52 [label="gini = 0.0\nsamples = 1\nvalue = [0, 2]"] ;
51 -> 52 ;
53 [label="Age_Type <= 0.5\ngini = 0.5\nsamples = 3\nvalue = [2, 2]"] ;
51 -> 53 ;
54 [label="gini = 0.0\nsamples = 2\nvalue = [0, 2]"] ;
53 -> 54 ;
55 [label="gini = 0.0\nsamples = 1\nvalue = [2, 0]"] ;
53 -> 55 ;
56 [label="gini = 0.0\nsamples = 17\nvalue = [0, 27]"] ;
48 -> 56 ;
57 [label="Age_Type <= 1.5\ngini = 0.4\nsamples = 104\nvalue = [41, 136]"] ;
3 -> 57 ;
58 [label="Gender <= 1.0\ngini = 0.4\nsamples = 66\nvalue = [39, 78]"] ;
57 -> 58 ;
59 [label="gini = 0.0\nsamples = 1\nvalue = [0, 2]"] ;
58 -> 59 ;
60 [label="Phases <= 1.2\ngini = 0.4\nsamples = 65\nvalue = [39, 76]"] ;
58 -> 60 ;
61 [label="Age_Type <= 0.5\ngini = 0.4\nsamples = 36\nvalue = [16, 44]"] ;
60 -> 61 ;
62 [label="EFraction <= 0.8\ngini = 0.4\nsamples = 28\nvalue = [14, 35]"] ;
61 -> 62 ;
63 [label="Months <= 36.5\ngini = 0.5\nsamples = 14\nvalue = [13, 13]"] ;
62 -> 63 ;
64 [label="EFraction <= 0.4\ngini = 0.3\nsamples = 7\nvalue = [2, 10]"] ;
63 -> 64 ;
65 [label="Phases <= 0.5\ngini = 0.5\nsamples = 3\nvalue = [2, 3]"] ;
64 -> 65 ;
66 [label="gini = 0.0\nsamples = 1\nvalue = [0, 1]"] ;
65 -> 66 ;
67 [label="EFraction <= 0.2\ngini = 0.5\nsamples = 2\nvalue = [2, 2]"] ;
65 -> 67 ;
68 [label="gini = 0.0\nsamples = 1\nvalue = [0, 2]"] ;
67 -> 68 ;
69 [label="gini = 0.0\nsamples = 1\nvalue = [2, 0]"] ;
67 -> 69 ;
70 [label="gini = 0.0\nsamples = 4\nvalue = [0, 7]"] ;
64 -> 70 ;
71 [label="EFraction <= 0.1\ngini = 0.3\nsamples = 7\nvalue = [11, 3]"] ;
63 -> 71 ;
72 [label="gini = 0.0\nsamples = 1\nvalue = [0, 1]"] ;
71 -> 72 ;
73 [label="EFraction <= 0.3\ngini = 0.3\nsamples = 6\nvalue = [11, 2]"] ;
71 -> 73 ;
74 [label="gini = 0.0\nsamples = 1\nvalue = [3, 0]"] ;
73 -> 74 ;
75 [label="EFraction <= 0.5\ngini = 0.3\nsamples = 5\nvalue = [8, 2]"] ;
73 -> 75 ;
76 [label="gini = 0.0\nsamples = 1\nvalue = [0, 1]"] ;
75 -> 76 ;
77 [label="Months <= 83.5\ngini = 0.2\nsamples = 4\nvalue = [8, 1]"] ;
75 -> 77 ;
78 [label="gini = 0.0\nsamples = 3\nvalue = [8, 0]"] ;
77 -> 78 ;
79 [label="gini = 0.0\nsamples = 1\nvalue = [0, 1]"] ;
77 -> 79 ;
80 [label="Months <= 54.5\ngini = 0.1\nsamples = 14\nvalue = [1, 22]"] ;
62 -> 80 ;
81 [label="gini = 0.0\nsamples = 11\nvalue = [0, 20]"] ;
80 -> 81 ;
82 [label="Months <= 70.5\ngini = 0.4\nsamples = 3\nvalue = [1, 2]"] ;
80 -> 82 ;
83 [label="gini = 0.0\nsamples = 1\nvalue = [1, 0]"] ;
82 -> 83 ;
84 [label="gini = 0.0\nsamples = 2\nvalue = [0, 2]"] ;
82 -> 84 ;
85 [label="EFraction <= 0.7\ngini = 0.3\nsamples = 8\nvalue = [2, 9]"] ;
61 -> 85 ;
86 [label="gini = 0.0\nsamples = 3\nvalue = [0, 5]"] ;
85 -> 86 ;
87 [label="Months <= 57.0\ngini = 0.4\nsamples = 5\nvalue = [2, 4]"] ;
85 -> 87 ;
88 [label="gini = 0.0\nsamples = 3\nvalue = [0, 3]"] ;
87 -> 88 ;
89 [label="Phases <= 0.5\ngini = 0.4\nsamples = 2\nvalue = [2, 1]"] ;
87 -> 89 ;
90 [label="gini = 0.0\nsamples = 1\nvalue = [2, 0]"] ;
89 -> 90 ;
91 [label="gini = 0.0\nsamples = 1\nvalue = [0, 1]"] ;
89 -> 91 ;
92 [label="EFraction <= 0.7\ngini = 0.5\nsamples = 29\nvalue = [23, 32]"] ;
60 -> 92 ;
93 [label="Phases <= 1.8\ngini = 0.4\nsamples = 16\nvalue = [23, 7]"] ;
92 -> 93 ;
94 [label="Months <= 35.5\ngini = 0.5\nsamples = 5\nvalue = [6, 4]"] ;
93 -> 94 ;
95 [label="gini = 0.0\nsamples = 3\nvalue = [6, 0]"] ;
94 -> 95 ;
96 [label="gini = 0.0\nsamples = 2\nvalue = [0, 4]"] ;
94 -> 96 ;
97 [label="Months <= 69.5\ngini = 0.3\nsamples = 11\nvalue = [17, 3]"] ;
93 -> 97 ;
98 [label="Age_Type <= 0.5\ngini = 0.1\nsamples = 10\nvalue = [17, 1]"] ;
97 -> 98 ;
99 [label="gini = 0.0\nsamples = 5\nvalue = [10, 0]"] ;
98 -> 99 ;
100 [label="Months <= 31.0\ngini = 0.2\nsamples = 5\nvalue = [7, 1]"] ;
98 -> 100 ;
101 [label="gini = 0.0\nsamples = 1\nvalue = [0, 1]"] ;
100 -> 101 ;
102 [label="gini = 0.0\nsamples = 4\nvalue = [7, 0]"] ;
100 -> 102 ;
103 [label="gini = 0.0\nsamples = 1\nvalue = [0, 2]"] ;
97 -> 103 ;
104 [label="gini = 0.0\nsamples = 13\nvalue = [0, 25]"] ;
92 -> 104 ;
105 [label="Phases <= 1.2\ngini = 0.1\nsamples = 38\nvalue = [2, 58]"] ;
57 -> 105 ;
106 [label="gini = 0.0\nsamples = 23\nvalue = [0, 36]"] ;
105 -> 106 ;
107 [label="Gender <= 1.5\ngini = 0.2\nsamples = 15\nvalue = [2, 22]"] ;
105 -> 107 ;
108 [label="gini = 0.0\nsamples = 4\nvalue = [0, 6]"] ;
107 -> 108 ;
109 [label="Months <= 38.5\ngini = 0.2\nsamples = 11\nvalue = [2, 16]"] ;
107 -> 109 ;
110 [label="gini = 0.0\nsamples = 7\nvalue = [0, 9]"] ;
109 -> 110 ;
111 [label="EFraction <= 0.8\ngini = 0.3\nsamples = 4\nvalue = [2, 7]"] ;
109 -> 111 ;
112 [label="gini = 0.0\nsamples = 1\nvalue = [2, 0]"] ;
111 -> 112 ;
113 [label="gini = 0.0\nsamples = 3\nvalue = [0, 7]"] ;
111 -> 113 ;
114 [label="EFraction <= 0.4\ngini = 0.3\nsamples = 2871\nvalue = [916, 3563]"] ;
2 -> 114 ;
115 [label="Age_Type <= 4.5\ngini = 0.4\nsamples = 465\nvalue = [480, 231]"] ;
114 -> 115 ;
116 [label="Gender <= 1.5\ngini = 0.4\nsamples = 452\nvalue = [473, 219]"] ;
115 -> 116 ;
117 [label="Months <= 32.5\ngini = 0.4\nsamples = 116\nvalue = [126, 49]"] ;
116 -> 117 ;
118 [label="Phases <= 1.2\ngini = 0.3\nsamples = 63\nvalue = [85, 16]"] ;
117 -> 118 ;
119 [label="Gender <= 0.5\ngini = 0.3\nsamples = 15\nvalue = [18, 5]"] ;
118 -> 119 ;
120 [label="EFraction <= 0.2\ngini = 0.3\nsamples = 12\nvalue = [15, 4]"] ;
119 -> 120 ;
121 [label="EFraction <= 0.1\ngini = 0.2\nsamples = 9\nvalue = [13, 2]"] ;
120 -> 121 ;
122 [label="gini = 0.0\nsamples = 2\nvalue = [5, 0]"] ;
121 -> 122 ;
123 [label="Phases <= 0.8\ngini = 0.3\nsamples = 7\nvalue = [8, 2]"] ;
121 -> 123 ;
124 [label="gini = 0.0\nsamples = 1\nvalue = [1, 0]"] ;
123 -> 124 ;
125 [label="EFraction <= 0.1\ngini = 0.3\nsamples = 6\nvalue = [7, 2]"] ;
123 -> 125 ;
126 [label="gini = 0.0\nsamples = 1\nvalue = [0, 1]"] ;
125 -> 126 ;
127 [label="Months <= 14.5\ngini = 0.2\nsamples = 5\nvalue = [7, 1]"] ;
125 -> 127 ;
128 [label="gini = 0.0\nsamples = 2\nvalue = [4, 0]"] ;
127 -> 128 ;
129 [label="Months <= 22.5\ngini = 0.4\nsamples = 3\nvalue = [3, 1]"] ;
127 -> 129 ;
130 [label="gini = 0.0\nsamples = 1\nvalue = [0, 1]"] ;
129 -> 130 ;
131 [label="gini = 0.0\nsamples = 2\nvalue = [3, 0]"] ;
129 -> 131 ;
132 [label="EFraction <= 0.3\ngini = 0.5\nsamples = 3\nvalue = [2, 2]"] ;
120 -> 132 ;
133 [label="gini = 0.0\nsamples = 2\nvalue = [0, 2]"] ;
132 -> 133 ;
134 [label="gini = 0.0\nsamples = 1\nvalue = [2, 0]"] ;
132 -> 134 ;
135 [label="Phases <= 0.5\ngini = 0.4\nsamples = 3\nvalue = [3, 1]"] ;
119 -> 135 ;
136 [label="gini = 0.0\nsamples = 1\nvalue = [1, 0]"] ;
135 -> 136 ;
137 [label="Months <= 17.5\ngini = 0.4\nsamples = 2\nvalue = [2, 1]"] ;
135 -> 137 ;
138 [label="gini = 0.0\nsamples = 1\nvalue = [2, 0]"] ;
137 -> 138 ;
139 [label="gini = 0.0\nsamples = 1\nvalue = [0, 1]"] ;
137 -> 139 ;
140 [label="EFraction <= 0.1\ngini = 0.2\nsamples = 48\nvalue = [67, 11]"] ;
118 -> 140 ;
141 [label="Months <= 12.0\ngini = 0.1\nsamples = 17\nvalue = [26, 1]"] ;
140 -> 141 ;
142 [label="Months <= 10.5\ngini = 0.5\nsamples = 2\nvalue = [1, 1]"] ;
141 -> 142 ;
143 [label="gini = 0.0\nsamples = 1\nvalue = [1, 0]"] ;
142 -> 143 ;
144 [label="gini = 0.0\nsamples = 1\nvalue = [0, 1]"] ;
142 -> 144 ;
145 [label="gini = 0.0\nsamples = 15\nvalue = [25, 0]"] ;
141 -> 145 ;
146 [label="EFraction <= 0.3\ngini = 0.3\nsamples = 31\nvalue = [41, 10]"] ;
140 -> 146 ;
147 [label="EFraction <= 0.2\ngini = 0.4\nsamples = 25\nvalue = [28, 10]"] ;
146 -> 147 ;
148 [label="Phases <= 1.8\ngini = 0.3\nsamples = 16\nvalue = [20, 4]"] ;
147 -> 148 ;
149 [label="gini = 0.0\nsamples = 1\nvalue = [1, 0]"] ;
148 -> 149 ;
150 [label="Months <= 17.5\ngini = 0.3\nsamples = 15\nvalue = [19, 4]"] ;
148 -> 150 ;
151 [label="Months <= 16.5\ngini = 0.5\nsamples = 6\nvalue = [5, 3]"] ;
150 -> 151 ;
152 [label="EFraction <= 0.1\ngini = 0.4\nsamples = 5\nvalue = [5, 2]"] ;
151 -> 152 ;
153 [label="gini = 0.0\nsamples = 1\nvalue = [0, 2]"] ;
152 -> 153 ;
154 [label="gini = 0.0\nsamples = 4\nvalue = [5, 0]"] ;
152 -> 154 ;
155 [label="gini = 0.0\nsamples = 1\nvalue = [0, 1]"] ;
151 -> 155 ;
156 [label="Months <= 26.5\ngini = 0.1\nsamples = 9\nvalue = [14, 1]"] ;
150 -> 156 ;
157 [label="gini = 0.0\nsamples = 7\nvalue = [13, 0]"] ;
156 -> 157 ;
158 [label="Months <= 28.0\ngini = 0.5\nsamples = 2\nvalue = [1, 1]"] ;
156 -> 158 ;
159 [label="gini = 0.0\nsamples = 1\nvalue = [0, 1]"] ;
158 -> 159 ;
160 [label="gini = 0.0\nsamples = 1\nvalue = [1, 0]"] ;
158 -> 160 ;
161 [label="Phases <= 1.8\ngini = 0.5\nsamples = 9\nvalue = [8, 6]"] ;
147 -> 161 ;
162 [label="gini = 0.0\nsamples = 1\nvalue = [1, 0]"] ;
161 -> 162 ;
163 [label="EFraction <= 0.3\ngini = 0.5\nsamples = 8\nvalue = [7, 6]"] ;
161 -> 163 ;
164 [label="gini = 0.0\nsamples = 1\nvalue = [0, 4]"] ;
163 -> 164 ;
165 [label="EFraction <= 0.3\ngini = 0.3\nsamples = 7\nvalue = [7, 2]"] ;
163 -> 165 ;
166 [label="EFraction <= 0.3\ngini = 0.2\nsamples = 6\nvalue = [7, 1]"] ;
165 -> 166 ;
167 [label="Gender <= 0.5\ngini = 0.4\nsamples = 3\nvalue = [3, 1]"] ;
166 -> 167 ;
168 [label="gini = 0.0\nsamples = 1\nvalue = [1, 0]"] ;
167 -> 168 ;
169 [label="Months <= 25.0\ngini = 0.4\nsamples = 2\nvalue = [2, 1]"] ;
167 -> 169 ;
170 [label="gini = 0.0\nsamples = 1\nvalue = [0, 1]"] ;
169 -> 170 ;
171 [label="gini = 0.0\nsamples = 1\nvalue = [2, 0]"] ;
169 -> 171 ;
172 [label="gini = 0.0\nsamples = 3\nvalue = [4, 0]"] ;
166 -> 172 ;
173 [label="gini = 0.0\nsamples = 1\nvalue = [0, 1]"] ;
165 -> 173 ;
174 [label="gini = 0.0\nsamples = 6\nvalue = [13, 0]"] ;
146 -> 174 ;
175 [label="EFraction <= 0.3\ngini = 0.5\nsamples = 53\nvalue = [41, 33]"] ;
117 -> 175 ;
176 [label="Phases <= 0.8\ngini = 0.3\nsamples = 27\nvalue = [30, 8]"] ;
175 -> 176 ;
177 [label="gini = 0.0\nsamples = 1\nvalue = [0, 2]"] ;
176 -> 177 ;
178 [label="Months <= 102.5\ngini = 0.3\nsamples = 26\nvalue = [30, 6]"] ;
176 -> 178 ;
179 [label="EFraction <= 0.1\ngini = 0.2\nsamples = 24\nvalue = [30, 4]"] ;
178 -> 179 ;
180 [label="gini = 0.0\nsamples = 6\nvalue = [11, 0]"] ;
179 -> 180 ;
181 [label="Months <= 55.0\ngini = 0.3\nsamples = 18\nvalue = [19, 4]"] ;
179 -> 181 ;
182 [label="Months <= 51.5\ngini = 0.4\nsamples = 12\nvalue = [11, 4]"] ;
181 -> 182 ;
183 [label="EFraction <= 0.2\ngini = 0.3\nsamples = 11\nvalue = [11, 3]"] ;
182 -> 183 ;
184 [label="gini = 0.0\nsamples = 2\nvalue = [0, 2]"] ;
183 -> 184 ;
185 [label="Months <= 47.5\ngini = 0.2\nsamples = 9\nvalue = [11, 1]"] ;
183 -> 185 ;
186 [label="gini = 0.0\nsamples = 6\nvalue = [8, 0]"] ;
185 -> 186 ;
187 [label="EFraction <= 0.2\ngini = 0.4\nsamples = 3\nvalue = [3, 1]"] ;
185 -> 187 ;
188 [label="gini = 0.0\nsamples = 1\nvalue = [0, 1]"] ;
187 -> 188 ;
189 [label="gini = 0.0\nsamples = 2\nvalue = [3, 0]"] ;
187 -> 189 ;
190 [label="gini = 0.0\nsamples = 1\nvalue = [0, 1]"] ;
182 -> 190 ;
191 [label="gini = 0.0\nsamples = 6\nvalue = [8, 0]"] ;
181 -> 191 ;
192 [label="gini = 0.0\nsamples = 2\nvalue = [0, 2]"] ;
178 -> 192 ;
193 [label="Gender <= 0.5\ngini = 0.4\nsamples = 26\nvalue = [11, 25]"] ;
175 -> 193 ;
194 [label="Months <= 62.5\ngini = 0.4\nsamples = 17\nvalue = [8, 17]"] ;
193 -> 194 ;
195 [label="Phases <= 1.5\ngini = 0.2\nsamples = 13\nvalue = [2, 16]"] ;
194 -> 195 ;
196 [label="gini = 0.0\nsamples = 6\nvalue = [0, 10]"] ;
195 -> 196 ;
197 [label="Months <= 42.5\ngini = 0.4\nsamples = 7\nvalue = [2, 6]"] ;
195 -> 197 ;
198 [label="gini = 0.0\nsamples = 3\nvalue = [0, 4]"] ;
197 -> 198 ;
199 [label="Months <= 50.5\ngini = 0.5\nsamples = 4\nvalue = [2, 2]"] ;
197 -> 199 ;
200 [label="gini = 0.0\nsamples = 2\nvalue = [2, 0]"] ;
199 -> 200 ;
201 [label="gini = 0.0\nsamples = 2\nvalue = [0, 2]"] ;
199 -> 201 ;
202 [label="Months <= 80.5\ngini = 0.2\nsamples = 4\nvalue = [6, 1]"] ;
194 -> 202 ;
203 [label="gini = 0.0\nsamples = 3\nvalue = [6, 0]"] ;
202 -> 203 ;
204 [label="gini = 0.0\nsamples = 1\nvalue = [0, 1]"] ;
202 -> 204 ;
205 [label="Months <= 40.5\ngini = 0.4\nsamples = 9\nvalue = [3, 8]"] ;
193 -> 205 ;
206 [label="gini = 0.0\nsamples = 3\nvalue = [3, 0]"] ;
205 -> 206 ;
207 [label="gini = 0.0\nsamples = 6\nvalue = [0, 8]"] ;
205 -> 207 ;
208 [label="EFraction <= 0.2\ngini = 0.4\nsamples = 336\nvalue = [347, 170]"] ;
116 -> 208 ;
209 [label="Phases <= 1.8\ngini = 0.3\nsamples = 205\nvalue = [252, 58]"] ;
208 -> 209 ;
210 [label="Age_Type <= 3.5\ngini = 0.4\nsamples = 88\nvalue = [94, 37]"] ;
209 -> 210 ;
211 [label="Months <= 41.0\ngini = 0.4\nsamples = 87\nvalue = [92, 37]"] ;
210 -> 211 ;
212 [label="Months <= 4.5\ngini = 0.3\nsamples = 66\nvalue = [75, 19]"] ;
211 -> 212 ;
213 [label="EFraction <= 0.1\ngini = 0.5\nsamples = 4\nvalue = [2, 3]"] ;
212 -> 213 ;
214 [label="gini = 0.0\nsamples = 2\nvalue = [2, 0]"] ;
213 -> 214 ;
215 [label="gini = 0.0\nsamples = 2\nvalue = [0, 3]"] ;
213 -> 215 ;
216 [label="Phases <= 1.2\ngini = 0.3\nsamples = 62\nvalue = [73, 16]"] ;
212 -> 216 ;
217 [label="Months <= 5.5\ngini = 0.3\nsamples = 42\nvalue = [51, 13]"] ;
216 -> 217 ;
218 [label="gini = 0.0\nsamples = 1\nvalue = [0, 1]"] ;
217 -> 218 ;
219 [label="Phases <= 0.8\ngini = 0.3\nsamples = 41\nvalue = [51, 12]"] ;
217 -> 219 ;
220 [label="EFraction <= 0.1\ngini = 0.3\nsamples = 11\nvalue = [15, 3]"] ;
219 -> 220 ;
221 [label="gini = 0.0\nsamples = 7\nvalue = [12, 0]"] ;
220 -> 221 ;
222 [label="EFraction <= 0.1\ngini = 0.5\nsamples = 4\nvalue = [3, 3]"] ;
220 -> 222 ;
223 [label="gini = 0.0\nsamples = 1\nvalue = [0, 2]"] ;
222 -> 223 ;
224 [label="Phases <= 0.2\ngini = 0.4\nsamples = 3\nvalue = [3, 1]"] ;
222 -> 224 ;
225 [label="Months <= 36.0\ngini = 0.4\nsamples = 2\nvalue = [2, 1]"] ;
224 -> 225 ;
226 [label="gini = 0.0\nsamples = 1\nvalue = [0, 1]"] ;
225 -> 226 ;
227 [label="gini = 0.0\nsamples = 1\nvalue = [2, 0]"] ;
225 -> 227 ;
228 [label="gini = 0.0\nsamples = 1\nvalue = [1, 0]"] ;
224 -> 228 ;
229 [label="Months <= 9.5\ngini = 0.3\nsamples = 30\nvalue = [36, 9]"] ;
219 -> 229 ;
230 [label="EFraction <= 0.1\ngini = 0.5\nsamples = 3\nvalue = [2, 3]"] ;
229 -> 230 ;
231 [label="gini = 0.0\nsamples = 1\nvalue = [1, 0]"] ;
230 -> 231 ;
232 [label="EFraction <= 0.1\ngini = 0.4\nsamples = 2\nvalue = [1, 3]"] ;
230 -> 232 ;
233 [label="gini = 0.0\nsamples = 1\nvalue = [0, 3]"] ;
232 -> 233 ;
234 [label="gini = 0.0\nsamples = 1\nvalue = [1, 0]"] ;
232 -> 234 ;
235 [label="Months <= 36.5\ngini = 0.3\nsamples = 27\nvalue = [34, 6]"] ;
229 -> 235 ;
236 [label="EFraction <= 0.1\ngini = 0.3\nsamples = 24\nvalue = [27, 6]"] ;
235 -> 236 ;
237 [label="EFraction <= 0.1\ngini = 0.2\nsamples = 13\nvalue = [18, 2]"] ;
236 -> 237 ;
238 [label="EFraction <= 0.1\ngini = 0.3\nsamples = 8\nvalue = [8, 2]"] ;
237 -> 238 ;
239 [label="EFraction <= 0.0\ngini = 0.2\nsamples = 7\nvalue = [8, 1]"] ;
238 -> 239 ;
240 [label="EFraction <= 0.0\ngini = 0.4\nsamples = 3\nvalue = [3, 1]"] ;
239 -> 240 ;
241 [label="gini = 0.0\nsamples = 2\nvalue = [3, 0]"] ;
240 -> 241 ;
242 [label="gini = 0.0\nsamples = 1\nvalue = [0, 1]"] ;
240 -> 242 ;
243 [label="gini = 0.0\nsamples = 4\nvalue = [5, 0]"] ;
239 -> 243 ;
244 [label="gini = 0.0\nsamples = 1\nvalue = [0, 1]"] ;
238 -> 244 ;
245 [label="gini = 0.0\nsamples = 5\nvalue = [10, 0]"] ;
237 -> 245 ;
246 [label="Months <= 33.5\ngini = 0.4\nsamples = 11\nvalue = [9, 4]"] ;
236 -> 246 ;
247 [label="EFraction <= 0.1\ngini = 0.3\nsamples = 8\nvalue = [8, 2]"] ;
246 -> 247 ;
248 [label="gini = 0.0\nsamples = 1\nvalue = [0, 1]"] ;
247 -> 248 ;
249 [label="Months <= 16.5\ngini = 0.2\nsamples = 7\nvalue = [8, 1]"] ;
247 -> 249 ;
250 [label="Months <= 15.0\ngini = 0.4\nsamples = 3\nvalue = [3, 1]"] ;
249 -> 250 ;
251 [label="gini = 0.0\nsamples = 2\nvalue = [3, 0]"] ;
250 -> 251 ;
252 [label="gini = 0.0\nsamples = 1\nvalue = [0, 1]"] ;
250 -> 252 ;
253 [label="gini = 0.0\nsamples = 4\nvalue = [5, 0]"] ;
249 -> 253 ;
254 [label="EFraction <= 0.2\ngini = 0.4\nsamples = 3\nvalue = [1, 2]"] ;
246 -> 254 ;
255 [label="gini = 0.0\nsamples = 2\nvalue = [0, 2]"] ;
254 -> 255 ;
256 [label="gini = 0.0\nsamples = 1\nvalue = [1, 0]"] ;
254 -> 256 ;
257 [label="gini = 0.0\nsamples = 3\nvalue = [7, 0]"] ;
235 -> 257 ;
258 [label="EFraction <= 0.1\ngini = 0.2\nsamples = 20\nvalue = [22, 3]"] ;
216 -> 258 ;
259 [label="gini = 0.0\nsamples = 16\nvalue = [20, 0]"] ;
258 -> 259 ;
260 [label="Months <= 28.0\ngini = 0.5\nsamples = 4\nvalue = [2, 3]"] ;
258 -> 260 ;
261 [label="EFraction <= 0.2\ngini = 0.4\nsamples = 3\nvalue = [2, 1]"] ;
260 -> 261 ;
262 [label="gini = 0.0\nsamples = 1\nvalue = [0, 1]"] ;
261 -> 262 ;
263 [label="gini = 0.0\nsamples = 2\nvalue = [2, 0]"] ;
261 -> 263 ;
264 [label="gini = 0.0\nsamples = 1\nvalue = [0, 2]"] ;
260 -> 264 ;
265 [label="Months <= 44.5\ngini = 0.5\nsamples = 21\nvalue = [17, 18]"] ;
211 -> 265 ;
266 [label="Months <= 42.5\ngini = 0.3\nsamples = 7\nvalue = [2, 10]"] ;
265 -> 266 ;
267 [label="EFraction <= 0.2\ngini = 0.5\nsamples = 3\nvalue = [2, 2]"] ;
266 -> 267 ;
268 [label="gini = 0.0\nsamples = 2\nvalue = [2, 0]"] ;
267 -> 268 ;
269 [label="gini = 0.0\nsamples = 1\nvalue = [0, 2]"] ;
267 -> 269 ;
270 [label="gini = 0.0\nsamples = 4\nvalue = [0, 8]"] ;
266 -> 270 ;
271 [label="EFraction <= 0.1\ngini = 0.5\nsamples = 14\nvalue = [15, 8]"] ;
265 -> 271 ;
272 [label="gini = 0.0\nsamples = 5\nvalue = [8, 0]"] ;
271 -> 272 ;
273 [label="Months <= 72.5\ngini = 0.5\nsamples = 9\nvalue = [7, 8]"] ;
271 -> 273 ;
274 [label="EFraction <= 0.2\ngini = 0.4\nsamples = 7\nvalue = [3, 8]"] ;
273 -> 274 ;
275 [label="EFraction <= 0.2\ngini = 0.3\nsamples = 6\nvalue = [2, 8]"] ;
274 -> 275 ;
276 [label="Phases <= 1.2\ngini = 0.4\nsamples = 5\nvalue = [2, 5]"] ;
275 -> 276 ;
277 [label="EFraction <= 0.2\ngini = 0.4\nsamples = 3\nvalue = [2, 1]"] ;
276 -> 277 ;
278 [label="gini = 0.0\nsamples = 1\nvalue = [1, 0]"] ;
277 -> 278 ;
279 [label="EFraction <= 0.2\ngini = 0.5\nsamples = 2\nvalue = [1, 1]"] ;
277 -> 279 ;
280 [label="gini = 0.0\nsamples = 1\nvalue = [0, 1]"] ;
279 -> 280 ;
281 [label="gini = 0.0\nsamples = 1\nvalue = [1, 0]"] ;
279 -> 281 ;
282 [label="gini = 0.0\nsamples = 2\nvalue = [0, 4]"] ;
276 -> 282 ;
283 [label="gini = 0.0\nsamples = 1\nvalue = [0, 3]"] ;
275 -> 283 ;
284 [label="gini = 0.0\nsamples = 1\nvalue = [1, 0]"] ;
274 -> 284 ;
285 [label="gini = 0.0\nsamples = 2\nvalue = [4, 0]"] ;
273 -> 285 ;
286 [label="gini = 0.0\nsamples = 1\nvalue = [2, 0]"] ;
210 -> 286 ;
287 [label="EFraction <= 0.1\ngini = 0.2\nsamples = 117\nvalue = [158, 21]"] ;
209 -> 287 ;
288 [label="Age_Type <= 3.5\ngini = 0.1\nsamples = 32\nvalue = [50, 3]"] ;
287 -> 288 ;
289 [label="Months <= 6.5\ngini = 0.1\nsamples = 31\nvalue = [49, 3]"] ;
288 -> 289 ;
290 [label="Months <= 1.5\ngini = 0.5\nsamples = 6\nvalue = [5, 3]"] ;
289 -> 290 ;
291 [label="gini = 0.0\nsamples = 1\nvalue = [2, 0]"] ;
290 -> 291 ;
292 [label="EFraction <= 0.0\ngini = 0.5\nsamples = 5\nvalue = [3, 3]"] ;
290 -> 292 ;
293 [label="gini = 0.0\nsamples = 1\nvalue = [0, 2]"] ;
292 -> 293 ;
294 [label="Months <= 3.0\ngini = 0.4\nsamples = 4\nvalue = [3, 1]"] ;
292 -> 294 ;
295 [label="gini = 0.0\nsamples = 1\nvalue = [0, 1]"] ;
294 -> 295 ;
296 [label="gini = 0.0\nsamples = 3\nvalue = [3, 0]"] ;
294 -> 296 ;
297 [label="gini = 0.0\nsamples = 25\nvalue = [44, 0]"] ;
289 -> 297 ;
298 [label="gini = 0.0\nsamples = 1\nvalue = [1, 0]"] ;
288 -> 298 ;
299 [label="EFraction <= 0.1\ngini = 0.2\nsamples = 85\nvalue = [108, 18]"] ;
287 -> 299 ;
300 [label="Months <= 48.0\ngini = 0.4\nsamples = 2\nvalue = [1, 2]"] ;
299 -> 300 ;
301 [label="gini = 0.0\nsamples = 1\nvalue = [1, 0]"] ;
300 -> 301 ;
302 [label="gini = 0.0\nsamples = 1\nvalue = [0, 2]"] ;
300 -> 302 ;
303 [label="EFraction <= 0.1\ngini = 0.2\nsamples = 83\nvalue = [107, 16]"] ;
299 -> 303 ;
304 [label="gini = 0.0\nsamples = 6\nvalue = [11, 0]"] ;
303 -> 304 ;
305 [label="Age_Type <= 3.5\ngini = 0.2\nsamples = 77\nvalue = [96, 16]"] ;
303 -> 305 ;
306 [label="EFraction <= 0.1\ngini = 0.2\nsamples = 76\nvalue = [96, 15]"] ;
305 -> 306 ;
307 [label="Months <= 17.0\ngini = 0.4\nsamples = 10\nvalue = [8, 4]"] ;
306 -> 307 ;
308 [label="gini = 0.0\nsamples = 4\nvalue = [5, 0]"] ;
307 -> 308 ;
309 [label="Months <= 28.5\ngini = 0.5\nsamples = 6\nvalue = [3, 4]"] ;
307 -> 309 ;
310 [label="gini = 0.0\nsamples = 2\nvalue = [0, 3]"] ;
309 -> 310 ;
311 [label="Months <= 44.5\ngini = 0.4\nsamples = 4\nvalue = [3, 1]"] ;
309 -> 311 ;
312 [label="gini = 0.0\nsamples = 2\nvalue = [2, 0]"] ;
311 -> 312 ;
313 [label="Months <= 73.0\ngini = 0.5\nsamples = 2\nvalue = [1, 1]"] ;
311 -> 313 ;
314 [label="gini = 0.0\nsamples = 1\nvalue = [0, 1]"] ;
313 -> 314 ;
315 [label="gini = 0.0\nsamples = 1\nvalue = [1, 0]"] ;
313 -> 315 ;
316 [label="Months <= 53.5\ngini = 0.2\nsamples = 66\nvalue = [88, 11]"] ;
306 -> 316 ;
317 [label="EFraction <= 0.1\ngini = 0.1\nsamples = 58\nvalue = [85, 5]"] ;
316 -> 317 ;
318 [label="Months <= 26.5\ngini = 0.3\nsamples = 5\nvalue = [4, 1]"] ;
317 -> 318 ;
319 [label="gini = 0.0\nsamples = 3\nvalue = [3, 0]"] ;
318 -> 319 ;
320 [label="EFraction <= 0.1\ngini = 0.5\nsamples = 2\nvalue = [1, 1]"] ;
318 -> 320 ;
321 [label="gini = 0.0\nsamples = 1\nvalue = [1, 0]"] ;
320 -> 321 ;
322 [label="gini = 0.0\nsamples = 1\nvalue = [0, 1]"] ;
320 -> 322 ;
323 [label="EFraction <= 0.2\ngini = 0.1\nsamples = 53\nvalue = [81, 4]"] ;
317 -> 323 ;
324 [label="EFraction <= 0.2\ngini = 0.1\nsamples = 23\nvalue = [39, 3]"] ;
323 -> 324 ;
325 [label="Months <= 33.5\ngini = 0.0\nsamples = 22\nvalue = [39, 1]"] ;
324 -> 325 ;
326 [label="gini = 0.0\nsamples = 18\nvalue = [35, 0]"] ;
325 -> 326 ;
327 [label="Months <= 42.0\ngini = 0.3\nsamples = 4\nvalue = [4, 1]"] ;
325 -> 327 ;
328 [label="EFraction <= 0.1\ngini = 0.5\nsamples = 2\nvalue = [1, 1]"] ;
327 -> 328 ;
329 [label="gini = 0.0\nsamples = 1\nvalue = [0, 1]"] ;
328 -> 329 ;
330 [label="gini = 0.0\nsamples = 1\nvalue = [1, 0]"] ;
328 -> 330 ;
331 [label="gini = 0.0\nsamples = 2\nvalue = [3, 0]"] ;
327 -> 331 ;
332 [label="gini = 0.0\nsamples = 1\nvalue = [0, 2]"] ;
324 -> 332 ;
333 [label="EFraction <= 0.2\ngini = 0.0\nsamples = 30\nvalue = [42, 1]"] ;
323 -> 333 ;
334 [label="gini = 0.0\nsamples = 22\nvalue = [29, 0]"] ;
333 -> 334 ;
335 [label="Months <= 32.0\ngini = 0.1\nsamples = 8\nvalue = [13, 1]"] ;
333 -> 335 ;
336 [label="gini = 0.0\nsamples = 5\nvalue = [10, 0]"] ;
335 -> 336 ;
337 [label="Months <= 37.0\ngini = 0.4\nsamples = 3\nvalue = [3, 1]"] ;
335 -> 337 ;
338 [label="gini = 0.0\nsamples = 1\nvalue = [0, 1]"] ;
337 -> 338 ;
339 [label="gini = 0.0\nsamples = 2\nvalue = [3, 0]"] ;
337 -> 339 ;
340 [label="EFraction <= 0.1\ngini = 0.4\nsamples = 8\nvalue = [3, 6]"] ;
316 -> 340 ;
341 [label="EFraction <= 0.1\ngini = 0.4\nsamples = 3\nvalue = [3, 1]"] ;
340 -> 341 ;
342 [label="Months <= 58.0\ngini = 0.5\nsamples = 2\nvalue = [1, 1]"] ;
341 -> 342 ;
343 [label="gini = 0.0\nsamples = 1\nvalue = [0, 1]"] ;
342 -> 343 ;
344 [label="gini = 0.0\nsamples = 1\nvalue = [1, 0]"] ;
342 -> 344 ;
345 [label="gini = 0.0\nsamples = 1\nvalue = [2, 0]"] ;
341 -> 345 ;
346 [label="gini = 0.0\nsamples = 5\nvalue = [0, 5]"] ;
340 -> 346 ;
347 [label="gini = 0.0\nsamples = 1\nvalue = [0, 1]"] ;
305 -> 347 ;
348 [label="Months <= 27.5\ngini = 0.5\nsamples = 131\nvalue = [95, 112]"] ;
208 -> 348 ;
349 [label="Phases <= 1.8\ngini = 0.5\nsamples = 53\nvalue = [46, 35]"] ;
348 -> 349 ;
350 [label="EFraction <= 0.3\ngini = 0.5\nsamples = 31\nvalue = [16, 28]"] ;
349 -> 350 ;
351 [label="Phases <= 0.5\ngini = 0.5\nsamples = 4\nvalue = [4, 3]"] ;
350 -> 351 ;
352 [label="gini = 0.0\nsamples = 1\nvalue = [2, 0]"] ;
351 -> 352 ;
353 [label="EFraction <= 0.2\ngini = 0.5\nsamples = 3\nvalue = [2, 3]"] ;
351 -> 353 ;
354 [label="gini = 0.0\nsamples = 1\nvalue = [0, 1]"] ;
353 -> 354 ;
355 [label="Months <= 18.5\ngini = 0.5\nsamples = 2\nvalue = [2, 2]"] ;
353 -> 355 ;
356 [label="gini = 0.0\nsamples = 1\nvalue = [2, 0]"] ;
355 -> 356 ;
357 [label="gini = 0.0\nsamples = 1\nvalue = [0, 2]"] ;
355 -> 357 ;
358 [label="EFraction <= 0.3\ngini = 0.4\nsamples = 27\nvalue = [12, 25]"] ;
350 -> 358 ;
359 [label="gini = 0.0\nsamples = 5\nvalue = [0, 7]"] ;
358 -> 359 ;
360 [label="EFraction <= 0.3\ngini = 0.5\nsamples = 22\nvalue = [12, 18]"] ;
358 -> 360 ;
361 [label="Phases <= 0.8\ngini = 0.5\nsamples = 9\nvalue = [8, 6]"] ;
360 -> 361 ;
362 [label="Months <= 13.5\ngini = 0.4\nsamples = 2\nvalue = [1, 3]"] ;
361 -> 362 ;
363 [label="gini = 0.0\nsamples = 1\nvalue = [0, 3]"] ;
362 -> 363 ;
364 [label="gini = 0.0\nsamples = 1\nvalue = [1, 0]"] ;
362 -> 364 ;
365 [label="Months <= 14.0\ngini = 0.4\nsamples = 7\nvalue = [7, 3]"] ;
361 -> 365 ;
366 [label="gini = 0.0\nsamples = 1\nvalue = [0, 2]"] ;
365 -> 366 ;
367 [label="Months <= 25.0\ngini = 0.2\nsamples = 6\nvalue = [7, 1]"] ;
365 -> 367 ;
368 [label="gini = 0.0\nsamples = 3\nvalue = [4, 0]"] ;
367 -> 368 ;
369 [label="Months <= 26.5\ngini = 0.4\nsamples = 3\nvalue = [3, 1]"] ;
367 -> 369 ;
370 [label="EFraction <= 0.3\ngini = 0.4\nsamples = 2\nvalue = [2, 1]"] ;
369 -> 370 ;
371 [label="gini = 0.0\nsamples = 1\nvalue = [0, 1]"] ;
370 -> 371 ;
372 [label="gini = 0.0\nsamples = 1\nvalue = [2, 0]"] ;
370 -> 372 ;
373 [label="gini = 0.0\nsamples = 1\nvalue = [1, 0]"] ;
369 -> 373 ;
374 [label="Months <= 19.0\ngini = 0.4\nsamples = 13\nvalue = [4, 12]"] ;
360 -> 374 ;
375 [label="Age_Type <= 3.5\ngini = 0.5\nsamples = 5\nvalue = [3, 3]"] ;
374 -> 375 ;
376 [label="EFraction <= 0.4\ngini = 0.5\nsamples = 4\nvalue = [3, 2]"] ;
375 -> 376 ;
377 [label="Phases <= 1.2\ngini = 0.4\nsamples = 3\nvalue = [1, 2]"] ;
376 -> 377 ;
378 [label="gini = 0.0\nsamples = 2\nvalue = [0, 2]"] ;
377 -> 378 ;
379 [label="gini = 0.0\nsamples = 1\nvalue = [1, 0]"] ;
377 -> 379 ;
380 [label="gini = 0.0\nsamples = 1\nvalue = [2, 0]"] ;
376 -> 380 ;
381 [label="gini = 0.0\nsamples = 1\nvalue = [0, 1]"] ;
375 -> 381 ;
382 [label="EFraction <= 0.3\ngini = 0.2\nsamples = 8\nvalue = [1, 9]"] ;
374 -> 382 ;
383 [label="Months <= 22.5\ngini = 0.4\nsamples = 3\nvalue = [1, 2]"] ;
382 -> 383 ;
384 [label="gini = 0.0\nsamples = 1\nvalue = [0, 1]"] ;
383 -> 384 ;
385 [label="Phases <= 0.5\ngini = 0.5\nsamples = 2\nvalue = [1, 1]"] ;
383 -> 385 ;
386 [label="gini = 0.0\nsamples = 1\nvalue = [1, 0]"] ;
385 -> 386 ;
387 [label="gini = 0.0\nsamples = 1\nvalue = [0, 1]"] ;
385 -> 387 ;
388 [label="gini = 0.0\nsamples = 5\nvalue = [0, 7]"] ;
382 -> 388 ;
389 [label="Months <= 18.5\ngini = 0.3\nsamples = 22\nvalue = [30, 7]"] ;
349 -> 389 ;
390 [label="Months <= 13.5\ngini = 0.4\nsamples = 16\nvalue = [17, 7]"] ;
389 -> 390 ;
391 [label="EFraction <= 0.3\ngini = 0.2\nsamples = 8\nvalue = [8, 1]"] ;
390 -> 391 ;
392 [label="gini = 0.0\nsamples = 4\nvalue = [4, 0]"] ;
391 -> 392 ;
393 [label="Months <= 7.0\ngini = 0.3\nsamples = 4\nvalue = [4, 1]"] ;
391 -> 393 ;
394 [label="gini = 0.0\nsamples = 1\nvalue = [0, 1]"] ;
393 -> 394 ;
395 [label="gini = 0.0\nsamples = 3\nvalue = [4, 0]"] ;
393 -> 395 ;
396 [label="Months <= 17.5\ngini = 0.5\nsamples = 8\nvalue = [9, 6]"] ;
390 -> 396 ;
397 [label="EFraction <= 0.3\ngini = 0.4\nsamples = 5\nvalue = [6, 3]"] ;
396 -> 397 ;
398 [label="gini = 0.0\nsamples = 3\nvalue = [6, 0]"] ;
397 -> 398 ;
399 [label="gini = 0.0\nsamples = 2\nvalue = [0, 3]"] ;
397 -> 399 ;
400 [label="EFraction <= 0.4\ngini = 0.5\nsamples = 3\nvalue = [3, 3]"] ;
396 -> 400 ;
401 [label="EFraction <= 0.3\ngini = 0.4\nsamples = 2\nvalue = [1, 3]"] ;
400 -> 401 ;
402 [label="gini = 0.0\nsamples = 1\nvalue = [1, 0]"] ;
401 -> 402 ;
403 [label="gini = 0.0\nsamples = 1\nvalue = [0, 3]"] ;
401 -> 403 ;
404 [label="gini = 0.0\nsamples = 1\nvalue = [2, 0]"] ;
400 -> 404 ;
405 [label="gini = 0.0\nsamples = 6\nvalue = [13, 0]"] ;
389 -> 405 ;
406 [label="Phases <= 1.2\ngini = 0.5\nsamples = 78\nvalue = [49, 77]"] ;
348 -> 406 ;
407 [label="Phases <= 0.8\ngini = 0.3\nsamples = 26\nvalue = [10, 37]"] ;
406 -> 407 ;
408 [label="Phases <= 0.2\ngini = 0.5\nsamples = 10\nvalue = [7, 10]"] ;
407 -> 408 ;
409 [label="EFraction <= 0.3\ngini = 0.4\nsamples = 9\nvalue = [5, 10]"] ;
408 -> 409 ;
410 [label="gini = 0.0\nsamples = 1\nvalue = [0, 3]"] ;
409 -> 410 ;
411 [label="Months <= 60.0\ngini = 0.5\nsamples = 8\nvalue = [5, 7]"] ;
409 -> 411 ;
412 [label="Months <= 33.5\ngini = 0.4\nsamples = 4\nvalue = [4, 2]"] ;
411 -> 412 ;
413 [label="gini = 0.0\nsamples = 1\nvalue = [0, 1]"] ;
412 -> 413 ;
414 [label="EFraction <= 0.4\ngini = 0.3\nsamples = 3\nvalue = [4, 1]"] ;
412 -> 414 ;
415 [label="gini = 0.0\nsamples = 2\nvalue = [4, 0]"] ;
414 -> 415 ;
416 [label="gini = 0.0\nsamples = 1\nvalue = [0, 1]"] ;
414 -> 416 ;
417 [label="EFraction <= 0.3\ngini = 0.3\nsamples = 4\nvalue = [1, 5]"] ;
411 -> 417 ;
418 [label="gini = 0.0\nsamples = 1\nvalue = [1, 0]"] ;
417 -> 418 ;
419 [label="gini = 0.0\nsamples = 3\nvalue = [0, 5]"] ;
417 -> 419 ;
420 [label="gini = 0.0\nsamples = 1\nvalue = [2, 0]"] ;
408 -> 420 ;
421 [label="EFraction <= 0.4\ngini = 0.2\nsamples = 16\nvalue = [3, 27]"] ;
407 -> 421 ;
422 [label="Months <= 66.5\ngini = 0.1\nsamples = 14\nvalue = [2, 26]"] ;
421 -> 422 ;
423 [label="gini = 0.0\nsamples = 8\nvalue = [0, 20]"] ;
422 -> 423 ;
424 [label="EFraction <= 0.2\ngini = 0.4\nsamples = 6\nvalue = [2, 6]"] ;
422 -> 424 ;
425 [label="gini = 0.0\nsamples = 1\nvalue = [1, 0]"] ;
424 -> 425 ;
426 [label="EFraction <= 0.2\ngini = 0.2\nsamples = 5\nvalue = [1, 6]"] ;
424 -> 426 ;
427 [label="gini = 0.0\nsamples = 2\nvalue = [0, 3]"] ;
426 -> 427 ;
428 [label="Months <= 92.5\ngini = 0.4\nsamples = 3\nvalue = [1, 3]"] ;
426 -> 428 ;
429 [label="EFraction <= 0.3\ngini = 0.4\nsamples = 2\nvalue = [1, 2]"] ;
428 -> 429 ;
430 [label="gini = 0.0\nsamples = 1\nvalue = [1, 0]"] ;
429 -> 430 ;
431 [label="gini = 0.0\nsamples = 1\nvalue = [0, 2]"] ;
429 -> 431 ;
432 [label="gini = 0.0\nsamples = 1\nvalue = [0, 1]"] ;
428 -> 432 ;
433 [label="Months <= 44.5\ngini = 0.5\nsamples = 2\nvalue = [1, 1]"] ;
421 -> 433 ;
434 [label="gini = 0.0\nsamples = 1\nvalue = [0, 1]"] ;
433 -> 434 ;
435 [label="gini = 0.0\nsamples = 1\nvalue = [1, 0]"] ;
433 -> 435 ;
436 [label="EFraction <= 0.3\ngini = 0.5\nsamples = 52\nvalue = [39, 40]"] ;
406 -> 436 ;
437 [label="EFraction <= 0.3\ngini = 0.5\nsamples = 43\nvalue = [29, 37]"] ;
436 -> 437 ;
438 [label="EFraction <= 0.3\ngini = 0.5\nsamples = 32\nvalue = [28, 21]"] ;
437 -> 438 ;
439 [label="Phases <= 1.8\ngini = 0.5\nsamples = 30\nvalue = [23, 21]"] ;
438 -> 439 ;
440 [label="gini = 0.0\nsamples = 2\nvalue = [4, 0]"] ;
439 -> 440 ;
441 [label="EFraction <= 0.3\ngini = 0.5\nsamples = 28\nvalue = [19, 21]"] ;
439 -> 441 ;
442 [label="EFraction <= 0.3\ngini = 0.5\nsamples = 25\nvalue = [18, 17]"] ;
441 -> 442 ;
443 [label="Months <= 32.5\ngini = 0.5\nsamples = 22\nvalue = [13, 17]"] ;
442 -> 443 ;
444 [label="gini = 0.0\nsamples = 3\nvalue = [0, 3]"] ;
443 -> 444 ;
445 [label="Months <= 45.0\ngini = 0.5\nsamples = 19\nvalue = [13, 14]"] ;
443 -> 445 ;
446 [label="EFraction <= 0.3\ngini = 0.4\nsamples = 5\nvalue = [6, 2]"] ;
445 -> 446 ;
447 [label="gini = 0.0\nsamples = 4\nvalue = [6, 0]"] ;
446 -> 447 ;
448 [label="gini = 0.0\nsamples = 1\nvalue = [0, 2]"] ;
446 -> 448 ;
449 [label="EFraction <= 0.3\ngini = 0.5\nsamples = 14\nvalue = [7, 12]"] ;
445 -> 449 ;
450 [label="EFraction <= 0.2\ngini = 0.2\nsamples = 4\nvalue = [1, 6]"] ;
449 -> 450 ;
451 [label="gini = 0.0\nsamples = 1\nvalue = [0, 2]"] ;
450 -> 451 ;
452 [label="Months <= 56.5\ngini = 0.3\nsamples = 3\nvalue = [1, 4]"] ;
450 -> 452 ;
453 [label="gini = 0.0\nsamples = 1\nvalue = [0, 2]"] ;
452 -> 453 ;
454 [label="Months <= 61.5\ngini = 0.4\nsamples = 2\nvalue = [1, 2]"] ;
452 -> 454 ;
455 [label="gini = 0.0\nsamples = 1\nvalue = [1, 0]"] ;
454 -> 455 ;
456 [label="gini = 0.0\nsamples = 1\nvalue = [0, 2]"] ;
454 -> 456 ;
457 [label="EFraction <= 0.3\ngini = 0.5\nsamples = 10\nvalue = [6, 6]"] ;
449 -> 457 ;
458 [label="gini = 0.0\nsamples = 2\nvalue = [3, 0]"] ;
457 -> 458 ;
459 [label="Months <= 47.5\ngini = 0.4\nsamples = 8\nvalue = [3, 6]"] ;
457 -> 459 ;
460 [label="gini = 0.0\nsamples = 1\nvalue = [0, 2]"] ;
459 -> 460 ;
461 [label="Months <= 57.5\ngini = 0.5\nsamples = 7\nvalue = [3, 4]"] ;
459 -> 461 ;
462 [label="gini = 0.0\nsamples = 2\nvalue = [2, 0]"] ;
461 -> 462 ;
463 [label="EFraction <= 0.3\ngini = 0.3\nsamples = 5\nvalue = [1, 4]"] ;
461 -> 463 ;
464 [label="gini = 0.0\nsamples = 3\nvalue = [0, 3]"] ;
463 -> 464 ;
465 [label="EFraction <= 0.3\ngini = 0.5\nsamples = 2\nvalue = [1, 1]"] ;
463 -> 465 ;
466 [label="gini = 0.0\nsamples = 1\nvalue = [1, 0]"] ;
465 -> 466 ;
467 [label="gini = 0.0\nsamples = 1\nvalue = [0, 1]"] ;
465 -> 467 ;
468 [label="gini = 0.0\nsamples = 3\nvalue = [5, 0]"] ;
442 -> 468 ;
469 [label="EFraction <= 0.3\ngini = 0.3\nsamples = 3\nvalue = [1, 4]"] ;
441 -> 469 ;
470 [label="gini = 0.0\nsamples = 1\nvalue = [0, 3]"] ;
469 -> 470 ;
471 [label="Months <= 45.0\ngini = 0.5\nsamples = 2\nvalue = [1, 1]"] ;
469 -> 471 ;
472 [label="gini = 0.0\nsamples = 1\nvalue = [0, 1]"] ;
471 -> 472 ;
473 [label="gini = 0.0\nsamples = 1\nvalue = [1, 0]"] ;
471 -> 473 ;
474 [label="gini = 0.0\nsamples = 2\nvalue = [5, 0]"] ;
438 -> 474 ;
475 [label="Phases <= 1.8\ngini = 0.1\nsamples = 11\nvalue = [1, 16]"] ;
437 -> 475 ;
476 [label="gini = 0.0\nsamples = 3\nvalue = [0, 4]"] ;
475 -> 476 ;
477 [label="Months <= 84.5\ngini = 0.1\nsamples = 8\nvalue = [1, 12]"] ;
475 -> 477 ;
478 [label="gini = 0.0\nsamples = 7\nvalue = [0, 12]"] ;
477 -> 478 ;
479 [label="gini = 0.0\nsamples = 1\nvalue = [1, 0]"] ;
477 -> 479 ;
480 [label="EFraction <= 0.4\ngini = 0.4\nsamples = 9\nvalue = [10, 3]"] ;
436 -> 480 ;
481 [label="gini = 0.0\nsamples = 4\nvalue = [7, 0]"] ;
480 -> 481 ;
482 [label="EFraction <= 0.4\ngini = 0.5\nsamples = 5\nvalue = [3, 3]"] ;
480 -> 482 ;
483 [label="gini = 0.0\nsamples = 2\nvalue = [0, 2]"] ;
482 -> 483 ;
484 [label="Phases <= 1.8\ngini = 0.4\nsamples = 3\nvalue = [3, 1]"] ;
482 -> 484 ;
485 [label="gini = 0.0\nsamples = 1\nvalue = [0, 1]"] ;
484 -> 485 ;
486 [label="gini = 0.0\nsamples = 2\nvalue = [3, 0]"] ;
484 -> 486 ;
487 [label="Phases <= 0.5\ngini = 0.5\nsamples = 13\nvalue = [7, 12]"] ;
115 -> 487 ;
488 [label="gini = 0.0\nsamples = 2\nvalue = [3, 0]"] ;
487 -> 488 ;
489 [label="Gender <= 1.0\ngini = 0.4\nsamples = 11\nvalue = [4, 12]"] ;
487 -> 489 ;
490 [label="gini = 0.0\nsamples = 1\nvalue = [0, 1]"] ;
489 -> 490 ;
491 [label="Months <= 22.0\ngini = 0.4\nsamples = 10\nvalue = [4, 11]"] ;
489 -> 491 ;
492 [label="EFraction <= 0.0\ngini = 0.4\nsamples = 3\nvalue = [3, 1]"] ;
491 -> 492 ;
493 [label="gini = 0.0\nsamples = 1\nvalue = [2, 0]"] ;
492 -> 493 ;
494 [label="EFraction <= 0.2\ngini = 0.5\nsamples = 2\nvalue = [1, 1]"] ;
492 -> 494 ;
495 [label="gini = 0.0\nsamples = 1\nvalue = [0, 1]"] ;
494 -> 495 ;
496 [label="gini = 0.0\nsamples = 1\nvalue = [1, 0]"] ;
494 -> 496 ;
497 [label="Phases <= 1.5\ngini = 0.2\nsamples = 7\nvalue = [1, 10]"] ;
491 -> 497 ;
498 [label="gini = 0.0\nsamples = 2\nvalue = [0, 2]"] ;
497 -> 498 ;
499 [label="Months <= 53.0\ngini = 0.2\nsamples = 5\nvalue = [1, 8]"] ;
497 -> 499 ;
500 [label="Months <= 28.0\ngini = 0.4\nsamples = 2\nvalue = [1, 2]"] ;
499 -> 500 ;
501 [label="gini = 0.0\nsamples = 1\nvalue = [0, 2]"] ;
500 -> 501 ;
502 [label="gini = 0.0\nsamples = 1\nvalue = [1, 0]"] ;
500 -> 502 ;
503 [label="gini = 0.0\nsamples = 3\nvalue = [0, 6]"] ;
499 -> 503 ;
504 [label="EFraction <= 0.7\ngini = 0.2\nsamples = 2406\nvalue = [436, 3332]"] ;
114 -> 504 ;
505 [label="Months <= 40.5\ngini = 0.4\nsamples = 521\nvalue = [233, 618]"] ;
504 -> 505 ;
506 [label="EFraction <= 0.5\ngini = 0.4\nsamples = 276\nvalue = [146, 308]"] ;
505 -> 506 ;
507 [label="Phases <= 1.2\ngini = 0.5\nsamples = 81\nvalue = [57, 66]"] ;
506 -> 507 ;
508 [label="Phases <= 0.2\ngini = 0.4\nsamples = 24\nvalue = [9, 23]"] ;
507 -> 508 ;
509 [label="Months <= 17.5\ngini = 0.2\nsamples = 7\nvalue = [1, 7]"] ;
508 -> 509 ;
510 [label="gini = 0.0\nsamples = 1\nvalue = [1, 0]"] ;
509 -> 510 ;
511 [label="gini = 0.0\nsamples = 6\nvalue = [0, 7]"] ;
509 -> 511 ;
512 [label="Phases <= 0.8\ngini = 0.4\nsamples = 17\nvalue = [8, 16]"] ;
508 -> 512 ;
513 [label="Months <= 17.0\ngini = 0.5\nsamples = 3\nvalue = [3, 2]"] ;
512 -> 513 ;
514 [label="Months <= 8.5\ngini = 0.4\nsamples = 2\nvalue = [1, 2]"] ;
513 -> 514 ;
515 [label="gini = 0.0\nsamples = 1\nvalue = [1, 0]"] ;
514 -> 515 ;
516 [label="gini = 0.0\nsamples = 1\nvalue = [0, 2]"] ;
514 -> 516 ;
517 [label="gini = 0.0\nsamples = 1\nvalue = [2, 0]"] ;
513 -> 517 ;
518 [label="Months <= 8.0\ngini = 0.4\nsamples = 14\nvalue = [5, 14]"] ;
512 -> 518 ;
519 [label="gini = 0.0\nsamples = 1\nvalue = [1, 0]"] ;
518 -> 519 ;
520 [label="EFraction <= 0.5\ngini = 0.3\nsamples = 13\nvalue = [4, 14]"] ;
518 -> 520 ;
521 [label="gini = 0.0\nsamples = 10\nvalue = [0, 13]"] ;
520 -> 521 ;
522 [label="EFraction <= 0.5\ngini = 0.3\nsamples = 3\nvalue = [4, 1]"] ;
520 -> 522 ;
523 [label="gini = 0.0\nsamples = 2\nvalue = [4, 0]"] ;
522 -> 523 ;
524 [label="gini = 0.0\nsamples = 1\nvalue = [0, 1]"] ;
522 -> 524 ;
525 [label="EFraction <= 0.4\ngini = 0.5\nsamples = 57\nvalue = [48, 43]"] ;
507 -> 525 ;
526 [label="gini = 0.0\nsamples = 2\nvalue = [0, 5]"] ;
525 -> 526 ;
527 [label="Age_Type <= 4.0\ngini = 0.5\nsamples = 55\nvalue = [48, 38]"] ;
525 -> 527 ;
528 [label="EFraction <= 0.4\ngini = 0.5\nsamples = 54\nvalue = [48, 37]"] ;
527 -> 528 ;
529 [label="EFraction <= 0.4\ngini = 0.2\nsamples = 9\nvalue = [15, 2]"] ;
528 -> 529 ;
530 [label="gini = 0.0\nsamples = 3\nvalue = [7, 0]"] ;
529 -> 530 ;
531 [label="Months <= 23.5\ngini = 0.3\nsamples = 6\nvalue = [8, 2]"] ;
529 -> 531 ;
532 [label="Gender <= 1.5\ngini = 0.2\nsamples = 4\nvalue = [7, 1]"] ;
531 -> 532 ;
533 [label="gini = 0.0\nsamples = 1\nvalue = [4, 0]"] ;
532 -> 533 ;
534 [label="Months <= 21.0\ngini = 0.4\nsamples = 3\nvalue = [3, 1]"] ;
532 -> 534 ;
535 [label="gini = 0.0\nsamples = 2\nvalue = [3, 0]"] ;
534 -> 535 ;
536 [label="gini = 0.0\nsamples = 1\nvalue = [0, 1]"] ;
534 -> 536 ;
537 [label="gini = 0.5\nsamples = 2\nvalue = [1, 1]"] ;
531 -> 537 ;
538 [label="EFraction <= 0.4\ngini = 0.5\nsamples = 45\nvalue = [33, 35]"] ;
528 -> 538 ;
539 [label="gini = 0.0\nsamples = 3\nvalue = [0, 6]"] ;
538 -> 539 ;
540 [label="EFraction <= 0.4\ngini = 0.5\nsamples = 42\nvalue = [33, 29]"] ;
538 -> 540 ;
541 [label="gini = 0.0\nsamples = 3\nvalue = [4, 0]"] ;
540 -> 541 ;
542 [label="Months <= 25.5\ngini = 0.5\nsamples = 39\nvalue = [29, 29]"] ;
540 -> 542 ;
543 [label="Months <= 24.5\ngini = 0.4\nsamples = 19\nvalue = [7, 19]"] ;
542 -> 543 ;
544 [label="Months <= 23.5\ngini = 0.5\nsamples = 16\nvalue = [7, 13]"] ;
543 -> 544 ;
545 [label="Months <= 7.0\ngini = 0.4\nsamples = 15\nvalue = [5, 13]"] ;
544 -> 545 ;
546 [label="EFraction <= 0.4\ngini = 0.4\nsamples = 3\nvalue = [2, 1]"] ;
545 -> 546 ;
547 [label="gini = 0.0\nsamples = 2\nvalue = [2, 0]"] ;
546 -> 547 ;
548 [label="gini = 0.0\nsamples = 1\nvalue = [0, 1]"] ;
546 -> 548 ;
549 [label="EFraction <= 0.4\ngini = 0.3\nsamples = 12\nvalue = [3, 12]"] ;
545 -> 549 ;
550 [label="gini = 0.0\nsamples = 1\nvalue = [1, 0]"] ;
549 -> 550 ;
551 [label="Phases <= 1.8\ngini = 0.2\nsamples = 11\nvalue = [2, 12]"] ;
549 -> 551 ;
552 [label="gini = 0.0\nsamples = 1\nvalue = [1, 0]"] ;
551 -> 552 ;
553 [label="Months <= 21.0\ngini = 0.1\nsamples = 10\nvalue = [1, 12]"] ;
551 -> 553 ;
554 [label="gini = 0.0\nsamples = 6\nvalue = [0, 7]"] ;
553 -> 554 ;
555 [label="EFraction <= 0.5\ngini = 0.3\nsamples = 4\nvalue = [1, 5]"] ;
553 -> 555 ;
556 [label="gini = 0.0\nsamples = 1\nvalue = [0, 2]"] ;
555 -> 556 ;
557 [label="Months <= 22.5\ngini = 0.4\nsamples = 3\nvalue = [1, 3]"] ;
555 -> 557 ;
558 [label="gini = 0.0\nsamples = 1\nvalue = [1, 0]"] ;
557 -> 558 ;
559 [label="gini = 0.0\nsamples = 2\nvalue = [0, 3]"] ;
557 -> 559 ;
560 [label="gini = 0.0\nsamples = 1\nvalue = [2, 0]"] ;
544 -> 560 ;
561 [label="gini = 0.0\nsamples = 3\nvalue = [0, 6]"] ;
543 -> 561 ;
562 [label="EFraction <= 0.4\ngini = 0.4\nsamples = 20\nvalue = [22, 10]"] ;
542 -> 562 ;
563 [label="gini = 0.0\nsamples = 2\nvalue = [0, 4]"] ;
562 -> 563 ;
564 [label="EFraction <= 0.5\ngini = 0.3\nsamples = 18\nvalue = [22, 6]"] ;
562 -> 564 ;
565 [label="Months <= 36.5\ngini = 0.2\nsamples = 7\nvalue = [11, 1]"] ;
564 -> 565 ;
566 [label="gini = 0.0\nsamples = 5\nvalue = [9, 0]"] ;
565 -> 566 ;
567 [label="EFraction <= 0.4\ngini = 0.4\nsamples = 2\nvalue = [2, 1]"] ;
565 -> 567 ;
568 [label="gini = 0.0\nsamples = 1\nvalue = [0, 1]"] ;
567 -> 568 ;
569 [label="gini = 0.0\nsamples = 1\nvalue = [2, 0]"] ;
567 -> 569 ;
570 [label="Months <= 35.5\ngini = 0.4\nsamples = 11\nvalue = [11, 5]"] ;
564 -> 570 ;
571 [label="Months <= 33.5\ngini = 0.4\nsamples = 5\nvalue = [2, 4]"] ;
570 -> 571 ;
572 [label="Phases <= 1.8\ngini = 0.4\nsamples = 3\nvalue = [2, 1]"] ;
571 -> 572 ;
573 [label="gini = 0.0\nsamples = 1\nvalue = [0, 1]"] ;
572 -> 573 ;
574 [label="gini = 0.0\nsamples = 2\nvalue = [2, 0]"] ;
572 -> 574 ;
575 [label="gini = 0.0\nsamples = 2\nvalue = [0, 3]"] ;
571 -> 575 ;
576 [label="Gender <= 1.0\ngini = 0.2\nsamples = 6\nvalue = [9, 1]"] ;
570 -> 576 ;
577 [label="gini = 0.0\nsamples = 1\nvalue = [1, 0]"] ;
576 -> 577 ;
578 [label="EFraction <= 0.5\ngini = 0.2\nsamples = 5\nvalue = [8, 1]"] ;
576 -> 578 ;
579 [label="gini = 0.0\nsamples = 1\nvalue = [0, 1]"] ;
578 -> 579 ;
580 [label="gini = 0.0\nsamples = 4\nvalue = [8, 0]"] ;
578 -> 580 ;
581 [label="gini = 0.0\nsamples = 1\nvalue = [0, 1]"] ;
527 -> 581 ;
582 [label="EFraction <= 0.5\ngini = 0.4\nsamples = 195\nvalue = [89, 242]"] ;
506 -> 582 ;
583 [label="Months <= 7.5\ngini = 0.2\nsamples = 41\nvalue = [9, 56]"] ;
582 -> 583 ;
584 [label="gini = 0.0\nsamples = 2\nvalue = [2, 0]"] ;
583 -> 584 ;
585 [label="Phases <= 0.2\ngini = 0.2\nsamples = 39\nvalue = [7, 56]"] ;
583 -> 585 ;
586 [label="Months <= 28.0\ngini = 0.4\nsamples = 2\nvalue = [1, 2]"] ;
585 -> 586 ;
587 [label="gini = 0.0\nsamples = 1\nvalue = [0, 2]"] ;
586 -> 587 ;
588 [label="gini = 0.0\nsamples = 1\nvalue = [1, 0]"] ;
586 -> 588 ;
589 [label="Phases <= 1.8\ngini = 0.2\nsamples = 37\nvalue = [6, 54]"] ;
585 -> 589 ;
590 [label="Gender <= 1.0\ngini = 0.1\nsamples = 15\nvalue = [1, 23]"] ;
589 -> 590 ;
591 [label="Months <= 25.5\ngini = 0.3\nsamples = 4\nvalue = [1, 4]"] ;
590 -> 591 ;
592 [label="Months <= 24.0\ngini = 0.5\nsamples = 2\nvalue = [1, 1]"] ;
591 -> 592 ;
593 [label="gini = 0.0\nsamples = 1\nvalue = [0, 1]"] ;
592 -> 593 ;
594 [label="gini = 0.0\nsamples = 1\nvalue = [1, 0]"] ;
592 -> 594 ;
595 [label="gini = 0.0\nsamples = 2\nvalue = [0, 3]"] ;
591 -> 595 ;
596 [label="gini = 0.0\nsamples = 11\nvalue = [0, 19]"] ;
590 -> 596 ;
597 [label="Months <= 15.0\ngini = 0.2\nsamples = 22\nvalue = [5, 31]"] ;
589 -> 597 ;
598 [label="gini = 0.0\nsamples = 5\nvalue = [0, 8]"] ;
597 -> 598 ;
599 [label="Months <= 17.5\ngini = 0.3\nsamples = 17\nvalue = [5, 23]"] ;
597 -> 599 ;
600 [label="gini = 0.0\nsamples = 1\nvalue = [1, 0]"] ;
599 -> 600 ;
601 [label="Gender <= 1.5\ngini = 0.3\nsamples = 16\nvalue = [4, 23]"] ;
599 -> 601 ;
602 [label="gini = 0.0\nsamples = 5\nvalue = [0, 8]"] ;
601 -> 602 ;
603 [label="EFraction <= 0.5\ngini = 0.3\nsamples = 11\nvalue = [4, 15]"] ;
601 -> 603 ;
604 [label="EFraction <= 0.5\ngini = 0.2\nsamples = 8\nvalue = [2, 12]"] ;
603 -> 604 ;
605 [label="Months <= 35.0\ngini = 0.3\nsamples = 7\nvalue = [2, 10]"] ;
604 -> 605 ;
606 [label="gini = 0.0\nsamples = 5\nvalue = [0, 7]"] ;
605 -> 606 ;
607 [label="Months <= 37.5\ngini = 0.5\nsamples = 2\nvalue = [2, 3]"] ;
605 -> 607 ;
608 [label="gini = 0.0\nsamples = 1\nvalue = [2, 0]"] ;
607 -> 608 ;
609 [label="gini = 0.0\nsamples = 1\nvalue = [0, 3]"] ;
607 -> 609 ;
610 [label="gini = 0.0\nsamples = 1\nvalue = [0, 2]"] ;
604 -> 610 ;
611 [label="EFraction <= 0.5\ngini = 0.5\nsamples = 3\nvalue = [2, 3]"] ;
603 -> 611 ;
612 [label="gini = 0.0\nsamples = 1\nvalue = [2, 0]"] ;
611 -> 612 ;
613 [label="gini = 0.0\nsamples = 2\nvalue = [0, 3]"] ;
611 -> 613 ;
614 [label="Phases <= 1.8\ngini = 0.4\nsamples = 154\nvalue = [80, 186]"] ;
582 -> 614 ;
615 [label="Phases <= 1.2\ngini = 0.3\nsamples = 71\nvalue = [26, 92]"] ;
614 -> 615 ;
616 [label="EFraction <= 0.6\ngini = 0.4\nsamples = 64\nvalue = [25, 84]"] ;
615 -> 616 ;
617 [label="Months <= 36.5\ngini = 0.5\nsamples = 13\nvalue = [11, 14]"] ;
616 -> 617 ;
618 [label="EFraction <= 0.6\ngini = 0.5\nsamples = 11\nvalue = [11, 10]"] ;
617 -> 618 ;
619 [label="EFraction <= 0.5\ngini = 0.3\nsamples = 3\nvalue = [1, 4]"] ;
618 -> 619 ;
620 [label="gini = 0.0\nsamples = 1\nvalue = [1, 0]"] ;
619 -> 620 ;
621 [label="gini = 0.0\nsamples = 2\nvalue = [0, 4]"] ;
619 -> 621 ;
622 [label="EFraction <= 0.6\ngini = 0.5\nsamples = 8\nvalue = [10, 6]"] ;
618 -> 622 ;
623 [label="Months <= 29.5\ngini = 0.3\nsamples = 5\nvalue = [8, 2]"] ;
622 -> 623 ;
624 [label="gini = 0.0\nsamples = 3\nvalue = [5, 0]"] ;
623 -> 624 ;
625 [label="Months <= 32.0\ngini = 0.5\nsamples = 2\nvalue = [3, 2]"] ;
623 -> 625 ;
626 [label="gini = 0.0\nsamples = 1\nvalue = [0, 2]"] ;
625 -> 626 ;
627 [label="gini = 0.0\nsamples = 1\nvalue = [3, 0]"] ;
625 -> 627 ;
628 [label="Phases <= 0.5\ngini = 0.4\nsamples = 3\nvalue = [2, 4]"] ;
622 -> 628 ;
629 [label="gini = 0.0\nsamples = 1\nvalue = [2, 0]"] ;
628 -> 629 ;
630 [label="gini = 0.0\nsamples = 2\nvalue = [0, 4]"] ;
628 -> 630 ;
631 [label="gini = 0.0\nsamples = 2\nvalue = [0, 4]"] ;
617 -> 631 ;
632 [label="EFraction <= 0.7\ngini = 0.3\nsamples = 51\nvalue = [14, 70]"] ;
616 -> 632 ;
633 [label="Phases <= 0.8\ngini = 0.2\nsamples = 34\nvalue = [7, 47]"] ;
632 -> 633 ;
634 [label="Months <= 27.5\ngini = 0.1\nsamples = 8\nvalue = [1, 12]"] ;
633 -> 634 ;
635 [label="gini = 0.0\nsamples = 4\nvalue = [0, 8]"] ;
634 -> 635 ;
636 [label="EFraction <= 0.6\ngini = 0.3\nsamples = 4\nvalue = [1, 4]"] ;
634 -> 636 ;
637 [label="EFraction <= 0.6\ngini = 0.5\nsamples = 2\nvalue = [1, 1]"] ;
636 -> 637 ;
638 [label="gini = 0.0\nsamples = 1\nvalue = [0, 1]"] ;
637 -> 638 ;
639 [label="gini = 0.0\nsamples = 1\nvalue = [1, 0]"] ;
637 -> 639 ;
640 [label="gini = 0.0\nsamples = 2\nvalue = [0, 3]"] ;
636 -> 640 ;
641 [label="EFraction <= 0.6\ngini = 0.2\nsamples = 26\nvalue = [6, 35]"] ;
633 -> 641 ;
642 [label="Months <= 26.0\ngini = 0.3\nsamples = 5\nvalue = [2, 7]"] ;
641 -> 642 ;
643 [label="gini = 0.0\nsamples = 3\nvalue = [0, 5]"] ;
642 -> 643 ;
644 [label="Months <= 38.5\ngini = 0.5\nsamples = 2\nvalue = [2, 2]"] ;
642 -> 644 ;
645 [label="gini = 0.0\nsamples = 1\nvalue = [2, 0]"] ;
644 -> 645 ;
646 [label="gini = 0.0\nsamples = 1\nvalue = [0, 2]"] ;
644 -> 646 ;
647 [label="EFraction <= 0.6\ngini = 0.2\nsamples = 21\nvalue = [4, 28]"] ;
641 -> 647 ;
648 [label="gini = 0.0\nsamples = 5\nvalue = [0, 8]"] ;
647 -> 648 ;
649 [label="Months <= 20.5\ngini = 0.3\nsamples = 16\nvalue = [4, 20]"] ;
647 -> 649 ;
650 [label="gini = 0.0\nsamples = 6\nvalue = [0, 11]"] ;
649 -> 650 ;
651 [label="Months <= 22.5\ngini = 0.4\nsamples = 10\nvalue = [4, 9]"] ;
649 -> 651 ;
652 [label="gini = 0.0\nsamples = 2\nvalue = [2, 0]"] ;
651 -> 652 ;
653 [label="EFraction <= 0.7\ngini = 0.3\nsamples = 8\nvalue = [2, 9]"] ;
651 -> 653 ;
654 [label="Gender <= 1.0\ngini = 0.3\nsamples = 6\nvalue = [2, 7]"] ;
653 -> 654 ;
655 [label="gini = 0.0\nsamples = 2\nvalue = [0, 3]"] ;
654 -> 655 ;
656 [label="Months <= 35.0\ngini = 0.4\nsamples = 4\nvalue = [2, 4]"] ;
654 -> 656 ;
657 [label="Months <= 31.0\ngini = 0.4\nsamples = 2\nvalue = [2, 1]"] ;
656 -> 657 ;
658 [label="gini = 0.0\nsamples = 1\nvalue = [0, 1]"] ;
657 -> 658 ;
659 [label="gini = 0.0\nsamples = 1\nvalue = [2, 0]"] ;
657 -> 659 ;
660 [label="gini = 0.0\nsamples = 2\nvalue = [0, 3]"] ;
656 -> 660 ;
661 [label="gini = 0.0\nsamples = 2\nvalue = [0, 2]"] ;
653 -> 661 ;
662 [label="Age_Type <= 3.5\ngini = 0.4\nsamples = 17\nvalue = [7, 23]"] ;
632 -> 662 ;
663 [label="EFraction <= 0.7\ngini = 0.4\nsamples = 15\nvalue = [7, 20]"] ;
662 -> 663 ;
664 [label="gini = 0.0\nsamples = 1\nvalue = [3, 0]"] ;
663 -> 664 ;
665 [label="Phases <= 0.2\ngini = 0.3\nsamples = 14\nvalue = [4, 20]"] ;
663 -> 665 ;
666 [label="gini = 0.0\nsamples = 1\nvalue = [1, 0]"] ;
665 -> 666 ;
667 [label="Phases <= 0.8\ngini = 0.2\nsamples = 13\nvalue = [3, 20]"] ;
665 -> 667 ;
668 [label="gini = 0.0\nsamples = 1\nvalue = [0, 2]"] ;
667 -> 668 ;
669 [label="Gender <= 1.5\ngini = 0.2\nsamples = 12\nvalue = [3, 18]"] ;
667 -> 669 ;
670 [label="gini = 0.0\nsamples = 2\nvalue = [0, 3]"] ;
669 -> 670 ;
671 [label="Months <= 7.0\ngini = 0.3\nsamples = 10\nvalue = [3, 15]"] ;
669 -> 671 ;
672 [label="EFraction <= 0.7\ngini = 0.5\nsamples = 2\nvalue = [2, 2]"] ;
671 -> 672 ;
673 [label="gini = 0.0\nsamples = 1\nvalue = [2, 0]"] ;
672 -> 673 ;
674 [label="gini = 0.0\nsamples = 1\nvalue = [0, 2]"] ;
672 -> 674 ;
675 [label="EFraction <= 0.7\ngini = 0.1\nsamples = 8\nvalue = [1, 13]"] ;
671 -> 675 ;
676 [label="gini = 0.0\nsamples = 6\nvalue = [0, 10]"] ;
675 -> 676 ;
677 [label="Months <= 27.0\ngini = 0.4\nsamples = 2\nvalue = [1, 3]"] ;
675 -> 677 ;
678 [label="gini = 0.0\nsamples = 1\nvalue = [0, 3]"] ;
677 -> 678 ;
679 [label="gini = 0.0\nsamples = 1\nvalue = [1, 0]"] ;
677 -> 679 ;
680 [label="gini = 0.0\nsamples = 2\nvalue = [0, 3]"] ;
662 -> 680 ;
681 [label="Months <= 22.5\ngini = 0.2\nsamples = 7\nvalue = [1, 8]"] ;
615 -> 681 ;
682 [label="gini = 0.0\nsamples = 2\nvalue = [0, 4]"] ;
681 -> 682 ;
683 [label="EFraction <= 0.6\ngini = 0.3\nsamples = 5\nvalue = [1, 4]"] ;
681 -> 683 ;
684 [label="gini = 0.0\nsamples = 2\nvalue = [0, 2]"] ;
683 -> 684 ;
685 [label="EFraction <= 0.6\ngini = 0.4\nsamples = 3\nvalue = [1, 2]"] ;
683 -> 685 ;
686 [label="gini = 0.0\nsamples = 1\nvalue = [1, 0]"] ;
685 -> 686 ;
687 [label="gini = 0.0\nsamples = 2\nvalue = [0, 2]"] ;
685 -> 687 ;
688 [label="EFraction <= 0.5\ngini = 0.5\nsamples = 83\nvalue = [54, 94]"] ;
614 -> 688 ;
689 [label="gini = 0.0\nsamples = 4\nvalue = [7, 0]"] ;
688 -> 689 ;
690 [label="EFraction <= 0.6\ngini = 0.4\nsamples = 79\nvalue = [47, 94]"] ;
688 -> 690 ;
691 [label="EFraction <= 0.6\ngini = 0.1\nsamples = 17\nvalue = [2, 33]"] ;
690 -> 691 ;
692 [label="Months <= 36.0\ngini = 0.4\nsamples = 5\nvalue = [2, 6]"] ;
691 -> 692 ;
693 [label="gini = 0.0\nsamples = 4\nvalue = [0, 6]"] ;
692 -> 693 ;
694 [label="gini = 0.0\nsamples = 1\nvalue = [2, 0]"] ;
692 -> 694 ;
695 [label="gini = 0.0\nsamples = 12\nvalue = [0, 27]"] ;
691 -> 695 ;
696 [label="Age_Type <= 3.5\ngini = 0.5\nsamples = 62\nvalue = [45, 61]"] ;
690 -> 696 ;
697 [label="Months <= 12.5\ngini = 0.5\nsamples = 58\nvalue = [45, 53]"] ;
696 -> 697 ;
698 [label="Months <= 3.5\ngini = 0.4\nsamples = 11\nvalue = [4, 13]"] ;
697 -> 698 ;
699 [label="gini = 0.0\nsamples = 1\nvalue = [2, 0]"] ;
698 -> 699 ;
700 [label="Months <= 10.0\ngini = 0.2\nsamples = 10\nvalue = [2, 13]"] ;
698 -> 700 ;
701 [label="Months <= 8.5\ngini = 0.4\nsamples = 5\nvalue = [2, 6]"] ;
700 -> 701 ;
702 [label="gini = 0.0\nsamples = 3\nvalue = [0, 4]"] ;
701 -> 702 ;
703 [label="EFraction <= 0.7\ngini = 0.5\nsamples = 2\nvalue = [2, 2]"] ;
701 -> 703 ;
704 [label="gini = 0.0\nsamples = 1\nvalue = [2, 0]"] ;
703 -> 704 ;
705 [label="gini = 0.0\nsamples = 1\nvalue = [0, 2]"] ;
703 -> 705 ;
706 [label="gini = 0.0\nsamples = 5\nvalue = [0, 7]"] ;
700 -> 706 ;
707 [label="Months <= 16.0\ngini = 0.5\nsamples = 47\nvalue = [41, 40]"] ;
697 -> 707 ;
708 [label="gini = 0.0\nsamples = 5\nvalue = [8, 0]"] ;
707 -> 708 ;
709 [label="EFraction <= 0.7\ngini = 0.5\nsamples = 42\nvalue = [33, 40]"] ;
707 -> 709 ;
710 [label="Months <= 22.5\ngini = 0.5\nsamples = 40\nvalue = [30, 40]"] ;
709 -> 710 ;
711 [label="EFraction <= 0.7\ngini = 0.3\nsamples = 8\nvalue = [3, 14]"] ;
710 -> 711 ;
712 [label="gini = 0.0\nsamples = 5\nvalue = [0, 10]"] ;
711 -> 712 ;
713 [label="Months <= 19.0\ngini = 0.5\nsamples = 3\nvalue = [3, 4]"] ;
711 -> 713 ;
714 [label="gini = 0.0\nsamples = 1\nvalue = [0, 3]"] ;
713 -> 714 ;
715 [label="Gender <= 1.5\ngini = 0.4\nsamples = 2\nvalue = [3, 1]"] ;
713 -> 715 ;
716 [label="gini = 0.0\nsamples = 1\nvalue = [0, 1]"] ;
715 -> 716 ;
717 [label="gini = 0.0\nsamples = 1\nvalue = [3, 0]"] ;
715 -> 717 ;
718 [label="EFraction <= 0.7\ngini = 0.5\nsamples = 32\nvalue = [27, 26]"] ;
710 -> 718 ;
719 [label="EFraction <= 0.6\ngini = 0.4\nsamples = 13\nvalue = [16, 8]"] ;
718 -> 719 ;
720 [label="Gender <= 0.5\ngini = 0.5\nsamples = 7\nvalue = [6, 7]"] ;
719 -> 720 ;
721 [label="gini = 0.0\nsamples = 1\nvalue = [0, 1]"] ;
720 -> 721 ;
722 [label="Months <= 33.0\ngini = 0.5\nsamples = 6\nvalue = [6, 6]"] ;
720 -> 722 ;
723 [label="EFraction <= 0.6\ngini = 0.4\nsamples = 4\nvalue = [5, 2]"] ;
722 -> 723 ;
724 [label="Gender <= 1.5\ngini = 0.3\nsamples = 3\nvalue = [5, 1]"] ;
723 -> 724 ;
725 [label="gini = 0.0\nsamples = 1\nvalue = [2, 0]"] ;
724 -> 725 ;
726 [label="Months <= 28.0\ngini = 0.4\nsamples = 2\nvalue = [3, 1]"] ;
724 -> 726 ;
727 [label="gini = 0.0\nsamples = 1\nvalue = [0, 1]"] ;
726 -> 727 ;
728 [label="gini = 0.0\nsamples = 1\nvalue = [3, 0]"] ;
726 -> 728 ;
729 [label="gini = 0.0\nsamples = 1\nvalue = [0, 1]"] ;
723 -> 729 ;
730 [label="EFraction <= 0.6\ngini = 0.3\nsamples = 2\nvalue = [1, 4]"] ;
722 -> 730 ;
731 [label="gini = 0.0\nsamples = 1\nvalue = [1, 0]"] ;
730 -> 731 ;
732 [label="gini = 0.0\nsamples = 1\nvalue = [0, 4]"] ;
730 -> 732 ;
733 [label="Months <= 25.5\ngini = 0.2\nsamples = 6\nvalue = [10, 1]"] ;
719 -> 733 ;
734 [label="Months <= 24.0\ngini = 0.4\nsamples = 2\nvalue = [2, 1]"] ;
733 -> 734 ;
735 [label="gini = 0.0\nsamples = 1\nvalue = [2, 0]"] ;
734 -> 735 ;
736 [label="gini = 0.0\nsamples = 1\nvalue = [0, 1]"] ;
734 -> 736 ;
737 [label="gini = 0.0\nsamples = 4\nvalue = [8, 0]"] ;
733 -> 737 ;
738 [label="Gender <= 1.5\ngini = 0.5\nsamples = 19\nvalue = [11, 18]"] ;
718 -> 738 ;
739 [label="Months <= 30.5\ngini = 0.5\nsamples = 4\nvalue = [3, 3]"] ;
738 -> 739 ;
740 [label="gini = 0.0\nsamples = 2\nvalue = [3, 0]"] ;
739 -> 740 ;
741 [label="gini = 0.0\nsamples = 2\nvalue = [0, 3]"] ;
739 -> 741 ;
742 [label="Months <= 24.5\ngini = 0.5\nsamples = 15\nvalue = [8, 15]"] ;
738 -> 742 ;
743 [label="gini = 0.0\nsamples = 1\nvalue = [2, 0]"] ;
742 -> 743 ;
744 [label="EFraction <= 0.7\ngini = 0.4\nsamples = 14\nvalue = [6, 15]"] ;
742 -> 744 ;
745 [label="EFraction <= 0.7\ngini = 0.5\nsamples = 11\nvalue = [6, 11]"] ;
744 -> 745 ;
746 [label="EFraction <= 0.7\ngini = 0.3\nsamples = 8\nvalue = [2, 10]"] ;
745 -> 746 ;
747 [label="Months <= 32.0\ngini = 0.4\nsamples = 5\nvalue = [2, 4]"] ;
746 -> 747 ;
748 [label="gini = 0.0\nsamples = 3\nvalue = [0, 3]"] ;
747 -> 748 ;
749 [label="Months <= 35.0\ngini = 0.4\nsamples = 2\nvalue = [2, 1]"] ;
747 -> 749 ;
750 [label="gini = 0.0\nsamples = 1\nvalue = [2, 0]"] ;
749 -> 750 ;
751 [label="gini = 0.0\nsamples = 1\nvalue = [0, 1]"] ;
749 -> 751 ;
752 [label="gini = 0.0\nsamples = 3\nvalue = [0, 6]"] ;
746 -> 752 ;
753 [label="Months <= 36.5\ngini = 0.3\nsamples = 3\nvalue = [4, 1]"] ;
745 -> 753 ;
754 [label="gini = 0.0\nsamples = 1\nvalue = [0, 1]"] ;
753 -> 754 ;
755 [label="gini = 0.0\nsamples = 2\nvalue = [4, 0]"] ;
753 -> 755 ;
756 [label="gini = 0.0\nsamples = 3\nvalue = [0, 4]"] ;
744 -> 756 ;
757 [label="gini = 0.0\nsamples = 2\nvalue = [3, 0]"] ;
709 -> 757 ;
758 [label="gini = 0.0\nsamples = 4\nvalue = [0, 8]"] ;
696 -> 758 ;
759 [label="Age_Type <= 3.5\ngini = 0.3\nsamples = 245\nvalue = [87, 310]"] ;
505 -> 759 ;
760 [label="Gender <= 0.5\ngini = 0.4\nsamples = 234\nvalue = [86, 294]"] ;
759 -> 760 ;
761 [label="EFraction <= 0.4\ngini = 0.3\nsamples = 44\nvalue = [11, 61]"] ;
760 -> 761 ;
762 [label="EFraction <= 0.4\ngini = 0.5\nsamples = 5\nvalue = [4, 5]"] ;
761 -> 762 ;
763 [label="EFraction <= 0.4\ngini = 0.4\nsamples = 4\nvalue = [2, 5]"] ;
762 -> 763 ;
764 [label="gini = 0.0\nsamples = 1\nvalue = [1, 0]"] ;
763 -> 764 ;
765 [label="Phases <= 1.5\ngini = 0.3\nsamples = 3\nvalue = [1, 5]"] ;
763 -> 765 ;
766 [label="gini = 0.0\nsamples = 1\nvalue = [0, 2]"] ;
765 -> 766 ;
767 [label="Months <= 52.5\ngini = 0.4\nsamples = 2\nvalue = [1, 3]"] ;
765 -> 767 ;
768 [label="gini = 0.0\nsamples = 1\nvalue = [1, 0]"] ;
767 -> 768 ;
769 [label="gini = 0.0\nsamples = 1\nvalue = [0, 3]"] ;
767 -> 769 ;
770 [label="gini = 0.0\nsamples = 1\nvalue = [2, 0]"] ;
762 -> 770 ;
771 [label="Months <= 44.0\ngini = 0.2\nsamples = 39\nvalue = [7, 56]"] ;
761 -> 771 ;
772 [label="Phases <= 1.5\ngini = 0.4\nsamples = 2\nvalue = [2, 1]"] ;
771 -> 772 ;
773 [label="gini = 0.0\nsamples = 1\nvalue = [0, 1]"] ;
772 -> 773 ;
774 [label="gini = 0.0\nsamples = 1\nvalue = [2, 0]"] ;
772 -> 774 ;
775 [label="Months <= 59.5\ngini = 0.2\nsamples = 37\nvalue = [5, 55]"] ;
771 -> 775 ;
776 [label="gini = 0.0\nsamples = 17\nvalue = [0, 29]"] ;
775 -> 776 ;
777 [label="Months <= 60.5\ngini = 0.3\nsamples = 20\nvalue = [5, 26]"] ;
775 -> 777 ;
778 [label="EFraction <= 0.6\ngini = 0.4\nsamples = 3\nvalue = [2, 4]"] ;
777 -> 778 ;
779 [label="gini = 0.0\nsamples = 2\nvalue = [0, 4]"] ;
778 -> 779 ;
780 [label="gini = 0.0\nsamples = 1\nvalue = [2, 0]"] ;
778 -> 780 ;
781 [label="Phases <= 0.8\ngini = 0.2\nsamples = 17\nvalue = [3, 22]"] ;
777 -> 781 ;
782 [label="gini = 0.0\nsamples = 1\nvalue = [1, 0]"] ;
781 -> 782 ;
783 [label="Phases <= 1.8\ngini = 0.2\nsamples = 16\nvalue = [2, 22]"] ;
781 -> 783 ;
784 [label="gini = 0.0\nsamples = 5\nvalue = [0, 7]"] ;
783 -> 784 ;
785 [label="EFraction <= 0.5\ngini = 0.2\nsamples = 11\nvalue = [2, 15]"] ;
783 -> 785 ;
786 [label="gini = 0.0\nsamples = 6\nvalue = [0, 10]"] ;
785 -> 786 ;
787 [label="EFraction <= 0.6\ngini = 0.4\nsamples = 5\nvalue = [2, 5]"] ;
785 -> 787 ;
788 [label="gini = 0.0\nsamples = 2\nvalue = [2, 0]"] ;
787 -> 788 ;
789 [label="gini = 0.0\nsamples = 3\nvalue = [0, 5]"] ;
787 -> 789 ;
790 [label="EFraction <= 0.4\ngini = 0.4\nsamples = 190\nvalue = [75, 233]"] ;
760 -> 790 ;
791 [label="Months <= 57.5\ngini = 0.1\nsamples = 11\nvalue = [1, 25]"] ;
790 -> 791 ;
792 [label="gini = 0.0\nsamples = 7\nvalue = [0, 18]"] ;
791 -> 792 ;
793 [label="EFraction <= 0.4\ngini = 0.2\nsamples = 4\nvalue = [1, 7]"] ;
791 -> 793 ;
794 [label="gini = 0.0\nsamples = 2\nvalue = [0, 5]"] ;
793 -> 794 ;
795 [label="EFraction <= 0.4\ngini = 0.4\nsamples = 2\nvalue = [1, 2]"] ;
793 -> 795 ;
796 [label="gini = 0.0\nsamples = 1\nvalue = [1, 0]"] ;
795 -> 796 ;
797 [label="gini = 0.0\nsamples = 1\nvalue = [0, 2]"] ;
795 -> 797 ;
798 [label="Phases <= 1.2\ngini = 0.4\nsamples = 179\nvalue = [74, 208]"] ;
790 -> 798 ;
799 [label="Months <= 123.5\ngini = 0.3\nsamples = 68\nvalue = [22, 96]"] ;
798 -> 799 ;
800 [label="Gender <= 1.5\ngini = 0.3\nsamples = 67\nvalue = [20, 96]"] ;
799 -> 800 ;
801 [label="gini = 0.0\nsamples = 8\nvalue = [0, 17]"] ;
800 -> 801 ;
802 [label="Months <= 92.0\ngini = 0.3\nsamples = 59\nvalue = [20, 79]"] ;
800 -> 802 ;
803 [label="Months <= 87.5\ngini = 0.3\nsamples = 56\nvalue = [20, 72]"] ;
802 -> 803 ;
804 [label="Phases <= 0.8\ngini = 0.3\nsamples = 54\nvalue = [18, 72]"] ;
803 -> 804 ;
805 [label="Phases <= 0.2\ngini = 0.2\nsamples = 19\nvalue = [4, 25]"] ;
804 -> 805 ;
806 [label="Months <= 60.5\ngini = 0.3\nsamples = 16\nvalue = [4, 20]"] ;
805 -> 806 ;
807 [label="Months <= 51.5\ngini = 0.1\nsamples = 12\nvalue = [1, 17]"] ;
806 -> 807 ;
808 [label="gini = 0.0\nsamples = 8\nvalue = [0, 13]"] ;
807 -> 808 ;
809 [label="Months <= 56.0\ngini = 0.3\nsamples = 4\nvalue = [1, 4]"] ;
807 -> 809 ;
810 [label="EFraction <= 0.7\ngini = 0.4\nsamples = 2\nvalue = [1, 2]"] ;
809 -> 810 ;
811 [label="gini = 0.0\nsamples = 1\nvalue = [1, 0]"] ;
810 -> 811 ;
812 [label="gini = 0.0\nsamples = 1\nvalue = [0, 2]"] ;
810 -> 812 ;
813 [label="gini = 0.0\nsamples = 2\nvalue = [0, 2]"] ;
809 -> 813 ;
814 [label="Months <= 78.0\ngini = 0.5\nsamples = 4\nvalue = [3, 3]"] ;
806 -> 814 ;
815 [label="gini = 0.0\nsamples = 2\nvalue = [3, 0]"] ;
814 -> 815 ;
816 [label="gini = 0.0\nsamples = 2\nvalue = [0, 3]"] ;
814 -> 816 ;
817 [label="gini = 0.0\nsamples = 3\nvalue = [0, 5]"] ;
805 -> 817 ;
818 [label="EFraction <= 0.6\ngini = 0.4\nsamples = 35\nvalue = [14, 47]"] ;
804 -> 818 ;
819 [label="Months <= 47.5\ngini = 0.5\nsamples = 17\nvalue = [12, 18]"] ;
818 -> 819 ;
820 [label="Months <= 45.0\ngini = 0.2\nsamples = 4\nvalue = [7, 1]"] ;
819 -> 820 ;
821 [label="EFraction <= 0.5\ngini = 0.3\nsamples = 3\nvalue = [5, 1]"] ;
820 -> 821 ;
822 [label="gini = 0.0\nsamples = 1\nvalue = [0, 1]"] ;
821 -> 822 ;
823 [label="gini = 0.0\nsamples = 2\nvalue = [5, 0]"] ;
821 -> 823 ;
824 [label="gini = 0.0\nsamples = 1\nvalue = [2, 0]"] ;
820 -> 824 ;
825 [label="EFraction <= 0.6\ngini = 0.4\nsamples = 13\nvalue = [5, 17]"] ;
819 -> 825 ;
826 [label="Months <= 59.5\ngini = 0.2\nsamples = 12\nvalue = [2, 17]"] ;
825 -> 826 ;
827 [label="Months <= 54.5\ngini = 0.3\nsamples = 5\nvalue = [2, 7]"] ;
826 -> 827 ;
828 [label="gini = 0.0\nsamples = 4\nvalue = [0, 7]"] ;
827 -> 828 ;
829 [label="gini = 0.0\nsamples = 1\nvalue = [2, 0]"] ;
827 -> 829 ;
830 [label="gini = 0.0\nsamples = 7\nvalue = [0, 10]"] ;
826 -> 830 ;
831 [label="gini = 0.0\nsamples = 1\nvalue = [3, 0]"] ;
825 -> 831 ;
832 [label="EFraction <= 0.7\ngini = 0.1\nsamples = 18\nvalue = [2, 29]"] ;
818 -> 832 ;
833 [label="EFraction <= 0.7\ngini = 0.2\nsamples = 12\nvalue = [2, 17]"] ;
832 -> 833 ;
834 [label="gini = 0.0\nsamples = 6\nvalue = [0, 8]"] ;
833 -> 834 ;
835 [label="Months <= 51.5\ngini = 0.3\nsamples = 6\nvalue = [2, 9]"] ;
833 -> 835 ;
836 [label="gini = 0.0\nsamples = 4\nvalue = [0, 8]"] ;
835 -> 836 ;
837 [label="Months <= 69.0\ngini = 0.4\nsamples = 2\nvalue = [2, 1]"] ;
835 -> 837 ;
838 [label="gini = 0.0\nsamples = 1\nvalue = [2, 0]"] ;
837 -> 838 ;
839 [label="gini = 0.0\nsamples = 1\nvalue = [0, 1]"] ;
837 -> 839 ;
840 [label="gini = 0.0\nsamples = 6\nvalue = [0, 12]"] ;
832 -> 840 ;
841 [label="gini = 0.0\nsamples = 2\nvalue = [2, 0]"] ;
803 -> 841 ;
842 [label="gini = 0.0\nsamples = 3\nvalue = [0, 7]"] ;
802 -> 842 ;
843 [label="gini = 0.0\nsamples = 1\nvalue = [2, 0]"] ;
799 -> 843 ;
844 [label="EFraction <= 0.4\ngini = 0.4\nsamples = 111\nvalue = [52, 112]"] ;
798 -> 844 ;
845 [label="Months <= 45.5\ngini = 0.5\nsamples = 9\nvalue = [7, 6]"] ;
844 -> 845 ;
846 [label="gini = 0.0\nsamples = 1\nvalue = [3, 0]"] ;
845 -> 846 ;
847 [label="EFraction <= 0.4\ngini = 0.5\nsamples = 8\nvalue = [4, 6]"] ;
845 -> 847 ;
848 [label="gini = 0.0\nsamples = 3\nvalue = [0, 5]"] ;
847 -> 848 ;
849 [label="Phases <= 1.8\ngini = 0.3\nsamples = 5\nvalue = [4, 1]"] ;
847 -> 849 ;
850 [label="gini = 0.0\nsamples = 2\nvalue = [2, 0]"] ;
849 -> 850 ;
851 [label="Months <= 70.5\ngini = 0.4\nsamples = 3\nvalue = [2, 1]"] ;
849 -> 851 ;
852 [label="gini = 0.5\nsamples = 2\nvalue = [1, 1]"] ;
851 -> 852 ;
853 [label="gini = 0.0\nsamples = 1\nvalue = [1, 0]"] ;
851 -> 853 ;
854 [label="Gender <= 1.5\ngini = 0.4\nsamples = 102\nvalue = [45, 106]"] ;
844 -> 854 ;
855 [label="EFraction <= 0.5\ngini = 0.4\nsamples = 14\nvalue = [6, 14]"] ;
854 -> 855 ;
856 [label="Months <= 45.5\ngini = 0.4\nsamples = 5\nvalue = [4, 2]"] ;
855 -> 856 ;
857 [label="gini = 0.0\nsamples = 1\nvalue = [1, 0]"] ;
856 -> 857 ;
858 [label="EFraction <= 0.4\ngini = 0.5\nsamples = 4\nvalue = [3, 2]"] ;
856 -> 858 ;
859 [label="gini = 0.0\nsamples = 2\nvalue = [0, 2]"] ;
858 -> 859 ;
860 [label="gini = 0.0\nsamples = 2\nvalue = [3, 0]"] ;
858 -> 860 ;
861 [label="Months <= 55.5\ngini = 0.2\nsamples = 9\nvalue = [2, 12]"] ;
855 -> 861 ;
862 [label="EFraction <= 0.6\ngini = 0.5\nsamples = 4\nvalue = [2, 2]"] ;
861 -> 862 ;
863 [label="gini = 0.0\nsamples = 1\nvalue = [0, 1]"] ;
862 -> 863 ;
864 [label="Months <= 46.0\ngini = 0.4\nsamples = 3\nvalue = [2, 1]"] ;
862 -> 864 ;
865 [label="gini = 0.0\nsamples = 1\nvalue = [0, 1]"] ;
864 -> 865 ;
866 [label="gini = 0.0\nsamples = 2\nvalue = [2, 0]"] ;
864 -> 866 ;
867 [label="gini = 0.0\nsamples = 5\nvalue = [0, 10]"] ;
861 -> 867 ;
868 [label="Months <= 45.5\ngini = 0.4\nsamples = 88\nvalue = [39, 92]"] ;
854 -> 868 ;
869 [label="EFraction <= 0.5\ngini = 0.1\nsamples = 13\nvalue = [1, 19]"] ;
868 -> 869 ;
870 [label="gini = 0.0\nsamples = 7\nvalue = [0, 13]"] ;
869 -> 870 ;
871 [label="Months <= 42.5\ngini = 0.2\nsamples = 6\nvalue = [1, 6]"] ;
869 -> 871 ;
872 [label="Months <= 41.5\ngini = 0.4\nsamples = 3\nvalue = [1, 3]"] ;
871 -> 872 ;
873 [label="gini = 0.0\nsamples = 1\nvalue = [0, 1]"] ;
872 -> 873 ;
874 [label="EFraction <= 0.6\ngini = 0.4\nsamples = 2\nvalue = [1, 2]"] ;
872 -> 874 ;
875 [label="gini = 0.0\nsamples = 1\nvalue = [1, 0]"] ;
874 -> 875 ;
876 [label="gini = 0.0\nsamples = 1\nvalue = [0, 2]"] ;
874 -> 876 ;
877 [label="gini = 0.0\nsamples = 3\nvalue = [0, 3]"] ;
871 -> 877 ;
878 [label="EFraction <= 0.7\ngini = 0.5\nsamples = 75\nvalue = [38, 73]"] ;
868 -> 878 ;
879 [label="Phases <= 1.8\ngini = 0.4\nsamples = 72\nvalue = [34, 71]"] ;
878 -> 879 ;
880 [label="EFraction <= 0.6\ngini = 0.3\nsamples = 9\nvalue = [8, 2]"] ;
879 -> 880 ;
881 [label="EFraction <= 0.5\ngini = 0.5\nsamples = 5\nvalue = [3, 2]"] ;
880 -> 881 ;
882 [label="gini = 0.0\nsamples = 3\nvalue = [3, 0]"] ;
881 -> 882 ;
883 [label="gini = 0.0\nsamples = 2\nvalue = [0, 2]"] ;
881 -> 883 ;
884 [label="gini = 0.0\nsamples = 4\nvalue = [5, 0]"] ;
880 -> 884 ;
885 [label="EFraction <= 0.7\ngini = 0.4\nsamples = 63\nvalue = [26, 69]"] ;
879 -> 885 ;
886 [label="EFraction <= 0.7\ngini = 0.4\nsamples = 60\nvalue = [26, 63]"] ;
885 -> 886 ;
887 [label="Months <= 46.5\ngini = 0.4\nsamples = 57\nvalue = [23, 62]"] ;
886 -> 887 ;
888 [label="gini = 0.0\nsamples = 1\nvalue = [2, 0]"] ;
887 -> 888 ;
889 [label="EFraction <= 0.6\ngini = 0.4\nsamples = 56\nvalue = [21, 62]"] ;
887 -> 889 ;
890 [label="Months <= 65.0\ngini = 0.4\nsamples = 52\nvalue = [21, 56]"] ;
889 -> 890 ;
891 [label="Months <= 56.0\ngini = 0.5\nsamples = 27\nvalue = [15, 26]"] ;
890 -> 891 ;
892 [label="EFraction <= 0.5\ngini = 0.4\nsamples = 15\nvalue = [5, 17]"] ;
891 -> 892 ;
893 [label="gini = 0.0\nsamples = 6\nvalue = [0, 10]"] ;
892 -> 893 ;
894 [label="Months <= 52.0\ngini = 0.5\nsamples = 9\nvalue = [5, 7]"] ;
892 -> 894 ;
895 [label="EFraction <= 0.6\ngini = 0.5\nsamples = 7\nvalue = [5, 5]"] ;
894 -> 895 ;
896 [label="EFraction <= 0.5\ngini = 0.3\nsamples = 3\nvalue = [4, 1]"] ;
895 -> 896 ;
897 [label="gini = 0.0\nsamples = 1\nvalue = [2, 0]"] ;
896 -> 897 ;
898 [label="Months <= 50.5\ngini = 0.4\nsamples = 2\nvalue = [2, 1]"] ;
896 -> 898 ;
899 [label="gini = 0.0\nsamples = 1\nvalue = [0, 1]"] ;
898 -> 899 ;
900 [label="gini = 0.0\nsamples = 1\nvalue = [2, 0]"] ;
898 -> 900 ;
901 [label="Months <= 49.0\ngini = 0.3\nsamples = 4\nvalue = [1, 4]"] ;
895 -> 901 ;
902 [label="gini = 0.0\nsamples = 1\nvalue = [1, 0]"] ;
901 -> 902 ;
903 [label="gini = 0.0\nsamples = 3\nvalue = [0, 4]"] ;
901 -> 903 ;
904 [label="gini = 0.0\nsamples = 2\nvalue = [0, 2]"] ;
894 -> 904 ;
905 [label="Months <= 57.5\ngini = 0.5\nsamples = 12\nvalue = [10, 9]"] ;
891 -> 905 ;
906 [label="gini = 0.0\nsamples = 1\nvalue = [2, 0]"] ;
905 -> 906 ;
907 [label="EFraction <= 0.4\ngini = 0.5\nsamples = 11\nvalue = [8, 9]"] ;
905 -> 907 ;
908 [label="gini = 0.0\nsamples = 2\nvalue = [0, 3]"] ;
907 -> 908 ;
909 [label="Months <= 59.0\ngini = 0.5\nsamples = 9\nvalue = [8, 6]"] ;
907 -> 909 ;
910 [label="gini = 0.0\nsamples = 1\nvalue = [0, 1]"] ;
909 -> 910 ;
911 [label="EFraction <= 0.5\ngini = 0.5\nsamples = 8\nvalue = [8, 5]"] ;
909 -> 911 ;
912 [label="gini = 0.0\nsamples = 1\nvalue = [3, 0]"] ;
911 -> 912 ;
913 [label="Months <= 61.5\ngini = 0.5\nsamples = 7\nvalue = [5, 5]"] ;
911 -> 913 ;
914 [label="EFraction <= 0.5\ngini = 0.4\nsamples = 2\nvalue = [1, 2]"] ;
913 -> 914 ;
915 [label="gini = 0.0\nsamples = 1\nvalue = [1, 0]"] ;
914 -> 915 ;
916 [label="gini = 0.0\nsamples = 1\nvalue = [0, 2]"] ;
914 -> 916 ;
917 [label="Months <= 63.5\ngini = 0.5\nsamples = 5\nvalue = [4, 3]"] ;
913 -> 917 ;
918 [label="EFraction <= 0.5\ngini = 0.5\nsamples = 2\nvalue = [1, 1]"] ;
917 -> 918 ;
919 [label="gini = 0.0\nsamples = 1\nvalue = [1, 0]"] ;
918 -> 919 ;
920 [label="gini = 0.0\nsamples = 1\nvalue = [0, 1]"] ;
918 -> 920 ;
921 [label="EFraction <= 0.5\ngini = 0.5\nsamples = 3\nvalue = [3, 2]"] ;
917 -> 921 ;
922 [label="gini = 0.0\nsamples = 1\nvalue = [0, 2]"] ;
921 -> 922 ;
923 [label="gini = 0.0\nsamples = 2\nvalue = [3, 0]"] ;
921 -> 923 ;
924 [label="EFraction <= 0.6\ngini = 0.3\nsamples = 25\nvalue = [6, 30]"] ;
890 -> 924 ;
925 [label="Months <= 74.5\ngini = 0.1\nsamples = 17\nvalue = [2, 23]"] ;
924 -> 925 ;
926 [label="gini = 0.0\nsamples = 7\nvalue = [0, 13]"] ;
925 -> 926 ;
927 [label="Months <= 75.5\ngini = 0.3\nsamples = 10\nvalue = [2, 10]"] ;
925 -> 927 ;
928 [label="gini = 0.0\nsamples = 1\nvalue = [1, 0]"] ;
927 -> 928 ;
929 [label="Months <= 100.0\ngini = 0.2\nsamples = 9\nvalue = [1, 10]"] ;
927 -> 929 ;
930 [label="gini = 0.0\nsamples = 5\nvalue = [0, 7]"] ;
929 -> 930 ;
931 [label="Months <= 109.5\ngini = 0.4\nsamples = 4\nvalue = [1, 3]"] ;
929 -> 931 ;
932 [label="gini = 0.0\nsamples = 1\nvalue = [1, 0]"] ;
931 -> 932 ;
933 [label="gini = 0.0\nsamples = 3\nvalue = [0, 3]"] ;
931 -> 933 ;
934 [label="EFraction <= 0.6\ngini = 0.5\nsamples = 8\nvalue = [4, 7]"] ;
924 -> 934 ;
935 [label="gini = 0.0\nsamples = 1\nvalue = [2, 0]"] ;
934 -> 935 ;
936 [label="EFraction <= 0.6\ngini = 0.3\nsamples = 7\nvalue = [2, 7]"] ;
934 -> 936 ;
937 [label="gini = 0.0\nsamples = 4\nvalue = [0, 5]"] ;
936 -> 937 ;
938 [label="Months <= 69.0\ngini = 0.5\nsamples = 3\nvalue = [2, 2]"] ;
936 -> 938 ;
939 [label="gini = 0.0\nsamples = 2\nvalue = [0, 2]"] ;
938 -> 939 ;
940 [label="gini = 0.0\nsamples = 1\nvalue = [2, 0]"] ;
938 -> 940 ;
941 [label="gini = 0.0\nsamples = 4\nvalue = [0, 6]"] ;
889 -> 941 ;
942 [label="Months <= 50.5\ngini = 0.4\nsamples = 3\nvalue = [3, 1]"] ;
886 -> 942 ;
943 [label="gini = 0.0\nsamples = 1\nvalue = [2, 0]"] ;
942 -> 943 ;
944 [label="EFraction <= 0.7\ngini = 0.5\nsamples = 2\nvalue = [1, 1]"] ;
942 -> 944 ;
945 [label="gini = 0.0\nsamples = 1\nvalue = [0, 1]"] ;
944 -> 945 ;
946 [label="gini = 0.0\nsamples = 1\nvalue = [1, 0]"] ;
944 -> 946 ;
947 [label="gini = 0.0\nsamples = 3\nvalue = [0, 6]"] ;
885 -> 947 ;
948 [label="Months <= 57.5\ngini = 0.4\nsamples = 3\nvalue = [4, 2]"] ;
878 -> 948 ;
949 [label="gini = 0.0\nsamples = 2\nvalue = [4, 0]"] ;
948 -> 949 ;
950 [label="gini = 0.0\nsamples = 1\nvalue = [0, 2]"] ;
948 -> 950 ;
951 [label="Age_Type <= 4.5\ngini = 0.1\nsamples = 11\nvalue = [1, 16]"] ;
759 -> 951 ;
952 [label="gini = 0.0\nsamples = 2\nvalue = [0, 5]"] ;
951 -> 952 ;
953 [label="EFraction <= 0.7\ngini = 0.2\nsamples = 9\nvalue = [1, 11]"] ;
951 -> 953 ;
954 [label="gini = 0.0\nsamples = 7\nvalue = [0, 9]"] ;
953 -> 954 ;
955 [label="Months <= 104.0\ngini = 0.4\nsamples = 2\nvalue = [1, 2]"] ;
953 -> 955 ;
956 [label="gini = 0.0\nsamples = 1\nvalue = [1, 0]"] ;
955 -> 956 ;
957 [label="gini = 0.0\nsamples = 1\nvalue = [0, 2]"] ;
955 -> 957 ;
958 [label="Phases <= 0.2\ngini = 0.1\nsamples = 1885\nvalue = [203, 2714]"] ;
504 -> 958 ;
959 [label="EFraction <= 1.0\ngini = 0.1\nsamples = 196\nvalue = [11, 292]"] ;
958 -> 959 ;
960 [label="gini = 0.0\nsamples = 37\nvalue = [0, 60]"] ;
959 -> 960 ;
961 [label="EFraction <= 1.0\ngini = 0.1\nsamples = 159\nvalue = [11, 232]"] ;
959 -> 961 ;
962 [label="Age_Type <= 3.5\ngini = 0.1\nsamples = 113\nvalue = [10, 157]"] ;
961 -> 962 ;
963 [label="Months <= 32.5\ngini = 0.1\nsamples = 101\nvalue = [10, 141]"] ;
962 -> 963 ;
964 [label="Months <= 12.5\ngini = 0.1\nsamples = 66\nvalue = [3, 95]"] ;
963 -> 964 ;
965 [label="gini = 0.0\nsamples = 32\nvalue = [0, 50]"] ;
964 -> 965 ;
966 [label="Gender <= 0.5\ngini = 0.1\nsamples = 34\nvalue = [3, 45]"] ;
964 -> 966 ;
967 [label="Months <= 22.5\ngini = 0.2\nsamples = 6\nvalue = [1, 7]"] ;
966 -> 967 ;
968 [label="gini = 0.0\nsamples = 1\nvalue = [1, 0]"] ;
967 -> 968 ;
969 [label="gini = 0.0\nsamples = 5\nvalue = [0, 7]"] ;
967 -> 969 ;
970 [label="Gender <= 1.5\ngini = 0.1\nsamples = 28\nvalue = [2, 38]"] ;
966 -> 970 ;
971 [label="gini = 0.0\nsamples = 1\nvalue = [0, 1]"] ;
970 -> 971 ;
972 [label="Months <= 14.0\ngini = 0.1\nsamples = 27\nvalue = [2, 37]"] ;
970 -> 972 ;
973 [label="gini = 0.4\nsamples = 4\nvalue = [2, 6]"] ;
972 -> 973 ;
974 [label="gini = 0.0\nsamples = 23\nvalue = [0, 31]"] ;
972 -> 974 ;
975 [label="Gender <= 1.5\ngini = 0.2\nsamples = 35\nvalue = [7, 46]"] ;
963 -> 975 ;
976 [label="gini = 0.0\nsamples = 6\nvalue = [0, 12]"] ;
975 -> 976 ;
977 [label="Months <= 34.0\ngini = 0.3\nsamples = 29\nvalue = [7, 34]"] ;
975 -> 977 ;
978 [label="gini = 0.0\nsamples = 2\nvalue = [2, 0]"] ;
977 -> 978 ;
979 [label="Months <= 37.5\ngini = 0.2\nsamples = 27\nvalue = [5, 34]"] ;
977 -> 979 ;
980 [label="gini = 0.0\nsamples = 6\nvalue = [0, 8]"] ;
979 -> 980 ;
981 [label="Months <= 40.5\ngini = 0.3\nsamples = 21\nvalue = [5, 26]"] ;
979 -> 981 ;
982 [label="gini = 0.5\nsamples = 2\nvalue = [1, 1]"] ;
981 -> 982 ;
983 [label="Months <= 52.5\ngini = 0.2\nsamples = 19\nvalue = [4, 25]"] ;
981 -> 983 ;
984 [label="gini = 0.0\nsamples = 4\nvalue = [0, 7]"] ;
983 -> 984 ;
985 [label="Months <= 55.0\ngini = 0.3\nsamples = 15\nvalue = [4, 18]"] ;
983 -> 985 ;
986 [label="gini = 0.4\nsamples = 2\nvalue = [2, 1]"] ;
985 -> 986 ;
987 [label="Months <= 62.5\ngini = 0.2\nsamples = 13\nvalue = [2, 17]"] ;
985 -> 987 ;
988 [label="gini = 0.0\nsamples = 4\nvalue = [0, 6]"] ;
987 -> 988 ;
989 [label="Months <= 63.5\ngini = 0.3\nsamples = 9\nvalue = [2, 11]"] ;
987 -> 989 ;
990 [label="gini = 0.0\nsamples = 1\nvalue = [1, 0]"] ;
989 -> 990 ;
991 [label="Months <= 83.0\ngini = 0.2\nsamples = 8\nvalue = [1, 11]"] ;
989 -> 991 ;
992 [label="Months <= 80.5\ngini = 0.3\nsamples = 5\nvalue = [1, 5]"] ;
991 -> 992 ;
993 [label="gini = 0.0\nsamples = 4\nvalue = [0, 5]"] ;
992 -> 993 ;
994 [label="gini = 0.0\nsamples = 1\nvalue = [1, 0]"] ;
992 -> 994 ;
995 [label="gini = 0.0\nsamples = 3\nvalue = [0, 6]"] ;
991 -> 995 ;
996 [label="gini = 0.0\nsamples = 12\nvalue = [0, 16]"] ;
962 -> 996 ;
997 [label="EFraction <= 1.2\ngini = 0.0\nsamples = 46\nvalue = [1, 75]"] ;
961 -> 997 ;
998 [label="Age_Type <= 3.5\ngini = 0.1\nsamples = 24\nvalue = [1, 35]"] ;
997 -> 998 ;
999 [label="Months <= 29.0\ngini = 0.1\nsamples = 23\nvalue = [1, 33]"] ;
998 -> 999 ;
1000 [label="Months <= 26.5\ngini = 0.1\nsamples = 12\nvalue = [1, 15]"] ;
999 -> 1000 ;
1001 [label="gini = 0.0\nsamples = 10\nvalue = [0, 14]"] ;
1000 -> 1001 ;
1002 [label="EFraction <= 1.1\ngini = 0.5\nsamples = 2\nvalue = [1, 1]"] ;
1000 -> 1002 ;
1003 [label="gini = 0.0\nsamples = 1\nvalue = [0, 1]"] ;
1002 -> 1003 ;
1004 [label="gini = 0.0\nsamples = 1\nvalue = [1, 0]"] ;
1002 -> 1004 ;
1005 [label="gini = 0.0\nsamples = 11\nvalue = [0, 18]"] ;
999 -> 1005 ;
1006 [label="gini = 0.0\nsamples = 1\nvalue = [0, 2]"] ;
998 -> 1006 ;
1007 [label="gini = 0.0\nsamples = 22\nvalue = [0, 40]"] ;
997 -> 1007 ;
1008 [label="EFraction <= 1.0\ngini = 0.1\nsamples = 1689\nvalue = [192, 2422]"] ;
958 -> 1008 ;
1009 [label="EFraction <= 0.8\ngini = 0.2\nsamples = 950\nvalue = [144, 1318]"] ;
1008 -> 1009 ;
1010 [label="Age_Type <= 4.0\ngini = 0.3\nsamples = 52\nvalue = [12, 63]"] ;
1009 -> 1010 ;
1011 [label="Gender <= 1.5\ngini = 0.3\nsamples = 50\nvalue = [12, 61]"] ;
1010 -> 1011 ;
1012 [label="Gender <= 0.5\ngini = 0.2\nsamples = 15\nvalue = [2, 20]"] ;
1011 -> 1012 ;
1013 [label="EFraction <= 0.8\ngini = 0.3\nsamples = 5\nvalue = [1, 5]"] ;
1012 -> 1013 ;
1014 [label="gini = 0.0\nsamples = 4\nvalue = [0, 5]"] ;
1013 -> 1014 ;
1015 [label="gini = 0.0\nsamples = 1\nvalue = [1, 0]"] ;
1013 -> 1015 ;
1016 [label="EFraction <= 0.8\ngini = 0.1\nsamples = 10\nvalue = [1, 15]"] ;
1012 -> 1016 ;
1017 [label="Months <= 72.5\ngini = 0.2\nsamples = 5\nvalue = [1, 7]"] ;
1016 -> 1017 ;
1018 [label="Phases <= 1.8\ngini = 0.4\nsamples = 3\nvalue = [1, 3]"] ;
1017 -> 1018 ;
1019 [label="gini = 0.0\nsamples = 2\nvalue = [0, 3]"] ;
1018 -> 1019 ;
1020 [label="gini = 0.0\nsamples = 1\nvalue = [1, 0]"] ;
1018 -> 1020 ;
1021 [label="gini = 0.0\nsamples = 2\nvalue = [0, 4]"] ;
1017 -> 1021 ;
1022 [label="gini = 0.0\nsamples = 5\nvalue = [0, 8]"] ;
1016 -> 1022 ;
1023 [label="Months <= 52.0\ngini = 0.3\nsamples = 35\nvalue = [10, 41]"] ;
1011 -> 1023 ;
1024 [label="Months <= 49.5\ngini = 0.4\nsamples = 26\nvalue = [10, 30]"] ;
1023 -> 1024 ;
1025 [label="EFraction <= 0.8\ngini = 0.3\nsamples = 25\nvalue = [8, 30]"] ;
1024 -> 1025 ;
1026 [label="EFraction <= 0.8\ngini = 0.2\nsamples = 23\nvalue = [4, 30]"] ;
1025 -> 1026 ;
1027 [label="EFraction <= 0.8\ngini = 0.3\nsamples = 15\nvalue = [4, 20]"] ;
1026 -> 1027 ;
1028 [label="EFraction <= 0.8\ngini = 0.2\nsamples = 14\nvalue = [2, 20]"] ;
1027 -> 1028 ;
1029 [label="Months <= 15.0\ngini = 0.2\nsamples = 13\nvalue = [2, 19]"] ;
1028 -> 1029 ;
1030 [label="Phases <= 1.5\ngini = 0.5\nsamples = 3\nvalue = [2, 3]"] ;
1029 -> 1030 ;
1031 [label="gini = 0.0\nsamples = 1\nvalue = [2, 0]"] ;
1030 -> 1031 ;
1032 [label="gini = 0.0\nsamples = 2\nvalue = [0, 3]"] ;
1030 -> 1032 ;
1033 [label="gini = 0.0\nsamples = 10\nvalue = [0, 16]"] ;
1029 -> 1033 ;
1034 [label="gini = 0.0\nsamples = 1\nvalue = [0, 1]"] ;
1028 -> 1034 ;
1035 [label="gini = 0.0\nsamples = 1\nvalue = [2, 0]"] ;
1027 -> 1035 ;
1036 [label="gini = 0.0\nsamples = 8\nvalue = [0, 10]"] ;
1026 -> 1036 ;
1037 [label="gini = 0.0\nsamples = 2\nvalue = [4, 0]"] ;
1025 -> 1037 ;
1038 [label="gini = 0.0\nsamples = 1\nvalue = [2, 0]"] ;
1024 -> 1038 ;
1039 [label="gini = 0.0\nsamples = 9\nvalue = [0, 11]"] ;
1023 -> 1039 ;
1040 [label="gini = 0.0\nsamples = 2\nvalue = [0, 2]"] ;
1010 -> 1040 ;
1041 [label="Months <= 4.5\ngini = 0.2\nsamples = 898\nvalue = [132, 1255]"] ;
1009 -> 1041 ;
1042 [label="gini = 0.0\nsamples = 58\nvalue = [0, 96]"] ;
1041 -> 1042 ;
1043 [label="Age_Type <= 4.5\ngini = 0.2\nsamples = 840\nvalue = [132, 1159]"] ;
1041 -> 1043 ;
1044 [label="Months <= 26.5\ngini = 0.2\nsamples = 812\nvalue = [127, 1127]"] ;
1043 -> 1044 ;
1045 [label="Months <= 20.5\ngini = 0.2\nsamples = 312\nvalue = [66, 406]"] ;
1044 -> 1045 ;
1046 [label="EFraction <= 1.0\ngini = 0.2\nsamples = 223\nvalue = [36, 301]"] ;
1045 -> 1046 ;
1047 [label="EFraction <= 0.9\ngini = 0.1\nsamples = 57\nvalue = [4, 81]"] ;
1046 -> 1047 ;
1048 [label="Months <= 10.5\ngini = 0.2\nsamples = 20\nvalue = [3, 24]"] ;
1047 -> 1048 ;
1049 [label="gini = 0.0\nsamples = 6\nvalue = [0, 8]"] ;
1048 -> 1049 ;
1050 [label="Gender <= 1.5\ngini = 0.3\nsamples = 14\nvalue = [3, 16]"] ;
1048 -> 1050 ;
1051 [label="gini = 0.0\nsamples = 1\nvalue = [0, 1]"] ;
1050 -> 1051 ;
1052 [label="Phases <= 1.8\ngini = 0.3\nsamples = 13\nvalue = [3, 15]"] ;
1050 -> 1052 ;
1053 [label="gini = 0.0\nsamples = 3\nvalue = [0, 3]"] ;
1052 -> 1053 ;
1054 [label="EFraction <= 0.9\ngini = 0.3\nsamples = 10\nvalue = [3, 12]"] ;
1052 -> 1054 ;
1055 [label="EFraction <= 0.9\ngini = 0.1\nsamples = 9\nvalue = [1, 12]"] ;
1054 -> 1055 ;
1056 [label="gini = 0.0\nsamples = 7\nvalue = [0, 10]"] ;
1055 -> 1056 ;
1057 [label="Months <= 15.5\ngini = 0.4\nsamples = 2\nvalue = [1, 2]"] ;
1055 -> 1057 ;
1058 [label="gini = 0.0\nsamples = 1\nvalue = [0, 2]"] ;
1057 -> 1058 ;
1059 [label="gini = 0.0\nsamples = 1\nvalue = [1, 0]"] ;
1057 -> 1059 ;
1060 [label="gini = 0.0\nsamples = 1\nvalue = [2, 0]"] ;
1054 -> 1060 ;
1061 [label="Phases <= 1.2\ngini = 0.0\nsamples = 37\nvalue = [1, 57]"] ;
1047 -> 1061 ;
1062 [label="Months <= 8.5\ngini = 0.2\nsamples = 8\nvalue = [1, 9]"] ;
1061 -> 1062 ;
1063 [label="EFraction <= 0.9\ngini = 0.4\nsamples = 3\nvalue = [1, 3]"] ;
1062 -> 1063 ;
1064 [label="gini = 0.0\nsamples = 1\nvalue = [0, 2]"] ;
1063 -> 1064 ;
1065 [label="EFraction <= 0.9\ngini = 0.5\nsamples = 2\nvalue = [1, 1]"] ;
1063 -> 1065 ;
1066 [label="gini = 0.0\nsamples = 1\nvalue = [1, 0]"] ;
1065 -> 1066 ;
1067 [label="gini = 0.0\nsamples = 1\nvalue = [0, 1]"] ;
1065 -> 1067 ;
1068 [label="gini = 0.0\nsamples = 5\nvalue = [0, 6]"] ;
1062 -> 1068 ;
1069 [label="gini = 0.0\nsamples = 29\nvalue = [0, 48]"] ;
1061 -> 1069 ;
1070 [label="Age_Type <= 3.5\ngini = 0.2\nsamples = 166\nvalue = [32, 220]"] ;
1046 -> 1070 ;
1071 [label="Gender <= 1.5\ngini = 0.2\nsamples = 164\nvalue = [32, 218]"] ;
1070 -> 1071 ;
1072 [label="Phases <= 1.2\ngini = 0.3\nsamples = 28\nvalue = [7, 33]"] ;
1071 -> 1072 ;
1073 [label="gini = 0.0\nsamples = 6\nvalue = [0, 9]"] ;
1072 -> 1073 ;
1074 [label="Months <= 12.5\ngini = 0.3\nsamples = 22\nvalue = [7, 24]"] ;
1072 -> 1074 ;
1075 [label="Gender <= 0.5\ngini = 0.5\nsamples = 6\nvalue = [5, 5]"] ;
1074 -> 1075 ;
1076 [label="Months <= 10.5\ngini = 0.5\nsamples = 5\nvalue = [3, 5]"] ;
1075 -> 1076 ;
1077 [label="gini = 0.0\nsamples = 3\nvalue = [0, 5]"] ;
1076 -> 1077 ;
1078 [label="gini = 0.0\nsamples = 2\nvalue = [3, 0]"] ;
1076 -> 1078 ;
1079 [label="gini = 0.0\nsamples = 1\nvalue = [2, 0]"] ;
1075 -> 1079 ;
1080 [label="Phases <= 1.8\ngini = 0.2\nsamples = 16\nvalue = [2, 19]"] ;
1074 -> 1080 ;
1081 [label="gini = 0.0\nsamples = 3\nvalue = [0, 6]"] ;
1080 -> 1081 ;
1082 [label="Months <= 17.5\ngini = 0.2\nsamples = 13\nvalue = [2, 13]"] ;
1080 -> 1082 ;
1083 [label="gini = 0.0\nsamples = 7\nvalue = [0, 9]"] ;
1082 -> 1083 ;
1084 [label="Gender <= 0.5\ngini = 0.4\nsamples = 6\nvalue = [2, 4]"] ;
1082 -> 1084 ;
1085 [label="gini = 0.0\nsamples = 2\nvalue = [0, 2]"] ;
1084 -> 1085 ;
1086 [label="Months <= 19.5\ngini = 0.5\nsamples = 4\nvalue = [2, 2]"] ;
1084 -> 1086 ;
1087 [label="Months <= 18.5\ngini = 0.4\nsamples = 3\nvalue = [1, 2]"] ;
1086 -> 1087 ;
1088 [label="gini = 0.5\nsamples = 2\nvalue = [1, 1]"] ;
1087 -> 1088 ;
1089 [label="gini = 0.0\nsamples = 1\nvalue = [0, 1]"] ;
1087 -> 1089 ;
1090 [label="gini = 0.0\nsamples = 1\nvalue = [1, 0]"] ;
1086 -> 1090 ;
1091 [label="Phases <= 1.8\ngini = 0.2\nsamples = 136\nvalue = [25, 185]"] ;
1071 -> 1091 ;
1092 [label="Phases <= 1.2\ngini = 0.2\nsamples = 51\nvalue = [7, 71]"] ;
1091 -> 1092 ;
1093 [label="Phases <= 0.8\ngini = 0.2\nsamples = 45\nvalue = [7, 63]"] ;
1092 -> 1093 ;
1094 [label="Months <= 13.0\ngini = 0.2\nsamples = 4\nvalue = [1, 6]"] ;
1093 -> 1094 ;
1095 [label="gini = 0.0\nsamples = 2\nvalue = [0, 4]"] ;
1094 -> 1095 ;
1096 [label="Months <= 16.0\ngini = 0.4\nsamples = 2\nvalue = [1, 2]"] ;
1094 -> 1096 ;
1097 [label="gini = 0.0\nsamples = 1\nvalue = [1, 0]"] ;
1096 -> 1097 ;
1098 [label="gini = 0.0\nsamples = 1\nvalue = [0, 2]"] ;
1096 -> 1098 ;
1099 [label="Months <= 15.0\ngini = 0.2\nsamples = 41\nvalue = [6, 57]"] ;
1093 -> 1099 ;
1100 [label="Months <= 11.5\ngini = 0.2\nsamples = 29\nvalue = [6, 39]"] ;
1099 -> 1100 ;
1101 [label="Months <= 6.5\ngini = 0.1\nsamples = 25\nvalue = [2, 38]"] ;
1100 -> 1101 ;
1102 [label="Months <= 5.5\ngini = 0.2\nsamples = 13\nvalue = [2, 18]"] ;
1101 -> 1102 ;
1103 [label="gini = 0.0\nsamples = 8\nvalue = [0, 12]"] ;
1102 -> 1103 ;
1104 [label="gini = 0.4\nsamples = 5\nvalue = [2, 6]"] ;
1102 -> 1104 ;
1105 [label="gini = 0.0\nsamples = 12\nvalue = [0, 20]"] ;
1101 -> 1105 ;
1106 [label="Months <= 13.0\ngini = 0.3\nsamples = 4\nvalue = [4, 1]"] ;
1100 -> 1106 ;
1107 [label="gini = 0.0\nsamples = 1\nvalue = [1, 0]"] ;
1106 -> 1107 ;
1108 [label="gini = 0.4\nsamples = 3\nvalue = [3, 1]"] ;
1106 -> 1108 ;
1109 [label="gini = 0.0\nsamples = 12\nvalue = [0, 18]"] ;
1099 -> 1109 ;
1110 [label="gini = 0.0\nsamples = 6\nvalue = [0, 8]"] ;
1092 -> 1110 ;
1111 [label="Months <= 16.5\ngini = 0.2\nsamples = 85\nvalue = [18, 114]"] ;
1091 -> 1111 ;
1112 [label="Months <= 12.5\ngini = 0.2\nsamples = 68\nvalue = [12, 93]"] ;
1111 -> 1112 ;
1113 [label="Months <= 9.5\ngini = 0.3\nsamples = 48\nvalue = [12, 63]"] ;
1112 -> 1113 ;
1114 [label="Months <= 7.5\ngini = 0.2\nsamples = 29\nvalue = [5, 42]"] ;
1113 -> 1114 ;
1115 [label="Months <= 5.5\ngini = 0.3\nsamples = 16\nvalue = [5, 19]"] ;
1114 -> 1115 ;
1116 [label="gini = 0.0\nsamples = 5\nvalue = [0, 7]"] ;
1115 -> 1116 ;
1117 [label="Months <= 6.5\ngini = 0.4\nsamples = 11\nvalue = [5, 12]"] ;
1115 -> 1117 ;
1118 [label="gini = 0.4\nsamples = 6\nvalue = [3, 7]"] ;
1117 -> 1118 ;
1119 [label="gini = 0.4\nsamples = 5\nvalue = [2, 5]"] ;
1117 -> 1119 ;
1120 [label="gini = 0.0\nsamples = 13\nvalue = [0, 23]"] ;
1114 -> 1120 ;
1121 [label="Months <= 10.5\ngini = 0.4\nsamples = 19\nvalue = [7, 21]"] ;
1113 -> 1121 ;
1122 [label="gini = 0.4\nsamples = 7\nvalue = [3, 6]"] ;
1121 -> 1122 ;
1123 [label="Months <= 11.5\ngini = 0.3\nsamples = 12\nvalue = [4, 15]"] ;
1121 -> 1123 ;
1124 [label="gini = 0.3\nsamples = 7\nvalue = [2, 7]"] ;
1123 -> 1124 ;
1125 [label="gini = 0.3\nsamples = 5\nvalue = [2, 8]"] ;
1123 -> 1125 ;
1126 [label="gini = 0.0\nsamples = 20\nvalue = [0, 30]"] ;
1112 -> 1126 ;
1127 [label="Months <= 18.5\ngini = 0.3\nsamples = 17\nvalue = [6, 21]"] ;
1111 -> 1127 ;
1128 [label="Months <= 17.5\ngini = 0.5\nsamples = 9\nvalue = [6, 10]"] ;
1127 -> 1128 ;
1129 [label="gini = 0.5\nsamples = 4\nvalue = [3, 4]"] ;
1128 -> 1129 ;
1130 [label="gini = 0.4\nsamples = 5\nvalue = [3, 6]"] ;
1128 -> 1130 ;
1131 [label="gini = 0.0\nsamples = 8\nvalue = [0, 11]"] ;
1127 -> 1131 ;
1132 [label="gini = 0.0\nsamples = 2\nvalue = [0, 2]"] ;
1070 -> 1132 ;
1133 [label="Gender <= 0.5\ngini = 0.3\nsamples = 89\nvalue = [30, 105]"] ;
1045 -> 1133 ;
1134 [label="EFraction <= 1.0\ngini = 0.5\nsamples = 16\nvalue = [9, 12]"] ;
1133 -> 1134 ;
1135 [label="gini = 0.0\nsamples = 3\nvalue = [0, 3]"] ;
1134 -> 1135 ;
1136 [label="EFraction <= 1.0\ngini = 0.5\nsamples = 13\nvalue = [9, 9]"] ;
1134 -> 1136 ;
1137 [label="gini = 0.0\nsamples = 1\nvalue = [2, 0]"] ;
1136 -> 1137 ;
1138 [label="Phases <= 1.8\ngini = 0.5\nsamples = 12\nvalue = [7, 9]"] ;
1136 -> 1138 ;
1139 [label="Months <= 24.5\ngini = 0.3\nsamples = 3\nvalue = [4, 1]"] ;
1138 -> 1139 ;
1140 [label="gini = 0.0\nsamples = 1\nvalue = [0, 1]"] ;
1139 -> 1140 ;
1141 [label="gini = 0.0\nsamples = 2\nvalue = [4, 0]"] ;
1139 -> 1141 ;
1142 [label="Months <= 25.0\ngini = 0.4\nsamples = 9\nvalue = [3, 8]"] ;
1138 -> 1142 ;
1143 [label="Months <= 23.0\ngini = 0.5\nsamples = 6\nvalue = [3, 5]"] ;
1142 -> 1143 ;
1144 [label="gini = 0.0\nsamples = 2\nvalue = [0, 2]"] ;
1143 -> 1144 ;
1145 [label="gini = 0.5\nsamples = 4\nvalue = [3, 3]"] ;
1143 -> 1145 ;
1146 [label="gini = 0.0\nsamples = 3\nvalue = [0, 3]"] ;
1142 -> 1146 ;
1147 [label="Months <= 21.5\ngini = 0.3\nsamples = 73\nvalue = [21, 93]"] ;
1133 -> 1147 ;
1148 [label="Phases <= 1.8\ngini = 0.5\nsamples = 10\nvalue = [9, 11]"] ;
1147 -> 1148 ;
1149 [label="gini = 0.0\nsamples = 1\nvalue = [0, 2]"] ;
1148 -> 1149 ;
1150 [label="Gender <= 1.5\ngini = 0.5\nsamples = 9\nvalue = [9, 9]"] ;
1148 -> 1150 ;
1151 [label="gini = 0.0\nsamples = 1\nvalue = [1, 0]"] ;
1150 -> 1151 ;
1152 [label="Age_Type <= 3.5\ngini = 0.5\nsamples = 8\nvalue = [8, 9]"] ;
1150 -> 1152 ;
1153 [label="EFraction <= 1.0\ngini = 0.5\nsamples = 7\nvalue = [8, 7]"] ;
1152 -> 1153 ;
1154 [label="gini = 0.0\nsamples = 1\nvalue = [2, 0]"] ;
1153 -> 1154 ;
1155 [label="gini = 0.5\nsamples = 6\nvalue = [6, 7]"] ;
1153 -> 1155 ;
1156 [label="gini = 0.0\nsamples = 1\nvalue = [0, 2]"] ;
1152 -> 1156 ;
1157 [label="EFraction <= 0.9\ngini = 0.2\nsamples = 63\nvalue = [12, 82]"] ;
1147 -> 1157 ;
1158 [label="gini = 0.0\nsamples = 1\nvalue = [1, 0]"] ;
1157 -> 1158 ;
1159 [label="Age_Type <= 3.5\ngini = 0.2\nsamples = 62\nvalue = [11, 82]"] ;
1157 -> 1159 ;
1160 [label="Months <= 23.5\ngini = 0.2\nsamples = 61\nvalue = [11, 81]"] ;
1159 -> 1160 ;
1161 [label="Months <= 22.5\ngini = 0.1\nsamples = 21\nvalue = [1, 30]"] ;
1160 -> 1161 ;
1162 [label="gini = 0.0\nsamples = 10\nvalue = [0, 14]"] ;
1161 -> 1162 ;
1163 [label="Phases <= 1.8\ngini = 0.1\nsamples = 11\nvalue = [1, 16]"] ;
1161 -> 1163 ;
1164 [label="gini = 0.0\nsamples = 4\nvalue = [0, 6]"] ;
1163 -> 1164 ;
1165 [label="Gender <= 1.5\ngini = 0.2\nsamples = 7\nvalue = [1, 10]"] ;
1163 -> 1165 ;
1166 [label="gini = 0.0\nsamples = 1\nvalue = [0, 3]"] ;
1165 -> 1166 ;
1167 [label="EFraction <= 1.0\ngini = 0.2\nsamples = 6\nvalue = [1, 7]"] ;
1165 -> 1167 ;
1168 [label="gini = 0.0\nsamples = 1\nvalue = [0, 1]"] ;
1167 -> 1168 ;
1169 [label="gini = 0.2\nsamples = 5\nvalue = [1, 6]"] ;
1167 -> 1169 ;
1170 [label="EFraction <= 0.9\ngini = 0.3\nsamples = 40\nvalue = [10, 51]"] ;
1160 -> 1170 ;
1171 [label="Phases <= 1.5\ngini = 0.5\nsamples = 5\nvalue = [4, 5]"] ;
1170 -> 1171 ;
1172 [label="gini = 0.0\nsamples = 2\nvalue = [0, 3]"] ;
1171 -> 1172 ;
1173 [label="Months <= 25.5\ngini = 0.4\nsamples = 3\nvalue = [4, 2]"] ;
1171 -> 1173 ;
1174 [label="gini = 0.0\nsamples = 2\nvalue = [4, 0]"] ;
1173 -> 1174 ;
1175 [label="gini = 0.0\nsamples = 1\nvalue = [0, 2]"] ;
1173 -> 1175 ;
1176 [label="Months <= 24.5\ngini = 0.2\nsamples = 35\nvalue = [6, 46]"] ;
1170 -> 1176 ;
1177 [label="EFraction <= 1.0\ngini = 0.3\nsamples = 12\nvalue = [4, 16]"] ;
1176 -> 1177 ;
1178 [label="gini = 0.0\nsamples = 1\nvalue = [0, 1]"] ;
1177 -> 1178 ;
1179 [label="Gender <= 1.5\ngini = 0.3\nsamples = 11\nvalue = [4, 15]"] ;
1177 -> 1179 ;
1180 [label="gini = 0.0\nsamples = 1\nvalue = [2, 0]"] ;
1179 -> 1180 ;
1181 [label="Phases <= 1.8\ngini = 0.2\nsamples = 10\nvalue = [2, 15]"] ;
1179 -> 1181 ;
1182 [label="gini = 0.0\nsamples = 2\nvalue = [0, 2]"] ;
1181 -> 1182 ;
1183 [label="gini = 0.2\nsamples = 8\nvalue = [2, 13]"] ;
1181 -> 1183 ;
1184 [label="Months <= 25.5\ngini = 0.1\nsamples = 23\nvalue = [2, 30]"] ;
1176 -> 1184 ;
1185 [label="Phases <= 1.8\ngini = 0.1\nsamples = 15\nvalue = [1, 21]"] ;
1184 -> 1185 ;
1186 [label="Gender <= 1.5\ngini = 0.2\nsamples = 6\nvalue = [1, 9]"] ;
1185 -> 1186 ;
1187 [label="gini = 0.0\nsamples = 2\nvalue = [0, 6]"] ;
1186 -> 1187 ;
1188 [label="EFraction <= 1.0\ngini = 0.4\nsamples = 4\nvalue = [1, 3]"] ;
1186 -> 1188 ;
1189 [label="gini = 0.0\nsamples = 1\nvalue = [0, 1]"] ;
1188 -> 1189 ;
1190 [label="Phases <= 1.2\ngini = 0.4\nsamples = 3\nvalue = [1, 2]"] ;
1188 -> 1190 ;
1191 [label="gini = 0.0\nsamples = 2\nvalue = [0, 2]"] ;
1190 -> 1191 ;
1192 [label="gini = 0.0\nsamples = 1\nvalue = [1, 0]"] ;
1190 -> 1192 ;
1193 [label="gini = 0.0\nsamples = 9\nvalue = [0, 12]"] ;
1185 -> 1193 ;
1194 [label="Phases <= 1.8\ngini = 0.2\nsamples = 8\nvalue = [1, 9]"] ;
1184 -> 1194 ;
1195 [label="gini = 0.0\nsamples = 3\nvalue = [0, 4]"] ;
1194 -> 1195 ;
1196 [label="EFraction <= 1.0\ngini = 0.3\nsamples = 5\nvalue = [1, 5]"] ;
1194 -> 1196 ;
1197 [label="gini = 0.0\nsamples = 1\nvalue = [0, 1]"] ;
1196 -> 1197 ;
1198 [label="gini = 0.3\nsamples = 4\nvalue = [1, 4]"] ;
1196 -> 1198 ;
1199 [label="gini = 0.0\nsamples = 1\nvalue = [0, 1]"] ;
1159 -> 1199 ;
1200 [label="Phases <= 1.8\ngini = 0.1\nsamples = 500\nvalue = [61, 721]"] ;
1044 -> 1200 ;
1201 [label="Months <= 125.0\ngini = 0.2\nsamples = 152\nvalue = [30, 195]"] ;
1200 -> 1201 ;
1202 [label="Gender <= 1.5\ngini = 0.2\nsamples = 148\nvalue = [26, 193]"] ;
1201 -> 1202 ;
1203 [label="Months <= 35.5\ngini = 0.2\nsamples = 31\nvalue = [4, 44]"] ;
1202 -> 1203 ;
1204 [label="Months <= 34.5\ngini = 0.3\nsamples = 5\nvalue = [2, 7]"] ;
1203 -> 1204 ;
1205 [label="gini = 0.0\nsamples = 4\nvalue = [0, 7]"] ;
1204 -> 1205 ;
1206 [label="gini = 0.0\nsamples = 1\nvalue = [2, 0]"] ;
1204 -> 1206 ;
1207 [label="EFraction <= 0.9\ngini = 0.1\nsamples = 26\nvalue = [2, 37]"] ;
1203 -> 1207 ;
1208 [label="Phases <= 1.2\ngini = 0.4\nsamples = 5\nvalue = [2, 5]"] ;
1207 -> 1208 ;
1209 [label="gini = 0.0\nsamples = 1\nvalue = [2, 0]"] ;
1208 -> 1209 ;
1210 [label="gini = 0.0\nsamples = 4\nvalue = [0, 5]"] ;
1208 -> 1210 ;
1211 [label="gini = 0.0\nsamples = 21\nvalue = [0, 32]"] ;
1207 -> 1211 ;
1212 [label="Months <= 69.5\ngini = 0.2\nsamples = 117\nvalue = [22, 149]"] ;
1202 -> 1212 ;
1213 [label="Phases <= 1.2\ngini = 0.2\nsamples = 94\nvalue = [12, 121]"] ;
1212 -> 1213 ;
1214 [label="Age_Type <= 3.5\ngini = 0.1\nsamples = 70\nvalue = [6, 92]"] ;
1213 -> 1214 ;
1215 [label="Phases <= 0.8\ngini = 0.1\nsamples = 67\nvalue = [6, 89]"] ;
1214 -> 1215 ;
1216 [label="EFraction <= 0.9\ngini = 0.2\nsamples = 7\nvalue = [1, 9]"] ;
1215 -> 1216 ;
1217 [label="gini = 0.0\nsamples = 1\nvalue = [1, 0]"] ;
1216 -> 1217 ;
1218 [label="gini = 0.0\nsamples = 6\nvalue = [0, 9]"] ;
1216 -> 1218 ;
1219 [label="EFraction <= 0.8\ngini = 0.1\nsamples = 60\nvalue = [5, 80]"] ;
1215 -> 1219 ;
1220 [label="Months <= 39.5\ngini = 0.3\nsamples = 7\nvalue = [2, 9]"] ;
1219 -> 1220 ;
1221 [label="Months <= 37.0\ngini = 0.4\nsamples = 3\nvalue = [2, 4]"] ;
1220 -> 1221 ;
1222 [label="gini = 0.0\nsamples = 2\nvalue = [0, 4]"] ;
1221 -> 1222 ;
1223 [label="gini = 0.0\nsamples = 1\nvalue = [2, 0]"] ;
1221 -> 1223 ;
1224 [label="gini = 0.0\nsamples = 4\nvalue = [0, 5]"] ;
1220 -> 1224 ;
1225 [label="EFraction <= 1.0\ngini = 0.1\nsamples = 53\nvalue = [3, 71]"] ;
1219 -> 1225 ;
1226 [label="gini = 0.0\nsamples = 21\nvalue = [0, 29]"] ;
1225 -> 1226 ;
1227 [label="Months <= 39.5\ngini = 0.1\nsamples = 32\nvalue = [3, 42]"] ;
1225 -> 1227 ;
1228 [label="Months <= 37.5\ngini = 0.2\nsamples = 20\nvalue = [3, 23]"] ;
1227 -> 1228 ;
1229 [label="Months <= 35.5\ngini = 0.1\nsamples = 18\nvalue = [1, 22]"] ;
1228 -> 1229 ;
1230 [label="gini = 0.0\nsamples = 14\nvalue = [0, 17]"] ;
1229 -> 1230 ;
1231 [label="Months <= 36.5\ngini = 0.3\nsamples = 4\nvalue = [1, 5]"] ;
1229 -> 1231 ;
1232 [label="gini = 0.4\nsamples = 2\nvalue = [1, 2]"] ;
1231 -> 1232 ;
1233 [label="gini = 0.0\nsamples = 2\nvalue = [0, 3]"] ;
1231 -> 1233 ;
1234 [label="gini = 0.4\nsamples = 2\nvalue = [2, 1]"] ;
1228 -> 1234 ;
1235 [label="gini = 0.0\nsamples = 12\nvalue = [0, 19]"] ;
1227 -> 1235 ;
1236 [label="gini = 0.0\nsamples = 3\nvalue = [0, 3]"] ;
1214 -> 1236 ;
1237 [label="EFraction <= 0.9\ngini = 0.3\nsamples = 24\nvalue = [6, 29]"] ;
1213 -> 1237 ;
1238 [label="Months <= 57.5\ngini = 0.5\nsamples = 7\nvalue = [4, 7]"] ;
1237 -> 1238 ;
1239 [label="EFraction <= 0.8\ngini = 0.5\nsamples = 6\nvalue = [4, 5]"] ;
1238 -> 1239 ;
1240 [label="gini = 0.0\nsamples = 1\nvalue = [1, 0]"] ;
1239 -> 1240 ;
1241 [label="Months <= 49.5\ngini = 0.5\nsamples = 5\nvalue = [3, 5]"] ;
1239 -> 1241 ;
1242 [label="EFraction <= 0.8\ngini = 0.5\nsamples = 4\nvalue = [3, 3]"] ;
1241 -> 1242 ;
1243 [label="gini = 0.0\nsamples = 1\nvalue = [0, 1]"] ;
1242 -> 1243 ;
1244 [label="Months <= 45.5\ngini = 0.5\nsamples = 3\nvalue = [3, 2]"] ;
1242 -> 1244 ;
1245 [label="Months <= 41.5\ngini = 0.4\nsamples = 2\nvalue = [1, 2]"] ;
1244 -> 1245 ;
1246 [label="gini = 0.0\nsamples = 1\nvalue = [1, 0]"] ;
1245 -> 1246 ;
1247 [label="gini = 0.0\nsamples = 1\nvalue = [0, 2]"] ;
1245 -> 1247 ;
1248 [label="gini = 0.0\nsamples = 1\nvalue = [2, 0]"] ;
1244 -> 1248 ;
1249 [label="gini = 0.0\nsamples = 1\nvalue = [0, 2]"] ;
1241 -> 1249 ;
1250 [label="gini = 0.0\nsamples = 1\nvalue = [0, 2]"] ;
1238 -> 1250 ;
1251 [label="EFraction <= 0.9\ngini = 0.2\nsamples = 17\nvalue = [2, 22]"] ;
1237 -> 1251 ;
1252 [label="EFraction <= 0.9\ngini = 0.3\nsamples = 3\nvalue = [1, 4]"] ;
1251 -> 1252 ;
1253 [label="gini = 0.0\nsamples = 2\nvalue = [0, 4]"] ;
1252 -> 1253 ;
1254 [label="gini = 0.0\nsamples = 1\nvalue = [1, 0]"] ;
1252 -> 1254 ;
1255 [label="EFraction <= 1.0\ngini = 0.1\nsamples = 14\nvalue = [1, 18]"] ;
1251 -> 1255 ;
1256 [label="gini = 0.0\nsamples = 6\nvalue = [0, 11]"] ;
1255 -> 1256 ;
1257 [label="Months <= 33.0\ngini = 0.2\nsamples = 8\nvalue = [1, 7]"] ;
1255 -> 1257 ;
1258 [label="gini = 0.5\nsamples = 2\nvalue = [1, 1]"] ;
1257 -> 1258 ;
1259 [label="gini = 0.0\nsamples = 6\nvalue = [0, 6]"] ;
1257 -> 1259 ;
1260 [label="Phases <= 1.2\ngini = 0.4\nsamples = 23\nvalue = [10, 28]"] ;
1212 -> 1260 ;
1261 [label="Months <= 70.5\ngini = 0.4\nsamples = 15\nvalue = [6, 20]"] ;
1260 -> 1261 ;
1262 [label="EFraction <= 0.9\ngini = 0.3\nsamples = 2\nvalue = [5, 1]"] ;
1261 -> 1262 ;
1263 [label="gini = 0.0\nsamples = 1\nvalue = [0, 1]"] ;
1262 -> 1263 ;
1264 [label="gini = 0.0\nsamples = 1\nvalue = [5, 0]"] ;
1262 -> 1264 ;
1265 [label="EFraction <= 0.9\ngini = 0.1\nsamples = 13\nvalue = [1, 19]"] ;
1261 -> 1265 ;
1266 [label="gini = 0.0\nsamples = 6\nvalue = [0, 12]"] ;
1265 -> 1266 ;
1267 [label="Months <= 94.5\ngini = 0.2\nsamples = 7\nvalue = [1, 7]"] ;
1265 -> 1267 ;
1268 [label="gini = 0.0\nsamples = 5\nvalue = [0, 6]"] ;
1267 -> 1268 ;
1269 [label="Months <= 106.5\ngini = 0.5\nsamples = 2\nvalue = [1, 1]"] ;
1267 -> 1269 ;
1270 [label="gini = 0.0\nsamples = 1\nvalue = [1, 0]"] ;
1269 -> 1270 ;
