digraph Tree {
node [shape=box, style="rounded", color="black", fontname="helvetica"] ;
edge [fontname="helvetica"] ;
0 [label="EFraction <= 0.3\nsquared_error = 0.2\nsamples = 3217\nvalue = 0.8"] ;
1 [label="EFraction <= 0.1\nsquared_error = 0.2\nsamples = 463\nvalue = 0.3"] ;
0 -> 1 [labeldistance=2.5, labelangle=45, headlabel="True"] ;
2 [label="Intervention <= 5.5\nsquared_error = 0.1\nsamples = 165\nvalue = 0.1"] ;
1 -> 2 ;
3 [label="EFraction <= 0.0\nsquared_error = 0.1\nsamples = 147\nvalue = 0.1"] ;
2 -> 3 ;
4 [label="Months <= 13.5\nsquared_error = 0.2\nsamples = 9\nvalue = 0.4"] ;
3 -> 4 ;
5 [label="squared_error = 0.0\nsamples = 3\nvalue = 0.0"] ;
4 -> 5 ;
6 [label="Age_Type <= 2.5\nsquared_error = 0.2\nsamples = 6\nvalue = 0.7"] ;
4 -> 6 ;
7 [label="squared_error = 0.0\nsamples = 2\nvalue = 0.0"] ;
6 -> 7 ;
8 [label="EFraction <= 0.0\nsquared_error = 0.1\nsamples = 4\nvalue = 0.9"] ;
6 -> 8 ;
9 [label="Gender <= 1.5\nsquared_error = 0.2\nsamples = 2\nvalue = 0.5"] ;
8 -> 9 ;
10 [label="squared_error = 0.0\nsamples = 1\nvalue = 1.0"] ;
9 -> 10 ;
11 [label="squared_error = 0.0\nsamples = 1\nvalue = 0.0"] ;
9 -> 11 ;
12 [label="squared_error = 0.0\nsamples = 2\nvalue = 1.0"] ;
8 -> 12 ;
13 [label="Months <= 33.5\nsquared_error = 0.1\nsamples = 138\nvalue = 0.1"] ;
3 -> 13 ;
14 [label="Months <= 6.5\nsquared_error = 0.1\nsamples = 97\nvalue = 0.1"] ;
13 -> 14 ;
15 [label="Months <= 5.5\nsquared_error = 0.1\nsamples = 15\nvalue = 0.2"] ;
14 -> 15 ;
16 [label="squared_error = 0.0\nsamples = 9\nvalue = 0.0"] ;
15 -> 16 ;
17 [label="EFraction <= 0.0\nsquared_error = 0.2\nsamples = 6\nvalue = 0.4"] ;
15 -> 17 ;
18 [label="EFraction <= 0.0\nsquared_error = 0.2\nsamples = 4\nvalue = 0.6"] ;
17 -> 18 ;
19 [label="EFraction <= 0.0\nsquared_error = 0.2\nsamples = 3\nvalue = 0.3"] ;
18 -> 19 ;
20 [label="squared_error = 0.0\nsamples = 1\nvalue = 1.0"] ;
19 -> 20 ;
21 [label="squared_error = 0.0\nsamples = 2\nvalue = 0.0"] ;
19 -> 21 ;
22 [label="squared_error = 0.0\nsamples = 1\nvalue = 1.0"] ;
18 -> 22 ;
23 [label="squared_error = 0.0\nsamples = 2\nvalue = 0.0"] ;
17 -> 23 ;
24 [label="Months <= 23.5\nsquared_error = 0.0\nsamples = 82\nvalue = 0.0"] ;
14 -> 24 ;
25 [label="Months <= 22.5\nsquared_error = 0.1\nsamples = 58\nvalue = 0.1"] ;
24 -> 25 ;
26 [label="Gender <= 1.5\nsquared_error = 0.0\nsamples = 54\nvalue = 0.0"] ;
25 -> 26 ;
27 [label="EFraction <= 0.1\nsquared_error = 0.1\nsamples = 18\nvalue = 0.1"] ;
26 -> 27 ;
28 [label="Months <= 17.0\nsquared_error = 0.1\nsamples = 11\nvalue = 0.2"] ;
27 -> 28 ;
29 [label="EFraction <= 0.0\nsquared_error = 0.2\nsamples = 8\nvalue = 0.2"] ;
28 -> 29 ;
30 [label="squared_error = 0.0\nsamples = 3\nvalue = 0.0"] ;
29 -> 30 ;
31 [label="Months <= 13.5\nsquared_error = 0.2\nsamples = 5\nvalue = 0.4"] ;
29 -> 31 ;
32 [label="EFraction <= 0.0\nsquared_error = 0.2\nsamples = 4\nvalue = 0.2"] ;
31 -> 32 ;
33 [label="squared_error = 0.0\nsamples = 2\nvalue = 0.0"] ;
32 -> 33 ;
34 [label="Months <= 10.0\nsquared_error = 0.2\nsamples = 2\nvalue = 0.5"] ;
32 -> 34 ;
35 [label="squared_error = 0.0\nsamples = 1\nvalue = 1.0"] ;
34 -> 35 ;
36 [label="squared_error = 0.0\nsamples = 1\nvalue = 0.0"] ;
34 -> 36 ;
37 [label="squared_error = 0.0\nsamples = 1\nvalue = 1.0"] ;
31 -> 37 ;
38 [label="squared_error = 0.0\nsamples = 3\nvalue = 0.0"] ;
28 -> 38 ;
39 [label="squared_error = 0.0\nsamples = 7\nvalue = 0.0"] ;
27 -> 39 ;
40 [label="EFraction <= 0.1\nsquared_error = 0.0\nsamples = 36\nvalue = 0.0"] ;
26 -> 40 ;
41 [label="squared_error = 0.0\nsamples = 31\nvalue = 0.0"] ;
40 -> 41 ;
42 [label="EFraction <= 0.1\nsquared_error = 0.1\nsamples = 5\nvalue = 0.2"] ;
40 -> 42 ;
43 [label="squared_error = 0.0\nsamples = 1\nvalue = 1.0"] ;
42 -> 43 ;
44 [label="squared_error = 0.0\nsamples = 4\nvalue = 0.0"] ;
42 -> 44 ;
45 [label="Gender <= 1.0\nsquared_error = 0.2\nsamples = 4\nvalue = 0.3"] ;
25 -> 45 ;
46 [label="squared_error = 0.0\nsamples = 2\nvalue = 0.0"] ;
45 -> 46 ;
47 [label="EFraction <= 0.1\nsquared_error = 0.2\nsamples = 2\nvalue = 0.7"] ;
45 -> 47 ;
48 [label="squared_error = 0.0\nsamples = 1\nvalue = 0.0"] ;
47 -> 48 ;
49 [label="squared_error = 0.0\nsamples = 1\nvalue = 1.0"] ;
47 -> 49 ;
50 [label="squared_error = 0.0\nsamples = 24\nvalue = 0.0"] ;
24 -> 50 ;
51 [label="Months <= 34.5\nsquared_error = 0.1\nsamples = 41\nvalue = 0.1"] ;
13 -> 51 ;
52 [label="EFraction <= 0.1\nsquared_error = 0.2\nsamples = 2\nvalue = 0.7"] ;
51 -> 52 ;
53 [label="squared_error = 0.0\nsamples = 1\nvalue = 0.0"] ;
52 -> 53 ;
54 [label="squared_error = 0.0\nsamples = 1\nvalue = 1.0"] ;
52 -> 54 ;
55 [label="EFraction <= 0.0\nsquared_error = 0.1\nsamples = 39\nvalue = 0.1"] ;
51 -> 55 ;
56 [label="squared_error = 0.0\nsamples = 7\nvalue = 0.0"] ;
55 -> 56 ;
57 [label="Months <= 36.5\nsquared_error = 0.1\nsamples = 32\nvalue = 0.1"] ;
55 -> 57 ;
58 [label="EFraction <= 0.1\nsquared_error = 0.2\nsamples = 3\nvalue = 0.7"] ;
57 -> 58 ;
59 [label="squared_error = 0.0\nsamples = 1\nvalue = 0.0"] ;
58 -> 59 ;
60 [label="squared_error = 0.0\nsamples = 2\nvalue = 1.0"] ;
58 -> 60 ;
61 [label="EFraction <= 0.0\nsquared_error = 0.1\nsamples = 29\nvalue = 0.1"] ;
57 -> 61 ;
62 [label="squared_error = 0.0\nsamples = 1\nvalue = 1.0"] ;
61 -> 62 ;
63 [label="Gender <= 1.5\nsquared_error = 0.1\nsamples = 28\nvalue = 0.1"] ;
61 -> 63 ;
64 [label="squared_error = 0.0\nsamples = 10\nvalue = 0.0"] ;
63 -> 64 ;
65 [label="Months <= 55.0\nsquared_error = 0.1\nsamples = 18\nvalue = 0.1"] ;
63 -> 65 ;
66 [label="EFraction <= 0.1\nsquared_error = 0.1\nsamples = 11\nvalue = 0.1"] ;
65 -> 66 ;
67 [label="EFraction <= 0.0\nsquared_error = 0.2\nsamples = 2\nvalue = 0.5"] ;
66 -> 67 ;
68 [label="squared_error = 0.0\nsamples = 1\nvalue = 0.0"] ;
67 -> 68 ;
69 [label="squared_error = 0.0\nsamples = 1\nvalue = 1.0"] ;
67 -> 69 ;
70 [label="squared_error = 0.0\nsamples = 9\nvalue = 0.0"] ;
66 -> 70 ;
71 [label="Months <= 59.5\nsquared_error = 0.2\nsamples = 7\nvalue = 0.3"] ;
65 -> 71 ;
72 [label="squared_error = 0.0\nsamples = 1\nvalue = 1.0"] ;
71 -> 72 ;
73 [label="EFraction <= 0.1\nsquared_error = 0.1\nsamples = 6\nvalue = 0.1"] ;
71 -> 73 ;
74 [label="squared_error = 0.0\nsamples = 5\nvalue = 0.0"] ;
73 -> 74 ;
75 [label="squared_error = 0.0\nsamples = 1\nvalue = 1.0"] ;
73 -> 75 ;
76 [label="Months <= 24.0\nsquared_error = 0.2\nsamples = 18\nvalue = 0.4"] ;
2 -> 76 ;
77 [label="Gender <= 1.5\nsquared_error = 0.1\nsamples = 7\nvalue = 0.1"] ;
76 -> 77 ;
78 [label="squared_error = 0.0\nsamples = 5\nvalue = 0.0"] ;
77 -> 78 ;
79 [label="Intervention <= 8.5\nsquared_error = 0.2\nsamples = 2\nvalue = 0.5"] ;
77 -> 79 ;
80 [label="squared_error = 0.0\nsamples = 1\nvalue = 0.0"] ;
79 -> 80 ;
81 [label="squared_error = 0.0\nsamples = 1\nvalue = 1.0"] ;
79 -> 81 ;
82 [label="Months <= 41.5\nsquared_error = 0.2\nsamples = 11\nvalue = 0.7"] ;
76 -> 82 ;
83 [label="Months <= 34.5\nsquared_error = 0.2\nsamples = 6\nvalue = 0.5"] ;
82 -> 83 ;
84 [label="Age_Type <= 2.0\nsquared_error = 0.2\nsamples = 4\nvalue = 0.7"] ;
83 -> 84 ;
85 [label="squared_error = 0.0\nsamples = 1\nvalue = 0.0"] ;
84 -> 85 ;
86 [label="EFraction <= 0.1\nsquared_error = 0.2\nsamples = 3\nvalue = 0.8"] ;
84 -> 86 ;
87 [label="squared_error = 0.0\nsamples = 1\nvalue = 1.0"] ;
86 -> 87 ;
88 [label="Months <= 29.5\nsquared_error = 0.2\nsamples = 2\nvalue = 0.7"] ;
86 -> 88 ;
89 [label="squared_error = 0.0\nsamples = 1\nvalue = 0.0"] ;
88 -> 89 ;
90 [label="squared_error = 0.0\nsamples = 1\nvalue = 1.0"] ;
88 -> 90 ;
91 [label="squared_error = 0.0\nsamples = 2\nvalue = 0.0"] ;
83 -> 91 ;
92 [label="EFraction <= 0.1\nsquared_error = 0.1\nsamples = 5\nvalue = 0.9"] ;
82 -> 92 ;
93 [label="squared_error = 0.0\nsamples = 3\nvalue = 1.0"] ;
92 -> 93 ;
94 [label="Months <= 52.5\nsquared_error = 0.2\nsamples = 2\nvalue = 0.5"] ;
92 -> 94 ;
95 [label="squared_error = 0.0\nsamples = 1\nvalue = 1.0"] ;
94 -> 95 ;
96 [label="squared_error = 0.0\nsamples = 1\nvalue = 0.0"] ;
94 -> 96 ;
97 [label="Intervention <= 4.5\nsquared_error = 0.2\nsamples = 298\nvalue = 0.3"] ;
1 -> 97 ;
98 [label="EFraction <= 0.2\nsquared_error = 0.2\nsamples = 246\nvalue = 0.3"] ;
97 -> 98 ;
99 [label="EFraction <= 0.1\nsquared_error = 0.2\nsamples = 169\nvalue = 0.2"] ;
98 -> 99 ;
100 [label="EFraction <= 0.1\nsquared_error = 0.2\nsamples = 25\nvalue = 0.5"] ;
99 -> 100 ;
101 [label="EFraction <= 0.1\nsquared_error = 0.2\nsamples = 22\nvalue = 0.4"] ;
100 -> 101 ;
102 [label="EFraction <= 0.1\nsquared_error = 0.2\nsamples = 18\nvalue = 0.5"] ;
101 -> 102 ;
103 [label="Months <= 11.5\nsquared_error = 0.2\nsamples = 15\nvalue = 0.4"] ;
102 -> 103 ;
104 [label="Intervention <= 1.0\nsquared_error = 0.2\nsamples = 3\nvalue = 0.8"] ;
103 -> 104 ;
105 [label="squared_error = 0.0\nsamples = 1\nvalue = 1.0"] ;
104 -> 105 ;
106 [label="Months <= 7.5\nsquared_error = 0.2\nsamples = 2\nvalue = 0.5"] ;
104 -> 106 ;
107 [label="squared_error = 0.0\nsamples = 1\nvalue = 1.0"] ;
106 -> 107 ;
108 [label="squared_error = 0.0\nsamples = 1\nvalue = 0.0"] ;
106 -> 108 ;
109 [label="Months <= 28.0\nsquared_error = 0.2\nsamples = 12\nvalue = 0.3"] ;
103 -> 109 ;
110 [label="squared_error = 0.0\nsamples = 4\nvalue = 0.0"] ;
109 -> 110 ;
111 [label="Intervention <= 0.5\nsquared_error = 0.2\nsamples = 8\nvalue = 0.6"] ;
109 -> 111 ;
112 [label="Months <= 60.0\nsquared_error = 0.2\nsamples = 6\nvalue = 0.7"] ;
111 -> 112 ;
113 [label="squared_error = 0.0\nsamples = 3\nvalue = 1.0"] ;
112 -> 113 ;
114 [label="Age_Type <= 4.0\nsquared_error = 0.2\nsamples = 3\nvalue = 0.3"] ;
112 -> 114 ;
115 [label="squared_error = 0.0\nsamples = 2\nvalue = 0.0"] ;
114 -> 115 ;
116 [label="squared_error = 0.0\nsamples = 1\nvalue = 1.0"] ;
114 -> 116 ;
117 [label="squared_error = 0.0\nsamples = 2\nvalue = 0.0"] ;
111 -> 117 ;
118 [label="Months <= 39.5\nsquared_error = 0.2\nsamples = 3\nvalue = 0.8"] ;
102 -> 118 ;
119 [label="squared_error = 0.0\nsamples = 2\nvalue = 1.0"] ;
118 -> 119 ;
120 [label="squared_error = 0.0\nsamples = 1\nvalue = 0.0"] ;
118 -> 120 ;
121 [label="squared_error = 0.0\nsamples = 4\nvalue = 0.0"] ;
101 -> 121 ;
122 [label="Months <= 55.5\nsquared_error = 0.1\nsamples = 3\nvalue = 0.9"] ;
100 -> 122 ;
123 [label="squared_error = 0.0\nsamples = 2\nvalue = 1.0"] ;
122 -> 123 ;
124 [label="squared_error = 0.0\nsamples = 1\nvalue = 0.0"] ;
122 -> 124 ;
125 [label="Months <= 80.5\nsquared_error = 0.2\nsamples = 144\nvalue = 0.2"] ;
99 -> 125 ;
126 [label="EFraction <= 0.2\nsquared_error = 0.1\nsamples = 131\nvalue = 0.2"] ;
125 -> 126 ;
127 [label="EFraction <= 0.2\nsquared_error = 0.2\nsamples = 112\nvalue = 0.2"] ;
126 -> 127 ;
128 [label="EFraction <= 0.1\nsquared_error = 0.1\nsamples = 106\nvalue = 0.2"] ;
127 -> 128 ;
129 [label="Months <= 42.0\nsquared_error = 0.0\nsamples = 19\nvalue = 0.0"] ;
128 -> 129 ;
130 [label="squared_error = 0.0\nsamples = 15\nvalue = 0.0"] ;
129 -> 130 ;
131 [label="Months <= 60.0\nsquared_error = 0.2\nsamples = 4\nvalue = 0.2"] ;
129 -> 131 ;
132 [label="Intervention <= 0.5\nsquared_error = 0.2\nsamples = 2\nvalue = 0.5"] ;
131 -> 132 ;
133 [label="squared_error = 0.0\nsamples = 1\nvalue = 1.0"] ;
132 -> 133 ;
134 [label="squared_error = 0.0\nsamples = 1\nvalue = 0.0"] ;
132 -> 134 ;
135 [label="squared_error = 0.0\nsamples = 2\nvalue = 0.0"] ;
131 -> 135 ;
136 [label="EFraction <= 0.1\nsquared_error = 0.2\nsamples = 87\nvalue = 0.2"] ;
128 -> 136 ;
137 [label="Age_Type <= 3.5\nsquared_error = 0.2\nsamples = 9\nvalue = 0.7"] ;
136 -> 137 ;
138 [label="Months <= 42.5\nsquared_error = 0.2\nsamples = 8\nvalue = 0.8"] ;
137 -> 138 ;
139 [label="Months <= 19.0\nsquared_error = 0.1\nsamples = 7\nvalue = 0.9"] ;
138 -> 139 ;
140 [label="EFraction <= 0.1\nsquared_error = 0.2\nsamples = 2\nvalue = 0.7"] ;
139 -> 140 ;
141 [label="squared_error = 0.0\nsamples = 1\nvalue = 0.0"] ;
140 -> 141 ;
142 [label="squared_error = 0.0\nsamples = 1\nvalue = 1.0"] ;
140 -> 142 ;
143 [label="squared_error = 0.0\nsamples = 5\nvalue = 1.0"] ;
139 -> 143 ;
144 [label="squared_error = 0.0\nsamples = 1\nvalue = 0.0"] ;
138 -> 144 ;
145 [label="squared_error = 0.0\nsamples = 1\nvalue = 0.0"] ;
137 -> 145 ;
146 [label="Age_Type <= 2.5\nsquared_error = 0.1\nsamples = 78\nvalue = 0.2"] ;
136 -> 146 ;
147 [label="squared_error = 0.0\nsamples = 1\nvalue = 1.0"] ;
146 -> 147 ;
148 [label="EFraction <= 0.2\nsquared_error = 0.1\nsamples = 77\nvalue = 0.2"] ;
146 -> 148 ;
149 [label="squared_error = 0.0\nsamples = 14\nvalue = 0.0"] ;
148 -> 149 ;
150 [label="EFraction <= 0.2\nsquared_error = 0.2\nsamples = 63\nvalue = 0.2"] ;
148 -> 150 ;
151 [label="Gender <= 1.5\nsquared_error = 0.2\nsamples = 17\nvalue = 0.4"] ;
150 -> 151 ;
152 [label="Months <= 32.0\nsquared_error = 0.2\nsamples = 7\nvalue = 0.7"] ;
151 -> 152 ;
153 [label="squared_error = 0.0\nsamples = 3\nvalue = 1.0"] ;
152 -> 153 ;
154 [label="Months <= 39.0\nsquared_error = 0.2\nsamples = 4\nvalue = 0.4"] ;
152 -> 154 ;
155 [label="squared_error = 0.0\nsamples = 1\nvalue = 0.0"] ;
154 -> 155 ;
156 [label="EFraction <= 0.2\nsquared_error = 0.2\nsamples = 3\nvalue = 0.8"] ;
154 -> 156 ;
157 [label="squared_error = 0.0\nsamples = 1\nvalue = 1.0"] ;
156 -> 157 ;
158 [label="Months <= 56.5\nsquared_error = 0.2\nsamples = 2\nvalue = 0.5"] ;
156 -> 158 ;
159 [label="squared_error = 0.0\nsamples = 1\nvalue = 0.0"] ;
158 -> 159 ;
160 [label="squared_error = 0.0\nsamples = 1\nvalue = 1.0"] ;
158 -> 160 ;
161 [label="Intervention <= 0.5\nsquared_error = 0.2\nsamples = 10\nvalue = 0.2"] ;
151 -> 161 ;
162 [label="EFraction <= 0.2\nsquared_error = 0.1\nsamples = 9\nvalue = 0.1"] ;
161 -> 162 ;
163 [label="squared_error = 0.0\nsamples = 5\nvalue = 0.0"] ;
162 -> 163 ;
164 [label="EFraction <= 0.2\nsquared_error = 0.2\nsamples = 4\nvalue = 0.2"] ;
162 -> 164 ;
165 [label="squared_error = 0.0\nsamples = 1\nvalue = 1.0"] ;
164 -> 165 ;
166 [label="squared_error = 0.0\nsamples = 3\nvalue = 0.0"] ;
164 -> 166 ;
167 [label="squared_error = 0.0\nsamples = 1\nvalue = 1.0"] ;
161 -> 167 ;
168 [label="Months <= 9.5\nsquared_error = 0.1\nsamples = 46\nvalue = 0.1"] ;
150 -> 168 ;
169 [label="Months <= 8.0\nsquared_error = 0.2\nsamples = 3\nvalue = 0.3"] ;
168 -> 169 ;
170 [label="squared_error = 0.0\nsamples = 2\nvalue = 0.0"] ;
169 -> 170 ;
171 [label="squared_error = 0.0\nsamples = 1\nvalue = 1.0"] ;
169 -> 171 ;
172 [label="Months <= 17.0\nsquared_error = 0.1\nsamples = 43\nvalue = 0.1"] ;
168 -> 172 ;
173 [label="squared_error = 0.0\nsamples = 7\nvalue = 0.0"] ;
172 -> 173 ;
174 [label="Months <= 18.5\nsquared_error = 0.1\nsamples = 36\nvalue = 0.1"] ;
172 -> 174 ;
175 [label="Gender <= 1.0\nsquared_error = 0.2\nsamples = 2\nvalue = 0.5"] ;
174 -> 175 ;
176 [label="squared_error = 0.0\nsamples = 1\nvalue = 0.0"] ;
175 -> 176 ;
177 [label="squared_error = 0.0\nsamples = 1\nvalue = 1.0"] ;
175 -> 177 ;
178 [label="EFraction <= 0.2\nsquared_error = 0.1\nsamples = 34\nvalue = 0.1"] ;
174 -> 178 ;
179 [label="Age_Type <= 3.5\nsquared_error = 0.2\nsamples = 16\nvalue = 0.2"] ;
178 -> 179 ;
180 [label="Months <= 57.0\nsquared_error = 0.1\nsamples = 15\nvalue = 0.2"] ;
179 -> 180 ;
181 [label="EFraction <= 0.2\nsquared_error = 0.1\nsamples = 14\nvalue = 0.1"] ;
180 -> 181 ;
182 [label="squared_error = 0.0\nsamples = 8\nvalue = 0.0"] ;
181 -> 182 ;
183 [label="EFraction <= 0.2\nsquared_error = 0.2\nsamples = 6\nvalue = 0.3"] ;
181 -> 183 ;
184 [label="squared_error = 0.0\nsamples = 1\nvalue = 1.0"] ;
183 -> 184 ;
185 [label="Months <= 24.5\nsquared_error = 0.1\nsamples = 5\nvalue = 0.2"] ;
183 -> 185 ;
186 [label="squared_error = 0.0\nsamples = 2\nvalue = 0.0"] ;
185 -> 186 ;
187 [label="Gender <= 1.0\nsquared_error = 0.2\nsamples = 3\nvalue = 0.3"] ;
185 -> 187 ;
188 [label="squared_error = 0.0\nsamples = 1\nvalue = 0.0"] ;
187 -> 188 ;
189 [label="EFraction <= 0.2\nsquared_error = 0.2\nsamples = 2\nvalue = 0.5"] ;
187 -> 189 ;
190 [label="squared_error = 0.0\nsamples = 1\nvalue = 0.0"] ;
189 -> 190 ;
191 [label="squared_error = 0.0\nsamples = 1\nvalue = 1.0"] ;
189 -> 191 ;
192 [label="squared_error = 0.0\nsamples = 1\nvalue = 1.0"] ;
180 -> 192 ;
193 [label="squared_error = 0.0\nsamples = 1\nvalue = 1.0"] ;
179 -> 193 ;
194 [label="Months <= 49.5\nsquared_error = 0.0\nsamples = 18\nvalue = 0.0"] ;
178 -> 194 ;
195 [label="Months <= 45.5\nsquared_error = 0.1\nsamples = 11\nvalue = 0.1"] ;
194 -> 195 ;
196 [label="squared_error = 0.0\nsamples = 9\nvalue = 0.0"] ;
195 -> 196 ;
197 [label="EFraction <= 0.2\nsquared_error = 0.2\nsamples = 2\nvalue = 0.5"] ;
195 -> 197 ;
198 [label="squared_error = 0.0\nsamples = 1\nvalue = 0.0"] ;
197 -> 198 ;
199 [label="squared_error = 0.0\nsamples = 1\nvalue = 1.0"] ;
197 -> 199 ;
200 [label="squared_error = 0.0\nsamples = 7\nvalue = 0.0"] ;
194 -> 200 ;
201 [label="Intervention <= 1.5\nsquared_error = 0.1\nsamples = 6\nvalue = 0.8"] ;
127 -> 201 ;
202 [label="squared_error = 0.0\nsamples = 5\nvalue = 1.0"] ;
201 -> 202 ;
203 [label="squared_error = 0.0\nsamples = 1\nvalue = 0.0"] ;
201 -> 203 ;
204 [label="Gender <= 0.5\nsquared_error = 0.0\nsamples = 19\nvalue = 0.0"] ;
126 -> 204 ;
205 [label="Months <= 19.5\nsquared_error = 0.1\nsamples = 6\nvalue = 0.1"] ;
204 -> 205 ;
206 [label="Intervention <= 0.5\nsquared_error = 0.2\nsamples = 2\nvalue = 0.3"] ;
205 -> 206 ;
207 [label="squared_error = 0.0\nsamples = 1\nvalue = 1.0"] ;
206 -> 207 ;
208 [label="squared_error = 0.0\nsamples = 1\nvalue = 0.0"] ;
206 -> 208 ;
209 [label="squared_error = 0.0\nsamples = 4\nvalue = 0.0"] ;
205 -> 209 ;
210 [label="squared_error = 0.0\nsamples = 13\nvalue = 0.0"] ;
204 -> 210 ;
211 [label="EFraction <= 0.2\nsquared_error = 0.2\nsamples = 13\nvalue = 0.5"] ;
125 -> 211 ;
212 [label="Gender <= 0.5\nsquared_error = 0.2\nsamples = 8\nvalue = 0.3"] ;
211 -> 212 ;
213 [label="squared_error = 0.0\nsamples = 2\nvalue = 0.0"] ;
212 -> 213 ;
214 [label="Gender <= 1.5\nsquared_error = 0.2\nsamples = 6\nvalue = 0.4"] ;
212 -> 214 ;
215 [label="squared_error = 0.0\nsamples = 1\nvalue = 1.0"] ;
214 -> 215 ;
216 [label="Intervention <= 0.5\nsquared_error = 0.2\nsamples = 5\nvalue = 0.3"] ;
214 -> 216 ;
217 [label="Months <= 122.0\nsquared_error = 0.1\nsamples = 4\nvalue = 0.2"] ;
216 -> 217 ;
218 [label="squared_error = 0.0\nsamples = 3\nvalue = 0.0"] ;
217 -> 218 ;
219 [label="squared_error = 0.0\nsamples = 1\nvalue = 1.0"] ;
217 -> 219 ;
220 [label="squared_error = 0.0\nsamples = 1\nvalue = 1.0"] ;
216 -> 220 ;
221 [label="Months <= 94.0\nsquared_error = 0.1\nsamples = 5\nvalue = 0.9"] ;
211 -> 221 ;
222 [label="Intervention <= 0.5\nsquared_error = 0.2\nsamples = 3\nvalue = 0.8"] ;
221 -> 222 ;
223 [label="squared_error = 0.0\nsamples = 1\nvalue = 0.0"] ;
222 -> 223 ;
224 [label="squared_error = 0.0\nsamples = 2\nvalue = 1.0"] ;
222 -> 224 ;
225 [label="squared_error = 0.0\nsamples = 2\nvalue = 1.0"] ;
221 -> 225 ;
226 [label="Months <= 18.5\nsquared_error = 0.2\nsamples = 77\nvalue = 0.4"] ;
98 -> 226 ;
227 [label="Months <= 8.5\nsquared_error = 0.1\nsamples = 12\nvalue = 0.1"] ;
226 -> 227 ;
228 [label="squared_error = 0.0\nsamples = 1\nvalue = 1.0"] ;
227 -> 228 ;
229 [label="EFraction <= 0.3\nsquared_error = 0.1\nsamples = 11\nvalue = 0.1"] ;
227 -> 229 ;
230 [label="Intervention <= 0.5\nsquared_error = 0.2\nsamples = 4\nvalue = 0.3"] ;
229 -> 230 ;
231 [label="EFraction <= 0.2\nsquared_error = 0.1\nsamples = 3\nvalue = 0.2"] ;
230 -> 231 ;
232 [label="Months <= 11.0\nsquared_error = 0.2\nsamples = 2\nvalue = 0.3"] ;
231 -> 232 ;
233 [label="squared_error = 0.0\nsamples = 1\nvalue = 0.0"] ;
232 -> 233 ;
234 [label="squared_error = 0.0\nsamples = 1\nvalue = 1.0"] ;
232 -> 234 ;
235 [label="squared_error = 0.0\nsamples = 1\nvalue = 0.0"] ;
231 -> 235 ;
236 [label="squared_error = 0.0\nsamples = 1\nvalue = 1.0"] ;
230 -> 236 ;
237 [label="squared_error = 0.0\nsamples = 7\nvalue = 0.0"] ;
229 -> 237 ;
238 [label="Intervention <= 1.5\nsquared_error = 0.2\nsamples = 65\nvalue = 0.5"] ;
226 -> 238 ;
239 [label="Months <= 84.0\nsquared_error = 0.2\nsamples = 58\nvalue = 0.5"] ;
238 -> 239 ;
240 [label="Months <= 47.0\nsquared_error = 0.2\nsamples = 50\nvalue = 0.5"] ;
239 -> 240 ;
241 [label="Gender <= 0.5\nsquared_error = 0.2\nsamples = 33\nvalue = 0.6"] ;
240 -> 241 ;
242 [label="Months <= 29.5\nsquared_error = 0.1\nsamples = 9\nvalue = 0.9"] ;
241 -> 242 ;
243 [label="squared_error = 0.0\nsamples = 4\nvalue = 1.0"] ;
242 -> 243 ;
244 [label="Months <= 32.0\nsquared_error = 0.1\nsamples = 5\nvalue = 0.8"] ;
242 -> 244 ;
245 [label="squared_error = 0.0\nsamples = 1\nvalue = 0.0"] ;
244 -> 245 ;
246 [label="squared_error = 0.0\nsamples = 4\nvalue = 1.0"] ;
244 -> 246 ;
247 [label="EFraction <= 0.3\nsquared_error = 0.2\nsamples = 24\nvalue = 0.5"] ;
241 -> 247 ;
248 [label="Months <= 34.5\nsquared_error = 0.2\nsamples = 15\nvalue = 0.3"] ;
247 -> 248 ;
249 [label="EFraction <= 0.3\nsquared_error = 0.2\nsamples = 10\nvalue = 0.2"] ;
248 -> 249 ;
250 [label="squared_error = 0.0\nsamples = 5\nvalue = 0.0"] ;
249 -> 250 ;
251 [label="Months <= 23.0\nsquared_error = 0.2\nsamples = 5\nvalue = 0.5"] ;
249 -> 251 ;
252 [label="squared_error = 0.0\nsamples = 1\nvalue = 1.0"] ;
251 -> 252 ;
253 [label="EFraction <= 0.3\nsquared_error = 0.2\nsamples = 4\nvalue = 0.2"] ;
251 -> 253 ;
254 [label="squared_error = 0.0\nsamples = 1\nvalue = 1.0"] ;
253 -> 254 ;
255 [label="squared_error = 0.0\nsamples = 3\nvalue = 0.0"] ;
253 -> 255 ;
256 [label="EFraction <= 0.3\nsquared_error = 0.2\nsamples = 5\nvalue = 0.6"] ;
248 -> 256 ;
257 [label="squared_error = 0.0\nsamples = 3\nvalue = 1.0"] ;
256 -> 257 ;
258 [label="squared_error = 0.0\nsamples = 2\nvalue = 0.0"] ;
256 -> 258 ;
259 [label="EFraction <= 0.3\nsquared_error = 0.2\nsamples = 9\nvalue = 0.8"] ;
247 -> 259 ;
260 [label="squared_error = 0.0\nsamples = 3\nvalue = 1.0"] ;
259 -> 260 ;
261 [label="Months <= 35.5\nsquared_error = 0.2\nsamples = 6\nvalue = 0.6"] ;
259 -> 261 ;
262 [label="EFraction <= 0.3\nsquared_error = 0.2\nsamples = 4\nvalue = 0.4"] ;
261 -> 262 ;
263 [label="squared_error = 0.0\nsamples = 1\nvalue = 0.0"] ;
262 -> 263 ;
264 [label="Months <= 30.5\nsquared_error = 0.2\nsamples = 3\nvalue = 0.7"] ;
262 -> 264 ;
265 [label="squared_error = 0.0\nsamples = 2\nvalue = 1.0"] ;
264 -> 265 ;
266 [label="squared_error = 0.0\nsamples = 1\nvalue = 0.0"] ;
264 -> 266 ;
267 [label="squared_error = 0.0\nsamples = 2\nvalue = 1.0"] ;
261 -> 267 ;
268 [label="Intervention <= 0.5\nsquared_error = 0.2\nsamples = 17\nvalue = 0.3"] ;
240 -> 268 ;
269 [label="EFraction <= 0.3\nsquared_error = 0.2\nsamples = 15\nvalue = 0.2"] ;
268 -> 269 ;
270 [label="Months <= 64.0\nsquared_error = 0.2\nsamples = 2\nvalue = 0.7"] ;
269 -> 270 ;
271 [label="squared_error = 0.0\nsamples = 1\nvalue = 1.0"] ;
270 -> 271 ;
272 [label="squared_error = 0.0\nsamples = 1\nvalue = 0.0"] ;
270 -> 272 ;
273 [label="Months <= 68.5\nsquared_error = 0.1\nsamples = 13\nvalue = 0.1"] ;
269 -> 273 ;
274 [label="EFraction <= 0.3\nsquared_error = 0.1\nsamples = 10\nvalue = 0.1"] ;
273 -> 274 ;
275 [label="squared_error = 0.0\nsamples = 8\nvalue = 0.0"] ;
274 -> 275 ;
276 [label="Gender <= 0.5\nsquared_error = 0.2\nsamples = 2\nvalue = 0.3"] ;
274 -> 276 ;
277 [label="squared_error = 0.0\nsamples = 1\nvalue = 1.0"] ;
276 -> 277 ;
278 [label="squared_error = 0.0\nsamples = 1\nvalue = 0.0"] ;
276 -> 278 ;
279 [label="Months <= 71.5\nsquared_error = 0.2\nsamples = 3\nvalue = 0.3"] ;
273 -> 279 ;
280 [label="squared_error = 0.0\nsamples = 1\nvalue = 1.0"] ;
279 -> 280 ;
281 [label="squared_error = 0.0\nsamples = 2\nvalue = 0.0"] ;
279 -> 281 ;
282 [label="squared_error = 0.0\nsamples = 2\nvalue = 1.0"] ;
268 -> 282 ;
283 [label="Gender <= 0.5\nsquared_error = 0.2\nsamples = 8\nvalue = 0.8"] ;
239 -> 283 ;
284 [label="squared_error = 0.0\nsamples = 1\nvalue = 0.0"] ;
283 -> 284 ;
285 [label="Months <= 94.5\nsquared_error = 0.1\nsamples = 7\nvalue = 0.9"] ;
283 -> 285 ;
286 [label="squared_error = 0.0\nsamples = 4\nvalue = 1.0"] ;
285 -> 286 ;
287 [label="Months <= 98.5\nsquared_error = 0.2\nsamples = 3\nvalue = 0.8"] ;
285 -> 287 ;
288 [label="squared_error = 0.0\nsamples = 1\nvalue = 0.0"] ;
287 -> 288 ;
289 [label="squared_error = 0.0\nsamples = 2\nvalue = 1.0"] ;
287 -> 289 ;
290 [label="Age_Type <= 2.5\nsquared_error = 0.1\nsamples = 7\nvalue = 0.2"] ;
238 -> 290 ;
291 [label="squared_error = 0.0\nsamples = 1\nvalue = 1.0"] ;
290 -> 291 ;
292 [label="squared_error = 0.0\nsamples = 6\nvalue = 0.0"] ;
290 -> 292 ;
293 [label="Intervention <= 9.5\nsquared_error = 0.2\nsamples = 52\nvalue = 0.6"] ;
97 -> 293 ;
294 [label="Intervention <= 5.5\nsquared_error = 0.2\nsamples = 37\nvalue = 0.6"] ;
293 -> 294 ;
295 [label="Gender <= 0.5\nsquared_error = 0.2\nsamples = 20\nvalue = 0.5"] ;
294 -> 295 ;
296 [label="squared_error = 0.0\nsamples = 4\nvalue = 0.0"] ;
295 -> 296 ;
297 [label="Months <= 36.5\nsquared_error = 0.2\nsamples = 16\nvalue = 0.6"] ;
295 -> 297 ;
298 [label="EFraction <= 0.1\nsquared_error = 0.2\nsamples = 10\nvalue = 0.4"] ;
297 -> 298 ;
299 [label="squared_error = 0.0\nsamples = 2\nvalue = 1.0"] ;
298 -> 299 ;
300 [label="EFraction <= 0.2\nsquared_error = 0.2\nsamples = 8\nvalue = 0.2"] ;
298 -> 300 ;
301 [label="squared_error = 0.0\nsamples = 6\nvalue = 0.0"] ;
300 -> 301 ;
302 [label="squared_error = 0.0\nsamples = 2\nvalue = 1.0"] ;
300 -> 302 ;
303 [label="squared_error = 0.0\nsamples = 6\nvalue = 1.0"] ;
297 -> 303 ;
304 [label="EFraction <= 0.2\nsquared_error = 0.2\nsamples = 17\nvalue = 0.8"] ;
294 -> 304 ;
305 [label="squared_error = 0.0\nsamples = 5\nvalue = 1.0"] ;
304 -> 305 ;
306 [label="EFraction <= 0.2\nsquared_error = 0.2\nsamples = 12\nvalue = 0.7"] ;
304 -> 306 ;
307 [label="squared_error = 0.0\nsamples = 2\nvalue = 0.0"] ;
306 -> 307 ;
308 [label="Months <= 42.5\nsquared_error = 0.2\nsamples = 10\nvalue = 0.8"] ;
306 -> 308 ;
309 [label="EFraction <= 0.3\nsquared_error = 0.2\nsamples = 8\nvalue = 0.7"] ;
308 -> 309 ;
310 [label="Months <= 34.0\nsquared_error = 0.1\nsamples = 6\nvalue = 0.9"] ;
309 -> 310 ;
311 [label="squared_error = 0.0\nsamples = 4\nvalue = 1.0"] ;
310 -> 311 ;
312 [label="Months <= 36.5\nsquared_error = 0.2\nsamples = 2\nvalue = 0.5"] ;
310 -> 312 ;
313 [label="squared_error = 0.0\nsamples = 1\nvalue = 0.0"] ;
312 -> 313 ;
314 [label="squared_error = 0.0\nsamples = 1\nvalue = 1.0"] ;
312 -> 314 ;
315 [label="squared_error = 0.0\nsamples = 2\nvalue = 0.0"] ;
309 -> 315 ;
316 [label="squared_error = 0.0\nsamples = 2\nvalue = 1.0"] ;
308 -> 316 ;
317 [label="Months <= 14.5\nsquared_error = 0.2\nsamples = 15\nvalue = 0.3"] ;
293 -> 317 ;
318 [label="squared_error = 0.0\nsamples = 1\nvalue = 1.0"] ;
317 -> 318 ;
319 [label="Months <= 76.0\nsquared_error = 0.2\nsamples = 14\nvalue = 0.2"] ;
317 -> 319 ;
320 [label="Months <= 29.5\nsquared_error = 0.1\nsamples = 13\nvalue = 0.1"] ;
319 -> 320 ;
321 [label="EFraction <= 0.2\nsquared_error = 0.2\nsamples = 5\nvalue = 0.4"] ;
320 -> 321 ;
322 [label="squared_error = 0.0\nsamples = 3\nvalue = 0.0"] ;
321 -> 322 ;
323 [label="squared_error = 0.0\nsamples = 2\nvalue = 1.0"] ;
321 -> 323 ;
324 [label="squared_error = 0.0\nsamples = 8\nvalue = 0.0"] ;
320 -> 324 ;
325 [label="squared_error = 0.0\nsamples = 1\nvalue = 1.0"] ;
319 -> 325 ;
326 [label="EFraction <= 0.7\nsquared_error = 0.1\nsamples = 2754\nvalue = 0.9"] ;
0 -> 326 [labeldistance=2.5, labelangle=-45, headlabel="False"] ;
327 [label="Months <= 46.5\nsquared_error = 0.2\nsamples = 622\nvalue = 0.7"] ;
326 -> 327 ;
328 [label="Intervention <= 0.5\nsquared_error = 0.2\nsamples = 350\nvalue = 0.7"] ;
327 -> 328 ;
329 [label="EFraction <= 0.3\nsquared_error = 0.2\nsamples = 206\nvalue = 0.6"] ;
328 -> 329 ;
330 [label="Gender <= 0.5\nsquared_error = 0.2\nsamples = 20\nvalue = 0.3"] ;
329 -> 330 ;
331 [label="squared_error = 0.0\nsamples = 3\nvalue = 1.0"] ;
330 -> 331 ;
332 [label="EFraction <= 0.3\nsquared_error = 0.2\nsamples = 17\nvalue = 0.2"] ;
330 -> 332 ;
333 [label="EFraction <= 0.3\nsquared_error = 0.2\nsamples = 6\nvalue = 0.5"] ;
332 -> 333 ;
334 [label="Months <= 33.0\nsquared_error = 0.2\nsamples = 5\nvalue = 0.2"] ;
333 -> 334 ;
335 [label="squared_error = 0.0\nsamples = 3\nvalue = 0.0"] ;
334 -> 335 ;
336 [label="Gender <= 1.5\nsquared_error = 0.2\nsamples = 2\nvalue = 0.5"] ;
334 -> 336 ;
337 [label="squared_error = 0.0\nsamples = 1\nvalue = 0.0"] ;
336 -> 337 ;
338 [label="squared_error = 0.0\nsamples = 1\nvalue = 1.0"] ;
336 -> 338 ;
339 [label="squared_error = 0.0\nsamples = 1\nvalue = 1.0"] ;
333 -> 339 ;
340 [label="Months <= 36.0\nsquared_error = 0.0\nsamples = 11\nvalue = 0.0"] ;
332 -> 340 ;
341 [label="squared_error = 0.0\nsamples = 9\nvalue = 0.0"] ;
340 -> 341 ;
342 [label="EFraction <= 0.3\nsquared_error = 0.2\nsamples = 2\nvalue = 0.3"] ;
340 -> 342 ;
343 [label="squared_error = 0.0\nsamples = 1\nvalue = 1.0"] ;
342 -> 343 ;
344 [label="squared_error = 0.0\nsamples = 1\nvalue = 0.0"] ;
342 -> 344 ;
345 [label="Months <= 10.5\nsquared_error = 0.2\nsamples = 186\nvalue = 0.6"] ;
329 -> 345 ;
346 [label="Months <= 5.0\nsquared_error = 0.1\nsamples = 8\nvalue = 0.9"] ;
345 -> 346 ;
347 [label="EFraction <= 0.6\nsquared_error = 0.2\nsamples = 2\nvalue = 0.8"] ;
346 -> 347 ;
348 [label="squared_error = 0.0\nsamples = 1\nvalue = 0.0"] ;
347 -> 348 ;
349 [label="squared_error = 0.0\nsamples = 1\nvalue = 1.0"] ;
347 -> 349 ;
350 [label="squared_error = 0.0\nsamples = 6\nvalue = 1.0"] ;
346 -> 350 ;
351 [label="Gender <= 0.5\nsquared_error = 0.2\nsamples = 178\nvalue = 0.6"] ;
345 -> 351 ;
352 [label="EFraction <= 0.4\nsquared_error = 0.2\nsamples = 39\nvalue = 0.5"] ;
351 -> 352 ;
353 [label="EFraction <= 0.4\nsquared_error = 0.1\nsamples = 8\nvalue = 0.2"] ;
352 -> 353 ;
354 [label="Months <= 34.5\nsquared_error = 0.2\nsamples = 3\nvalue = 0.7"] ;
353 -> 354 ;
355 [label="squared_error = 0.0\nsamples = 1\nvalue = 1.0"] ;
354 -> 355 ;
356 [label="EFraction <= 0.4\nsquared_error = 0.2\nsamples = 2\nvalue = 0.5"] ;
354 -> 356 ;
357 [label="squared_error = 0.0\nsamples = 1\nvalue = 0.0"] ;
356 -> 357 ;
358 [label="squared_error = 0.0\nsamples = 1\nvalue = 1.0"] ;
356 -> 358 ;
359 [label="squared_error = 0.0\nsamples = 5\nvalue = 0.0"] ;
353 -> 359 ;
360 [label="Months <= 23.5\nsquared_error = 0.2\nsamples = 31\nvalue = 0.6"] ;
352 -> 360 ;
361 [label="squared_error = 0.0\nsamples = 7\nvalue = 1.0"] ;
360 -> 361 ;
362 [label="Months <= 34.0\nsquared_error = 0.2\nsamples = 24\nvalue = 0.5"] ;
360 -> 362 ;
363 [label="EFraction <= 0.7\nsquared_error = 0.2\nsamples = 13\nvalue = 0.3"] ;
362 -> 363 ;
364 [label="EFraction <= 0.5\nsquared_error = 0.1\nsamples = 9\nvalue = 0.1"] ;
363 -> 364 ;
365 [label="squared_error = 0.0\nsamples = 2\nvalue = 1.0"] ;
364 -> 365 ;
366 [label="squared_error = 0.0\nsamples = 7\nvalue = 0.0"] ;
364 -> 366 ;
367 [label="EFraction <= 0.7\nsquared_error = 0.2\nsamples = 4\nvalue = 0.6"] ;
363 -> 367 ;
368 [label="squared_error = 0.0\nsamples = 2\nvalue = 1.0"] ;
367 -> 368 ;
369 [label="squared_error = 0.0\nsamples = 2\nvalue = 0.0"] ;
367 -> 369 ;
370 [label="EFraction <= 0.7\nsquared_error = 0.2\nsamples = 11\nvalue = 0.7"] ;
362 -> 370 ;
371 [label="Months <= 38.5\nsquared_error = 0.1\nsamples = 8\nvalue = 0.9"] ;
370 -> 371 ;
372 [label="EFraction <= 0.5\nsquared_error = 0.2\nsamples = 3\nvalue = 0.8"] ;
371 -> 372 ;
373 [label="squared_error = 0.0\nsamples = 1\nvalue = 1.0"] ;
372 -> 373 ;
374 [label="Months <= 36.0\nsquared_error = 0.2\nsamples = 2\nvalue = 0.5"] ;
372 -> 374 ;
375 [label="squared_error = 0.0\nsamples = 1\nvalue = 1.0"] ;
374 -> 375 ;
376 [label="squared_error = 0.0\nsamples = 1\nvalue = 0.0"] ;
374 -> 376 ;
377 [label="squared_error = 0.0\nsamples = 5\nvalue = 1.0"] ;
371 -> 377 ;
378 [label="EFraction <= 0.7\nsquared_error = 0.1\nsamples = 3\nvalue = 0.2"] ;
370 -> 378 ;
379 [label="squared_error = 0.0\nsamples = 2\nvalue = 0.0"] ;
378 -> 379 ;
380 [label="squared_error = 0.0\nsamples = 1\nvalue = 1.0"] ;
378 -> 380 ;
381 [label="Gender <= 1.5\nsquared_error = 0.2\nsamples = 139\nvalue = 0.6"] ;
351 -> 381 ;
382 [label="Months <= 16.5\nsquared_error = 0.2\nsamples = 32\nvalue = 0.8"] ;
381 -> 382 ;
383 [label="squared_error = 0.0\nsamples = 2\nvalue = 0.0"] ;
382 -> 383 ;
384 [label="Months <= 32.5\nsquared_error = 0.2\nsamples = 30\nvalue = 0.8"] ;
382 -> 384 ;
385 [label="Months <= 27.0\nsquared_error = 0.1\nsamples = 17\nvalue = 0.9"] ;
384 -> 385 ;
386 [label="squared_error = 0.0\nsamples = 9\nvalue = 1.0"] ;
385 -> 386 ;
387 [label="EFraction <= 0.4\nsquared_error = 0.1\nsamples = 8\nvalue = 0.8"] ;
385 -> 387 ;
388 [label="squared_error = 0.0\nsamples = 3\nvalue = 1.0"] ;
387 -> 388 ;
389 [label="EFraction <= 0.4\nsquared_error = 0.2\nsamples = 5\nvalue = 0.7"] ;
387 -> 389 ;
390 [label="squared_error = 0.0\nsamples = 1\nvalue = 0.0"] ;
389 -> 390 ;
391 [label="Months <= 28.5\nsquared_error = 0.1\nsamples = 4\nvalue = 0.8"] ;
389 -> 391 ;
392 [label="squared_error = 0.2\nsamples = 2\nvalue = 0.7"] ;
391 -> 392 ;
393 [label="squared_error = 0.0\nsamples = 2\nvalue = 1.0"] ;
391 -> 393 ;
394 [label="Months <= 38.0\nsquared_error = 0.2\nsamples = 13\nvalue = 0.6"] ;
384 -> 394 ;
395 [label="EFraction <= 0.4\nsquared_error = 0.2\nsamples = 7\nvalue = 0.4"] ;
394 -> 395 ;
396 [label="squared_error = 0.0\nsamples = 1\nvalue = 1.0"] ;
395 -> 396 ;
397 [label="EFraction <= 0.6\nsquared_error = 0.2\nsamples = 6\nvalue = 0.2"] ;
395 -> 397 ;
398 [label="squared_error = 0.0\nsamples = 4\nvalue = 0.0"] ;
397 -> 398 ;
399 [label="squared_error = 0.0\nsamples = 2\nvalue = 1.0"] ;
397 -> 399 ;
400 [label="EFraction <= 0.6\nsquared_error = 0.1\nsamples = 6\nvalue = 0.9"] ;
394 -> 400 ;
401 [label="squared_error = 0.0\nsamples = 5\nvalue = 1.0"] ;
400 -> 401 ;
402 [label="squared_error = 0.0\nsamples = 1\nvalue = 0.0"] ;
400 -> 402 ;
403 [label="EFraction <= 0.5\nsquared_error = 0.2\nsamples = 107\nvalue = 0.6"] ;
381 -> 403 ;
404 [label="Months <= 25.5\nsquared_error = 0.2\nsamples = 51\nvalue = 0.5"] ;
403 -> 404 ;
405 [label="EFraction <= 0.4\nsquared_error = 0.2\nsamples = 21\nvalue = 0.3"] ;
404 -> 405 ;
406 [label="Months <= 22.0\nsquared_error = 0.2\nsamples = 5\nvalue = 0.7"] ;
405 -> 406 ;
407 [label="squared_error = 0.0\nsamples = 3\nvalue = 1.0"] ;
406 -> 407 ;
408 [label="squared_error = 0.0\nsamples = 2\nvalue = 0.0"] ;
406 -> 408 ;
409 [label="Months <= 15.5\nsquared_error = 0.1\nsamples = 16\nvalue = 0.1"] ;
405 -> 409 ;
410 [label="EFraction <= 0.4\nsquared_error = 0.2\nsamples = 4\nvalue = 0.3"] ;
409 -> 410 ;
411 [label="squared_error = 0.0\nsamples = 1\nvalue = 0.0"] ;
410 -> 411 ;
412 [label="Months <= 12.0\nsquared_error = 0.2\nsamples = 3\nvalue = 0.5"] ;
410 -> 412 ;
413 [label="squared_error = 0.0\nsamples = 1\nvalue = 0.0"] ;
412 -> 413 ;
414 [label="squared_error = 0.0\nsamples = 2\nvalue = 1.0"] ;
412 -> 414 ;
415 [label="EFraction <= 0.4\nsquared_error = 0.1\nsamples = 12\nvalue = 0.1"] ;
409 -> 415 ;
416 [label="EFraction <= 0.4\nsquared_error = 0.1\nsamples = 6\nvalue = 0.1"] ;
415 -> 416 ;
417 [label="squared_error = 0.0\nsamples = 4\nvalue = 0.0"] ;
416 -> 417 ;
418 [label="Months <= 21.0\nsquared_error = 0.2\nsamples = 2\nvalue = 0.5"] ;
416 -> 418 ;
419 [label="squared_error = 0.0\nsamples = 1\nvalue = 0.0"] ;
418 -> 419 ;
420 [label="squared_error = 0.0\nsamples = 1\nvalue = 1.0"] ;
418 -> 420 ;
421 [label="squared_error = 0.0\nsamples = 6\nvalue = 0.0"] ;
415 -> 421 ;
422 [label="EFraction <= 0.5\nsquared_error = 0.2\nsamples = 30\nvalue = 0.6"] ;
404 -> 422 ;
423 [label="EFraction <= 0.5\nsquared_error = 0.2\nsamples = 26\nvalue = 0.6"] ;
422 -> 423 ;
424 [label="Months <= 29.0\nsquared_error = 0.2\nsamples = 23\nvalue = 0.6"] ;
423 -> 424 ;
425 [label="EFraction <= 0.4\nsquared_error = 0.2\nsamples = 7\nvalue = 0.4"] ;
424 -> 425 ;
426 [label="squared_error = 0.0\nsamples = 1\nvalue = 0.0"] ;
425 -> 426 ;
427 [label="EFraction <= 0.4\nsquared_error = 0.2\nsamples = 6\nvalue = 0.7"] ;
425 -> 427 ;
428 [label="EFraction <= 0.4\nsquared_error = 0.2\nsamples = 4\nvalue = 0.5"] ;
427 -> 428 ;
429 [label="squared_error = 0.0\nsamples = 1\nvalue = 1.0"] ;
428 -> 429 ;
430 [label="EFraction <= 0.4\nsquared_error = 0.2\nsamples = 3\nvalue = 0.3"] ;
428 -> 430 ;
431 [label="Months <= 27.5\nsquared_error = 0.2\nsamples = 2\nvalue = 0.5"] ;
430 -> 431 ;
432 [label="squared_error = 0.0\nsamples = 1\nvalue = 1.0"] ;
431 -> 432 ;
433 [label="squared_error = 0.0\nsamples = 1\nvalue = 0.0"] ;
431 -> 433 ;
434 [label="squared_error = 0.0\nsamples = 1\nvalue = 0.0"] ;
430 -> 434 ;
435 [label="squared_error = 0.0\nsamples = 2\nvalue = 1.0"] ;
427 -> 435 ;
436 [label="EFraction <= 0.4\nsquared_error = 0.2\nsamples = 16\nvalue = 0.7"] ;
424 -> 436 ;
437 [label="squared_error = 0.0\nsamples = 3\nvalue = 1.0"] ;
436 -> 437 ;
438 [label="Months <= 37.0\nsquared_error = 0.2\nsamples = 13\nvalue = 0.6"] ;
436 -> 438 ;
439 [label="EFraction <= 0.4\nsquared_error = 0.1\nsamples = 5\nvalue = 0.8"] ;
438 -> 439 ;
440 [label="Months <= 32.0\nsquared_error = 0.2\nsamples = 2\nvalue = 0.5"] ;
439 -> 440 ;
441 [label="squared_error = 0.0\nsamples = 1\nvalue = 0.0"] ;
440 -> 441 ;
442 [label="squared_error = 0.0\nsamples = 1\nvalue = 1.0"] ;
440 -> 442 ;
443 [label="squared_error = 0.0\nsamples = 3\nvalue = 1.0"] ;
439 -> 443 ;
444 [label="Months <= 40.0\nsquared_error = 0.2\nsamples = 8\nvalue = 0.5"] ;
438 -> 444 ;
445 [label="squared_error = 0.0\nsamples = 1\nvalue = 0.0"] ;
444 -> 445 ;
446 [label="EFraction <= 0.4\nsquared_error = 0.2\nsamples = 7\nvalue = 0.6"] ;
444 -> 446 ;
447 [label="Months <= 45.5\nsquared_error = 0.2\nsamples = 2\nvalue = 0.4"] ;
446 -> 447 ;
448 [label="squared_error = 0.0\nsamples = 1\nvalue = 1.0"] ;
447 -> 448 ;
449 [label="squared_error = 0.0\nsamples = 1\nvalue = 0.0"] ;
447 -> 449 ;
450 [label="EFraction <= 0.5\nsquared_error = 0.2\nsamples = 5\nvalue = 0.8"] ;
446 -> 450 ;
451 [label="squared_error = 0.0\nsamples = 3\nvalue = 1.0"] ;
450 -> 451 ;
452 [label="EFraction <= 0.5\nsquared_error = 0.2\nsamples = 2\nvalue = 0.5"] ;
450 -> 452 ;
453 [label="squared_error = 0.0\nsamples = 1\nvalue = 0.0"] ;
452 -> 453 ;
454 [label="squared_error = 0.0\nsamples = 1\nvalue = 1.0"] ;
452 -> 454 ;
455 [label="squared_error = 0.0\nsamples = 3\nvalue = 0.0"] ;
423 -> 455 ;
456 [label="EFraction <= 0.5\nsquared_error = 0.1\nsamples = 4\nvalue = 0.8"] ;
422 -> 456 ;
457 [label="squared_error = 0.0\nsamples = 2\nvalue = 1.0"] ;
456 -> 457 ;
458 [label="Months <= 38.5\nsquared_error = 0.2\nsamples = 2\nvalue = 0.7"] ;
456 -> 458 ;
459 [label="squared_error = 0.0\nsamples = 1\nvalue = 1.0"] ;
458 -> 459 ;
460 [label="squared_error = 0.0\nsamples = 1\nvalue = 0.0"] ;
458 -> 460 ;
461 [label="EFraction <= 0.7\nsquared_error = 0.2\nsamples = 56\nvalue = 0.7"] ;
403 -> 461 ;
462 [label="Months <= 38.5\nsquared_error = 0.2\nsamples = 54\nvalue = 0.7"] ;
461 -> 462 ;
463 [label="Age_Type <= 4.0\nsquared_error = 0.2\nsamples = 40\nvalue = 0.8"] ;
462 -> 463 ;
464 [label="Months <= 36.5\nsquared_error = 0.2\nsamples = 39\nvalue = 0.8"] ;
463 -> 464 ;
465 [label="EFraction <= 0.6\nsquared_error = 0.2\nsamples = 33\nvalue = 0.8"] ;
464 -> 465 ;
466 [label="squared_error = 0.0\nsamples = 6\nvalue = 1.0"] ;
465 -> 466 ;
467 [label="EFraction <= 0.6\nsquared_error = 0.2\nsamples = 27\nvalue = 0.7"] ;
465 -> 467 ;
468 [label="Months <= 28.5\nsquared_error = 0.1\nsamples = 5\nvalue = 0.2"] ;
467 -> 468 ;
469 [label="Months <= 24.0\nsquared_error = 0.2\nsamples = 3\nvalue = 0.3"] ;
468 -> 469 ;
470 [label="squared_error = 0.0\nsamples = 2\nvalue = 0.0"] ;
469 -> 470 ;
471 [label="squared_error = 0.0\nsamples = 1\nvalue = 1.0"] ;
469 -> 471 ;
472 [label="squared_error = 0.0\nsamples = 2\nvalue = 0.0"] ;
468 -> 472 ;
473 [label="Months <= 20.5\nsquared_error = 0.1\nsamples = 22\nvalue = 0.8"] ;
467 -> 473 ;
474 [label="squared_error = 0.0\nsamples = 5\nvalue = 1.0"] ;
473 -> 474 ;
475 [label="EFraction <= 0.7\nsquared_error = 0.2\nsamples = 17\nvalue = 0.7"] ;
473 -> 475 ;
476 [label="Months <= 27.5\nsquared_error = 0.2\nsamples = 12\nvalue = 0.8"] ;
475 -> 476 ;
477 [label="EFraction <= 0.6\nsquared_error = 0.2\nsamples = 4\nvalue = 0.6"] ;
476 -> 477 ;
478 [label="squared_error = 0.0\nsamples = 2\nvalue = 1.0"] ;
477 -> 478 ;
479 [label="Months <= 25.0\nsquared_error = 0.2\nsamples = 2\nvalue = 0.3"] ;
477 -> 479 ;
480 [label="squared_error = 0.0\nsamples = 1\nvalue = 1.0"] ;
479 -> 480 ;
481 [label="squared_error = 0.0\nsamples = 1\nvalue = 0.0"] ;
479 -> 481 ;
482 [label="EFraction <= 0.6\nsquared_error = 0.1\nsamples = 8\nvalue = 0.9"] ;
476 -> 482 ;
483 [label="EFraction <= 0.6\nsquared_error = 0.2\nsamples = 3\nvalue = 0.8"] ;
482 -> 483 ;
484 [label="squared_error = 0.0\nsamples = 1\nvalue = 1.0"] ;
483 -> 484 ;
485 [label="squared_error = 0.2\nsamples = 2\nvalue = 0.5"] ;
483 -> 485 ;
486 [label="squared_error = 0.0\nsamples = 5\nvalue = 1.0"] ;
482 -> 486 ;
487 [label="EFraction <= 0.7\nsquared_error = 0.2\nsamples = 5\nvalue = 0.5"] ;
475 -> 487 ;
488 [label="squared_error = 0.0\nsamples = 1\nvalue = 0.0"] ;
487 -> 488 ;
489 [label="Months <= 21.5\nsquared_error = 0.2\nsamples = 4\nvalue = 0.8"] ;
487 -> 489 ;
490 [label="squared_error = 0.0\nsamples = 1\nvalue = 0.0"] ;
489 -> 490 ;
491 [label="squared_error = 0.0\nsamples = 3\nvalue = 1.0"] ;
489 -> 491 ;
492 [label="squared_error = 0.0\nsamples = 6\nvalue = 1.0"] ;
464 -> 492 ;
493 [label="squared_error = 0.0\nsamples = 1\nvalue = 0.0"] ;
463 -> 493 ;
494 [label="Months <= 39.5\nsquared_error = 0.2\nsamples = 14\nvalue = 0.6"] ;
462 -> 494 ;
495 [label="squared_error = 0.0\nsamples = 2\nvalue = 0.0"] ;
494 -> 495 ;
496 [label="EFraction <= 0.6\nsquared_error = 0.2\nsamples = 12\nvalue = 0.7"] ;
494 -> 496 ;
497 [label="Months <= 41.0\nsquared_error = 0.2\nsamples = 3\nvalue = 0.2"] ;
496 -> 497 ;
498 [label="squared_error = 0.0\nsamples = 2\nvalue = 0.0"] ;
497 -> 498 ;
499 [label="squared_error = 0.0\nsamples = 1\nvalue = 1.0"] ;
497 -> 499 ;
500 [label="EFraction <= 0.7\nsquared_error = 0.1\nsamples = 9\nvalue = 0.9"] ;
496 -> 500 ;
501 [label="squared_error = 0.0\nsamples = 7\nvalue = 1.0"] ;
500 -> 501 ;
502 [label="EFraction <= 0.7\nsquared_error = 0.2\nsamples = 2\nvalue = 0.7"] ;
500 -> 502 ;
503 [label="squared_error = 0.0\nsamples = 1\nvalue = 0.0"] ;
502 -> 503 ;
504 [label="squared_error = 0.0\nsamples = 1\nvalue = 1.0"] ;
502 -> 504 ;
505 [label="squared_error = 0.0\nsamples = 2\nvalue = 0.0"] ;
461 -> 505 ;
506 [label="Intervention <= 1.5\nsquared_error = 0.2\nsamples = 144\nvalue = 0.8"] ;
328 -> 506 ;
507 [label="EFraction <= 0.5\nsquared_error = 0.1\nsamples = 44\nvalue = 0.9"] ;
506 -> 507 ;
508 [label="EFraction <= 0.4\nsquared_error = 0.1\nsamples = 17\nvalue = 0.9"] ;
507 -> 508 ;
509 [label="squared_error = 0.0\nsamples = 10\nvalue = 1.0"] ;
508 -> 509 ;
510 [label="EFraction <= 0.4\nsquared_error = 0.2\nsamples = 7\nvalue = 0.6"] ;
508 -> 510 ;
511 [label="squared_error = 0.0\nsamples = 2\nvalue = 0.0"] ;
510 -> 511 ;
512 [label="EFraction <= 0.5\nsquared_error = 0.1\nsamples = 5\nvalue = 0.9"] ;
510 -> 512 ;
513 [label="squared_error = 0.0\nsamples = 4\nvalue = 1.0"] ;
512 -> 513 ;
514 [label="squared_error = 0.0\nsamples = 1\nvalue = 0.0"] ;
512 -> 514 ;
515 [label="squared_error = 0.0\nsamples = 27\nvalue = 1.0"] ;
507 -> 515 ;
516 [label="EFraction <= 0.4\nsquared_error = 0.2\nsamples = 100\nvalue = 0.7"] ;
506 -> 516 ;
517 [label="EFraction <= 0.4\nsquared_error = 0.2\nsamples = 24\nvalue = 0.5"] ;
516 -> 517 ;
518 [label="EFraction <= 0.3\nsquared_error = 0.2\nsamples = 13\nvalue = 0.7"] ;
517 -> 518 ;
519 [label="squared_error = 0.0\nsamples = 3\nvalue = 1.0"] ;
518 -> 519 ;
520 [label="Months <= 16.5\nsquared_error = 0.2\nsamples = 10\nvalue = 0.6"] ;
518 -> 520 ;
521 [label="squared_error = 0.0\nsamples = 4\nvalue = 1.0"] ;
520 -> 521 ;
522 [label="Gender <= 1.5\nsquared_error = 0.2\nsamples = 6\nvalue = 0.2"] ;
520 -> 522 ;
523 [label="Age_Type <= 2.5\nsquared_error = 0.2\nsamples = 3\nvalue = 0.7"] ;
522 -> 523 ;
524 [label="squared_error = 0.0\nsamples = 1\nvalue = 0.0"] ;
523 -> 524 ;
525 [label="squared_error = 0.0\nsamples = 2\nvalue = 1.0"] ;
523 -> 525 ;
526 [label="squared_error = 0.0\nsamples = 3\nvalue = 0.0"] ;
522 -> 526 ;
527 [label="Intervention <= 4.0\nsquared_error = 0.2\nsamples = 11\nvalue = 0.2"] ;
517 -> 527 ;
528 [label="Age_Type <= 4.0\nsquared_error = 0.2\nsamples = 3\nvalue = 0.7"] ;
527 -> 528 ;
529 [label="squared_error = 0.0\nsamples = 2\nvalue = 1.0"] ;
528 -> 529 ;
530 [label="squared_error = 0.0\nsamples = 1\nvalue = 0.0"] ;
528 -> 530 ;
531 [label="Months <= 5.5\nsquared_error = 0.1\nsamples = 8\nvalue = 0.1"] ;
527 -> 531 ;
532 [label="squared_error = 0.0\nsamples = 1\nvalue = 1.0"] ;
531 -> 532 ;
533 [label="Months <= 39.5\nsquared_error = 0.1\nsamples = 7\nvalue = 0.1"] ;
531 -> 533 ;
534 [label="squared_error = 0.0\nsamples = 5\nvalue = 0.0"] ;
533 -> 534 ;
535 [label="Intervention <= 7.5\nsquared_error = 0.2\nsamples = 2\nvalue = 0.2"] ;
533 -> 535 ;
536 [label="squared_error = 0.0\nsamples = 1\nvalue = 0.0"] ;
535 -> 536 ;
537 [label="squared_error = 0.0\nsamples = 1\nvalue = 1.0"] ;
535 -> 537 ;
538 [label="Months <= 45.5\nsquared_error = 0.2\nsamples = 76\nvalue = 0.8"] ;
516 -> 538 ;
539 [label="Gender <= 0.5\nsquared_error = 0.1\nsamples = 74\nvalue = 0.8"] ;
538 -> 539 ;
540 [label="Months <= 36.5\nsquared_error = 0.2\nsamples = 14\nvalue = 0.6"] ;
539 -> 540 ;
541 [label="EFraction <= 0.5\nsquared_error = 0.2\nsamples = 12\nvalue = 0.8"] ;
540 -> 541 ;
542 [label="squared_error = 0.0\nsamples = 1\nvalue = 0.0"] ;
541 -> 542 ;
543 [label="Months <= 25.0\nsquared_error = 0.1\nsamples = 11\nvalue = 0.8"] ;
541 -> 543 ;
544 [label="squared_error = 0.0\nsamples = 5\nvalue = 1.0"] ;
543 -> 544 ;
545 [label="Months <= 27.0\nsquared_error = 0.2\nsamples = 6\nvalue = 0.7"] ;
543 -> 545 ;
546 [label="squared_error = 0.0\nsamples = 2\nvalue = 0.0"] ;
545 -> 546 ;
547 [label="Intervention <= 5.0\nsquared_error = 0.1\nsamples = 4\nvalue = 0.8"] ;
545 -> 547 ;
548 [label="EFraction <= 0.6\nsquared_error = 0.2\nsamples = 2\nvalue = 0.7"] ;
547 -> 548 ;
549 [label="squared_error = 0.0\nsamples = 1\nvalue = 1.0"] ;
548 -> 549 ;
550 [label="squared_error = 0.0\nsamples = 1\nvalue = 0.0"] ;
548 -> 550 ;
551 [label="squared_error = 0.0\nsamples = 2\nvalue = 1.0"] ;
547 -> 551 ;
552 [label="squared_error = 0.0\nsamples = 2\nvalue = 0.0"] ;
540 -> 552 ;
553 [label="Intervention <= 8.0\nsquared_error = 0.1\nsamples = 60\nvalue = 0.9"] ;
539 -> 553 ;
554 [label="Months <= 26.5\nsquared_error = 0.2\nsamples = 37\nvalue = 0.8"] ;
553 -> 554 ;
555 [label="Months <= 25.5\nsquared_error = 0.2\nsamples = 15\nvalue = 0.6"] ;
554 -> 555 ;
556 [label="Intervention <= 6.0\nsquared_error = 0.2\nsamples = 13\nvalue = 0.8"] ;
555 -> 556 ;
557 [label="squared_error = 0.0\nsamples = 8\nvalue = 1.0"] ;
556 -> 557 ;
558 [label="EFraction <= 0.5\nsquared_error = 0.2\nsamples = 5\nvalue = 0.4"] ;
556 -> 558 ;
559 [label="squared_error = 0.0\nsamples = 2\nvalue = 1.0"] ;
558 -> 559 ;
560 [label="squared_error = 0.0\nsamples = 3\nvalue = 0.0"] ;
558 -> 560 ;
561 [label="squared_error = 0.0\nsamples = 2\nvalue = 0.0"] ;
555 -> 561 ;
562 [label="EFraction <= 0.5\nsquared_error = 0.1\nsamples = 22\nvalue = 0.9"] ;
554 -> 562 ;
563 [label="Gender <= 1.5\nsquared_error = 0.2\nsamples = 2\nvalue = 0.5"] ;
562 -> 563 ;
564 [label="squared_error = 0.0\nsamples = 1\nvalue = 1.0"] ;
563 -> 564 ;
565 [label="squared_error = 0.0\nsamples = 1\nvalue = 0.0"] ;
563 -> 565 ;
566 [label="EFraction <= 0.6\nsquared_error = 0.1\nsamples = 20\nvalue = 0.9"] ;
562 -> 566 ;
567 [label="squared_error = 0.0\nsamples = 14\nvalue = 1.0"] ;
566 -> 567 ;
568 [label="EFraction <= 0.6\nsquared_error = 0.2\nsamples = 6\nvalue = 0.8"] ;
566 -> 568 ;
569 [label="squared_error = 0.0\nsamples = 1\nvalue = 0.0"] ;
568 -> 569 ;
570 [label="EFraction <= 0.7\nsquared_error = 0.1\nsamples = 5\nvalue = 0.9"] ;
568 -> 570 ;
571 [label="squared_error = 0.0\nsamples = 3\nvalue = 1.0"] ;
570 -> 571 ;
572 [label="Months <= 42.0\nsquared_error = 0.2\nsamples = 2\nvalue = 0.7"] ;
570 -> 572 ;
573 [label="squared_error = 0.0\nsamples = 1\nvalue = 0.0"] ;
572 -> 573 ;
574 [label="squared_error = 0.0\nsamples = 1\nvalue = 1.0"] ;
572 -> 574 ;
575 [label="EFraction <= 0.5\nsquared_error = 0.0\nsamples = 23\nvalue = 1.0"] ;
553 -> 575 ;
576 [label="EFraction <= 0.5\nsquared_error = 0.1\nsamples = 9\nvalue = 0.9"] ;
575 -> 576 ;
577 [label="squared_error = 0.0\nsamples = 4\nvalue = 1.0"] ;
576 -> 577 ;
578 [label="Months <= 28.0\nsquared_error = 0.1\nsamples = 5\nvalue = 0.9"] ;
576 -> 578 ;
579 [label="Months <= 23.5\nsquared_error = 0.2\nsamples = 4\nvalue = 0.8"] ;
578 -> 579 ;
580 [label="squared_error = 0.0\nsamples = 3\nvalue = 1.0"] ;
579 -> 580 ;
581 [label="squared_error = 0.0\nsamples = 1\nvalue = 0.0"] ;
579 -> 581 ;
582 [label="squared_error = 0.0\nsamples = 1\nvalue = 1.0"] ;
578 -> 582 ;
583 [label="squared_error = 0.0\nsamples = 14\nvalue = 1.0"] ;
575 -> 583 ;
584 [label="squared_error = 0.0\nsamples = 2\nvalue = 0.0"] ;
538 -> 584 ;
585 [label="EFraction <= 0.7\nsquared_error = 0.2\nsamples = 272\nvalue = 0.8"] ;
327 -> 585 ;
586 [label="Months <= 119.0\nsquared_error = 0.2\nsamples = 271\nvalue = 0.8"] ;
585 -> 586 ;
587 [label="Months <= 107.5\nsquared_error = 0.2\nsamples = 247\nvalue = 0.8"] ;
586 -> 587 ;
588 [label="EFraction <= 0.7\nsquared_error = 0.2\nsamples = 235\nvalue = 0.8"] ;
587 -> 588 ;
589 [label="EFraction <= 0.7\nsquared_error = 0.2\nsamples = 216\nvalue = 0.8"] ;
588 -> 589 ;
590 [label="Intervention <= 4.5\nsquared_error = 0.2\nsamples = 209\nvalue = 0.8"] ;
589 -> 590 ;
591 [label="EFraction <= 0.6\nsquared_error = 0.2\nsamples = 185\nvalue = 0.8"] ;
590 -> 591 ;
592 [label="Intervention <= 2.5\nsquared_error = 0.2\nsamples = 155\nvalue = 0.8"] ;
591 -> 592 ;
593 [label="Gender <= 0.5\nsquared_error = 0.1\nsamples = 144\nvalue = 0.8"] ;
592 -> 593 ;
594 [label="Months <= 48.5\nsquared_error = 0.2\nsamples = 45\nvalue = 0.7"] ;
593 -> 594 ;
595 [label="squared_error = 0.0\nsamples = 3\nvalue = 1.0"] ;
594 -> 595 ;
596 [label="EFraction <= 0.6\nsquared_error = 0.2\nsamples = 42\nvalue = 0.7"] ;
594 -> 596 ;
597 [label="Months <= 65.5\nsquared_error = 0.2\nsamples = 39\nvalue = 0.8"] ;
596 -> 597 ;
598 [label="Months <= 60.5\nsquared_error = 0.2\nsamples = 25\nvalue = 0.6"] ;
597 -> 598 ;
599 [label="EFraction <= 0.4\nsquared_error = 0.2\nsamples = 19\nvalue = 0.7"] ;
598 -> 599 ;
600 [label="squared_error = 0.0\nsamples = 5\nvalue = 1.0"] ;
599 -> 600 ;
601 [label="EFraction <= 0.4\nsquared_error = 0.2\nsamples = 14\nvalue = 0.6"] ;
599 -> 601 ;
602 [label="squared_error = 0.0\nsamples = 2\nvalue = 0.0"] ;
601 -> 602 ;
603 [label="EFraction <= 0.5\nsquared_error = 0.2\nsamples = 12\nvalue = 0.7"] ;
601 -> 603 ;
604 [label="Intervention <= 0.5\nsquared_error = 0.1\nsamples = 6\nvalue = 0.9"] ;
603 -> 604 ;
605 [label="squared_error = 0.0\nsamples = 5\nvalue = 1.0"] ;
604 -> 605 ;
606 [label="squared_error = 0.0\nsamples = 1\nvalue = 0.0"] ;
604 -> 606 ;
607 [label="Months <= 58.5\nsquared_error = 0.2\nsamples = 6\nvalue = 0.5"] ;
603 -> 607 ;
608 [label="EFraction <= 0.5\nsquared_error = 0.2\nsamples = 5\nvalue = 0.7"] ;
607 -> 608 ;
609 [label="Months <= 55.5\nsquared_error = 0.2\nsamples = 3\nvalue = 0.3"] ;
608 -> 609 ;
610 [label="squared_error = 0.0\nsamples = 2\nvalue = 0.0"] ;
609 -> 610 ;
611 [label="squared_error = 0.0\nsamples = 1\nvalue = 1.0"] ;
609 -> 611 ;
612 [label="squared_error = 0.0\nsamples = 2\nvalue = 1.0"] ;
608 -> 612 ;
613 [label="squared_error = 0.0\nsamples = 1\nvalue = 0.0"] ;
607 -> 613 ;
614 [label="EFraction <= 0.3\nsquared_error = 0.2\nsamples = 6\nvalue = 0.3"] ;
598 -> 614 ;
615 [label="squared_error = 0.0\nsamples = 1\nvalue = 0.0"] ;
614 -> 615 ;
616 [label="EFraction <= 0.3\nsquared_error = 0.2\nsamples = 5\nvalue = 0.4"] ;
614 -> 616 ;
617 [label="squared_error = 0.0\nsamples = 1\nvalue = 1.0"] ;
616 -> 617 ;
618 [label="EFraction <= 0.5\nsquared_error = 0.2\nsamples = 4\nvalue = 0.2"] ;
616 -> 618 ;
619 [label="squared_error = 0.0\nsamples = 2\nvalue = 0.0"] ;
618 -> 619 ;
620 [label="EFraction <= 0.5\nsquared_error = 0.2\nsamples = 2\nvalue = 0.5"] ;
618 -> 620 ;
621 [label="squared_error = 0.0\nsamples = 1\nvalue = 1.0"] ;
620 -> 621 ;
622 [label="squared_error = 0.0\nsamples = 1\nvalue = 0.0"] ;
620 -> 622 ;
623 [label="EFraction <= 0.4\nsquared_error = 0.0\nsamples = 14\nvalue = 1.0"] ;
597 -> 623 ;
624 [label="EFraction <= 0.4\nsquared_error = 0.1\nsamples = 4\nvalue = 0.8"] ;
623 -> 624 ;
625 [label="squared_error = 0.0\nsamples = 3\nvalue = 1.0"] ;
624 -> 625 ;
626 [label="squared_error = 0.0\nsamples = 1\nvalue = 0.0"] ;
624 -> 626 ;
627 [label="squared_error = 0.0\nsamples = 10\nvalue = 1.0"] ;
623 -> 627 ;
628 [label="squared_error = 0.0\nsamples = 3\nvalue = 0.0"] ;
596 -> 628 ;
629 [label="EFraction <= 0.6\nsquared_error = 0.1\nsamples = 99\nvalue = 0.9"] ;
593 -> 629 ;
630 [label="EFraction <= 0.6\nsquared_error = 0.1\nsamples = 86\nvalue = 0.8"] ;
629 -> 630 ;
631 [label="Months <= 51.5\nsquared_error = 0.1\nsamples = 85\nvalue = 0.8"] ;
630 -> 631 ;
632 [label="Intervention <= 1.5\nsquared_error = 0.2\nsamples = 17\nvalue = 0.7"] ;
631 -> 632 ;
633 [label="EFraction <= 0.3\nsquared_error = 0.2\nsamples = 15\nvalue = 0.8"] ;
632 -> 633 ;
634 [label="squared_error = 0.0\nsamples = 3\nvalue = 1.0"] ;
633 -> 634 ;
635 [label="EFraction <= 0.4\nsquared_error = 0.2\nsamples = 12\nvalue = 0.7"] ;
633 -> 635 ;
636 [label="squared_error = 0.0\nsamples = 2\nvalue = 0.0"] ;
635 -> 636 ;
637 [label="EFraction <= 0.5\nsquared_error = 0.1\nsamples = 10\nvalue = 0.8"] ;
635 -> 637 ;
638 [label="squared_error = 0.0\nsamples = 5\nvalue = 1.0"] ;
637 -> 638 ;
639 [label="Months <= 49.0\nsquared_error = 0.2\nsamples = 5\nvalue = 0.7"] ;
637 -> 639 ;
640 [label="squared_error = 0.0\nsamples = 1\nvalue = 0.0"] ;
639 -> 640 ;
641 [label="Months <= 50.5\nsquared_error = 0.2\nsamples = 4\nvalue = 0.8"] ;
639 -> 641 ;
642 [label="squared_error = 0.0\nsamples = 2\nvalue = 1.0"] ;
641 -> 642 ;
643 [label="EFraction <= 0.5\nsquared_error = 0.2\nsamples = 2\nvalue = 0.7"] ;
641 -> 643 ;
644 [label="squared_error = 0.0\nsamples = 1\nvalue = 0.0"] ;
643 -> 644 ;
645 [label="squared_error = 0.0\nsamples = 1\nvalue = 1.0"] ;
643 -> 645 ;
646 [label="EFraction <= 0.5\nsquared_error = 0.2\nsamples = 2\nvalue = 0.3"] ;
632 -> 646 ;
647 [label="squared_error = 0.0\nsamples = 1\nvalue = 0.0"] ;
646 -> 647 ;
648 [label="squared_error = 0.0\nsamples = 1\nvalue = 1.0"] ;
646 -> 648 ;
649 [label="EFraction <= 0.3\nsquared_error = 0.1\nsamples = 68\nvalue = 0.9"] ;
631 -> 649 ;
650 [label="squared_error = 0.0\nsamples = 1\nvalue = 0.0"] ;
649 -> 650 ;
651 [label="Months <= 57.5\nsquared_error = 0.1\nsamples = 67\nvalue = 0.9"] ;
649 -> 651 ;
652 [label="squared_error = 0.0\nsamples = 17\nvalue = 1.0"] ;
651 -> 652 ;
653 [label="Months <= 85.5\nsquared_error = 0.1\nsamples = 50\nvalue = 0.8"] ;
651 -> 653 ;
654 [label="EFraction <= 0.5\nsquared_error = 0.1\nsamples = 39\nvalue = 0.9"] ;
653 -> 654 ;
655 [label="Months <= 58.5\nsquared_error = 0.2\nsamples = 26\nvalue = 0.8"] ;
654 -> 655 ;
656 [label="squared_error = 0.0\nsamples = 1\nvalue = 0.0"] ;
655 -> 656 ;
657 [label="EFraction <= 0.5\nsquared_error = 0.2\nsamples = 25\nvalue = 0.8"] ;
655 -> 657 ;
658 [label="Months <= 68.5\nsquared_error = 0.1\nsamples = 20\nvalue = 0.9"] ;
657 -> 658 ;
659 [label="squared_error = 0.0\nsamples = 9\nvalue = 1.0"] ;
658 -> 659 ;
660 [label="Months <= 71.5\nsquared_error = 0.2\nsamples = 11\nvalue = 0.8"] ;
658 -> 660 ;
661 [label="squared_error = 0.0\nsamples = 1\nvalue = 0.0"] ;
660 -> 661 ;
662 [label="EFraction <= 0.4\nsquared_error = 0.1\nsamples = 10\nvalue = 0.9"] ;
660 -> 662 ;
663 [label="EFraction <= 0.4\nsquared_error = 0.2\nsamples = 6\nvalue = 0.8"] ;
662 -> 663 ;
664 [label="Intervention <= 1.0\nsquared_error = 0.1\nsamples = 5\nvalue = 0.9"] ;
663 -> 664 ;
665 [label="squared_error = 0.0\nsamples = 3\nvalue = 1.0"] ;
664 -> 665 ;
666 [label="EFraction <= 0.3\nsquared_error = 0.2\nsamples = 2\nvalue = 0.7"] ;
664 -> 666 ;
667 [label="squared_error = 0.0\nsamples = 1\nvalue = 0.0"] ;
666 -> 667 ;
668 [label="squared_error = 0.0\nsamples = 1\nvalue = 1.0"] ;
666 -> 668 ;
669 [label="squared_error = 0.0\nsamples = 1\nvalue = 0.0"] ;
663 -> 669 ;
670 [label="squared_error = 0.0\nsamples = 4\nvalue = 1.0"] ;
662 -> 670 ;
671 [label="Gender <= 1.5\nsquared_error = 0.2\nsamples = 5\nvalue = 0.5"] ;
657 -> 671 ;
672 [label="squared_error = 0.0\nsamples = 1\nvalue = 1.0"] ;
671 -> 672 ;
673 [label="Months <= 67.0\nsquared_error = 0.2\nsamples = 4\nvalue = 0.2"] ;
671 -> 673 ;
674 [label="squared_error = 0.0\nsamples = 3\nvalue = 0.0"] ;
673 -> 674 ;
675 [label="squared_error = 0.0\nsamples = 1\nvalue = 1.0"] ;
673 -> 675 ;
676 [label="EFraction <= 0.6\nsquared_error = 0.0\nsamples = 13\nvalue = 1.0"] ;
654 -> 676 ;
677 [label="squared_error = 0.0\nsamples = 11\nvalue = 1.0"] ;
676 -> 677 ;
678 [label="Gender <= 1.5\nsquared_error = 0.2\nsamples = 2\nvalue = 0.7"] ;
676 -> 678 ;
679 [label="squared_error = 0.0\nsamples = 1\nvalue = 1.0"] ;
678 -> 679 ;
680 [label="squared_error = 0.0\nsamples = 1\nvalue = 0.0"] ;
678 -> 680 ;
681 [label="EFraction <= 0.5\nsquared_error = 0.2\nsamples = 11\nvalue = 0.7"] ;
653 -> 681 ;
682 [label="squared_error = 0.0\nsamples = 6\nvalue = 1.0"] ;
681 -> 682 ;
683 [label="EFraction <= 0.6\nsquared_error = 0.2\nsamples = 5\nvalue = 0.3"] ;
681 -> 683 ;
684 [label="squared_error = 0.0\nsamples = 4\nvalue = 0.0"] ;
683 -> 684 ;
685 [label="squared_error = 0.0\nsamples = 1\nvalue = 1.0"] ;
683 -> 685 ;
686 [label="squared_error = 0.0\nsamples = 1\nvalue = 0.0"] ;
630 -> 686 ;
687 [label="squared_error = 0.0\nsamples = 13\nvalue = 1.0"] ;
629 -> 687 ;
688 [label="EFraction <= 0.4\nsquared_error = 0.2\nsamples = 11\nvalue = 0.5"] ;
592 -> 688 ;
689 [label="squared_error = 0.0\nsamples = 3\nvalue = 1.0"] ;
688 -> 689 ;
690 [label="EFraction <= 0.4\nsquared_error = 0.2\nsamples = 8\nvalue = 0.3"] ;
688 -> 690 ;
691 [label="squared_error = 0.0\nsamples = 3\nvalue = 0.0"] ;
690 -> 691 ;
692 [label="Age_Type <= 2.5\nsquared_error = 0.2\nsamples = 5\nvalue = 0.5"] ;
690 -> 692 ;
693 [label="squared_error = 0.0\nsamples = 1\nvalue = 1.0"] ;
692 -> 693 ;
694 [label="Intervention <= 3.5\nsquared_error = 0.2\nsamples = 4\nvalue = 0.4"] ;
692 -> 694 ;
695 [label="Months <= 61.0\nsquared_error = 0.2\nsamples = 2\nvalue = 0.7"] ;
694 -> 695 ;
696 [label="squared_error = 0.0\nsamples = 1\nvalue = 0.0"] ;
695 -> 696 ;
697 [label="squared_error = 0.0\nsamples = 1\nvalue = 1.0"] ;
695 -> 697 ;
698 [label="squared_error = 0.0\nsamples = 2\nvalue = 0.0"] ;
694 -> 698 ;
699 [label="Months <= 60.5\nsquared_error = 0.2\nsamples = 30\nvalue = 0.7"] ;
591 -> 699 ;
700 [label="Intervention <= 0.5\nsquared_error = 0.2\nsamples = 13\nvalue = 0.4"] ;
699 -> 700 ;
701 [label="Months <= 49.0\nsquared_error = 0.2\nsamples = 12\nvalue = 0.3"] ;
700 -> 701 ;
702 [label="squared_error = 0.0\nsamples = 2\nvalue = 0.0"] ;
701 -> 702 ;
703 [label="EFraction <= 0.6\nsquared_error = 0.2\nsamples = 10\nvalue = 0.4"] ;
701 -> 703 ;
704 [label="squared_error = 0.0\nsamples = 2\nvalue = 1.0"] ;
703 -> 704 ;
705 [label="Months <= 51.0\nsquared_error = 0.2\nsamples = 8\nvalue = 0.3"] ;
703 -> 705 ;
706 [label="squared_error = 0.0\nsamples = 1\nvalue = 1.0"] ;
705 -> 706 ;
707 [label="EFraction <= 0.6\nsquared_error = 0.2\nsamples = 7\nvalue = 0.2"] ;
705 -> 707 ;
708 [label="squared_error = 0.0\nsamples = 3\nvalue = 0.0"] ;
707 -> 708 ;
709 [label="Months <= 55.0\nsquared_error = 0.2\nsamples = 4\nvalue = 0.5"] ;
707 -> 709 ;
710 [label="squared_error = 0.0\nsamples = 2\nvalue = 0.0"] ;
709 -> 710 ;
711 [label="squared_error = 0.0\nsamples = 2\nvalue = 1.0"] ;
709 -> 711 ;
712 [label="squared_error = 0.0\nsamples = 1\nvalue = 1.0"] ;
700 -> 712 ;
713 [label="EFraction <= 0.6\nsquared_error = 0.1\nsamples = 17\nvalue = 0.9"] ;
699 -> 713 ;
714 [label="Gender <= 1.5\nsquared_error = 0.2\nsamples = 7\nvalue = 0.7"] ;
713 -> 714 ;
715 [label="squared_error = 0.0\nsamples = 4\nvalue = 1.0"] ;
714 -> 715 ;
716 [label="EFraction <= 0.6\nsquared_error = 0.2\nsamples = 3\nvalue = 0.3"] ;
714 -> 716 ;
717 [label="squared_error = 0.0\nsamples = 1\nvalue = 1.0"] ;
716 -> 717 ;
718 [label="squared_error = 0.0\nsamples = 2\nvalue = 0.0"] ;
716 -> 718 ;
719 [label="squared_error = 0.0\nsamples = 10\nvalue = 1.0"] ;
713 -> 719 ;
720 [label="squared_error = 0.0\nsamples = 24\nvalue = 1.0"] ;
590 -> 720 ;
721 [label="Months <= 98.5\nsquared_error = 0.1\nsamples = 7\nvalue = 0.2"] ;
589 -> 721 ;
722 [label="squared_error = 0.0\nsamples = 6\nvalue = 0.0"] ;
721 -> 722 ;
723 [label="squared_error = 0.0\nsamples = 1\nvalue = 1.0"] ;
721 -> 723 ;
724 [label="Intervention <= 7.5\nsquared_error = 0.1\nsamples = 19\nvalue = 0.9"] ;
588 -> 724 ;
725 [label="squared_error = 0.0\nsamples = 17\nvalue = 1.0"] ;
724 -> 725 ;
726 [label="Months <= 55.5\nsquared_error = 0.2\nsamples = 2\nvalue = 0.3"] ;
724 -> 726 ;
727 [label="squared_error = 0.0\nsamples = 1\nvalue = 1.0"] ;
726 -> 727 ;
728 [label="squared_error = 0.0\nsamples = 1\nvalue = 0.0"] ;
726 -> 728 ;
729 [label="EFraction <= 0.7\nsquared_error = 0.2\nsamples = 12\nvalue = 0.6"] ;
587 -> 729 ;
730 [label="EFraction <= 0.6\nsquared_error = 0.2\nsamples = 11\nvalue = 0.7"] ;
729 -> 730 ;
731 [label="EFraction <= 0.5\nsquared_error = 0.2\nsamples = 8\nvalue = 0.5"] ;
730 -> 731 ;
732 [label="Months <= 108.5\nsquared_error = 0.2\nsamples = 6\nvalue = 0.7"] ;
731 -> 732 ;
733 [label="squared_error = 0.0\nsamples = 1\nvalue = 0.0"] ;
732 -> 733 ;
734 [label="Months <= 116.5\nsquared_error = 0.1\nsamples = 5\nvalue = 0.8"] ;
732 -> 734 ;
735 [label="squared_error = 0.0\nsamples = 4\nvalue = 1.0"] ;
734 -> 735 ;
736 [label="squared_error = 0.0\nsamples = 1\nvalue = 0.0"] ;
734 -> 736 ;
737 [label="squared_error = 0.0\nsamples = 2\nvalue = 0.0"] ;
731 -> 737 ;
738 [label="squared_error = 0.0\nsamples = 3\nvalue = 1.0"] ;
730 -> 738 ;
739 [label="squared_error = 0.0\nsamples = 1\nvalue = 0.0"] ;
729 -> 739 ;
740 [label="Months <= 132.5\nsquared_error = 0.0\nsamples = 24\nvalue = 1.0"] ;
586 -> 740 ;
741 [label="Months <= 131.5\nsquared_error = 0.1\nsamples = 8\nvalue = 0.9"] ;
740 -> 741 ;
742 [label="squared_error = 0.0\nsamples = 6\nvalue = 1.0"] ;
741 -> 742 ;
743 [label="Intervention <= 0.5\nsquared_error = 0.2\nsamples = 2\nvalue = 0.5"] ;
741 -> 743 ;
744 [label="squared_error = 0.0\nsamples = 1\nvalue = 1.0"] ;
743 -> 744 ;
745 [label="squared_error = 0.0\nsamples = 1\nvalue = 0.0"] ;
743 -> 745 ;
746 [label="squared_error = 0.0\nsamples = 16\nvalue = 1.0"] ;
740 -> 746 ;
747 [label="squared_error = 0.0\nsamples = 1\nvalue = 0.0"] ;
585 -> 747 ;
748 [label="Months <= 13.5\nsquared_error = 0.1\nsamples = 2132\nvalue = 0.9"] ;
326 -> 748 ;
749 [label="Intervention <= 0.5\nsquared_error = 0.1\nsamples = 140\nvalue = 0.9"] ;
748 -> 749 ;
750 [label="Months <= 5.5\nsquared_error = 0.2\nsamples = 37\nvalue = 0.7"] ;
749 -> 750 ;
751 [label="EFraction <= 10.5\nsquared_error = 0.2\nsamples = 6\nvalue = 0.4"] ;
750 -> 751 ;
752 [label="Gender <= 1.5\nsquared_error = 0.1\nsamples = 5\nvalue = 0.1"] ;
751 -> 752 ;
753 [label="squared_error = 0.0\nsamples = 3\nvalue = 0.0"] ;
752 -> 753 ;
754 [label="Months <= 3.0\nsquared_error = 0.2\nsamples = 2\nvalue = 0.3"] ;
752 -> 754 ;
755 [label="squared_error = 0.0\nsamples = 1\nvalue = 1.0"] ;
754 -> 755 ;
756 [label="squared_error = 0.0\nsamples = 1\nvalue = 0.0"] ;
754 -> 756 ;
757 [label="squared_error = 0.0\nsamples = 1\nvalue = 1.0"] ;
751 -> 757 ;
758 [label="Age_Type <= 3.5\nsquared_error = 0.2\nsamples = 31\nvalue = 0.8"] ;
750 -> 758 ;
759 [label="Months <= 12.5\nsquared_error = 0.1\nsamples = 30\nvalue = 0.8"] ;
758 -> 759 ;
760 [label="Gender <= 0.5\nsquared_error = 0.1\nsamples = 26\nvalue = 0.9"] ;
759 -> 760 ;
761 [label="EFraction <= 3.0\nsquared_error = 0.2\nsamples = 9\nvalue = 0.7"] ;
760 -> 761 ;
762 [label="Months <= 6.5\nsquared_error = 0.2\nsamples = 8\nvalue = 0.7"] ;
761 -> 762 ;
763 [label="squared_error = 0.0\nsamples = 1\nvalue = 1.0"] ;
762 -> 763 ;
764 [label="EFraction <= 0.9\nsquared_error = 0.2\nsamples = 7\nvalue = 0.6"] ;
762 -> 764 ;
765 [label="squared_error = 0.0\nsamples = 1\nvalue = 1.0"] ;
764 -> 765 ;
766 [label="Age_Type <= 2.5\nsquared_error = 0.2\nsamples = 6\nvalue = 0.6"] ;
764 -> 766 ;
767 [label="squared_error = 0.0\nsamples = 1\nvalue = 1.0"] ;
766 -> 767 ;
768 [label="Months <= 8.0\nsquared_error = 0.2\nsamples = 5\nvalue = 0.5"] ;
766 -> 768 ;
769 [label="squared_error = 0.2\nsamples = 2\nvalue = 0.5"] ;
768 -> 769 ;
770 [label="squared_error = 0.2\nsamples = 3\nvalue = 0.5"] ;
768 -> 770 ;
771 [label="squared_error = 0.0\nsamples = 1\nvalue = 1.0"] ;
761 -> 771 ;
772 [label="Months <= 10.5\nsquared_error = 0.0\nsamples = 17\nvalue = 1.0"] ;
760 -> 772 ;
773 [label="squared_error = 0.0\nsamples = 10\nvalue = 1.0"] ;
772 -> 773 ;
774 [label="Months <= 11.5\nsquared_error = 0.1\nsamples = 7\nvalue = 0.9"] ;
772 -> 774 ;
775 [label="EFraction <= 0.9\nsquared_error = 0.1\nsamples = 5\nvalue = 0.9"] ;
774 -> 775 ;
776 [label="squared_error = 0.0\nsamples = 1\nvalue = 1.0"] ;
775 -> 776 ;
777 [label="squared_error = 0.2\nsamples = 4\nvalue = 0.8"] ;
775 -> 777 ;
778 [label="squared_error = 0.0\nsamples = 2\nvalue = 1.0"] ;
774 -> 778 ;
779 [label="EFraction <= 1.0\nsquared_error = 0.2\nsamples = 4\nvalue = 0.6"] ;
759 -> 779 ;
780 [label="squared_error = 0.0\nsamples = 1\nvalue = 0.0"] ;
779 -> 780 ;
781 [label="squared_error = 0.2\nsamples = 3\nvalue = 0.8"] ;
779 -> 781 ;
782 [label="squared_error = 0.0\nsamples = 1\nvalue = 0.0"] ;
758 -> 782 ;
783 [label="EFraction <= 0.8\nsquared_error = 0.1\nsamples = 103\nvalue = 0.9"] ;
749 -> 783 ;
784 [label="squared_error = 0.0\nsamples = 1\nvalue = 0.0"] ;
783 -> 784 ;
785 [label="Months <= 6.5\nsquared_error = 0.1\nsamples = 102\nvalue = 0.9"] ;
783 -> 785 ;
786 [label="squared_error = 0.0\nsamples = 27\nvalue = 1.0"] ;
785 -> 786 ;
787 [label="Months <= 7.5\nsquared_error = 0.1\nsamples = 75\nvalue = 0.9"] ;
785 -> 787 ;
788 [label="EFraction <= 1.1\nsquared_error = 0.2\nsamples = 6\nvalue = 0.7"] ;
787 -> 788 ;
789 [label="Intervention <= 7.0\nsquared_error = 0.2\nsamples = 4\nvalue = 0.6"] ;
788 -> 789 ;
790 [label="squared_error = 0.0\nsamples = 1\nvalue = 1.0"] ;
789 -> 790 ;
791 [label="squared_error = 0.2\nsamples = 3\nvalue = 0.6"] ;
789 -> 791 ;
792 [label="squared_error = 0.0\nsamples = 2\nvalue = 1.0"] ;
788 -> 792 ;
793 [label="Intervention <= 5.5\nsquared_error = 0.1\nsamples = 69\nvalue = 0.9"] ;
787 -> 793 ;
794 [label="Intervention <= 4.5\nsquared_error = 0.1\nsamples = 42\nvalue = 0.9"] ;
793 -> 794 ;
795 [label="Gender <= 0.5\nsquared_error = 0.1\nsamples = 33\nvalue = 0.9"] ;
794 -> 795 ;
796 [label="Months <= 11.5\nsquared_error = 0.2\nsamples = 8\nvalue = 0.8"] ;
795 -> 796 ;
797 [label="squared_error = 0.0\nsamples = 4\nvalue = 1.0"] ;
796 -> 797 ;
798 [label="Months <= 12.5\nsquared_error = 0.2\nsamples = 4\nvalue = 0.7"] ;
796 -> 798 ;
799 [label="squared_error = 0.0\nsamples = 1\nvalue = 0.0"] ;
798 -> 799 ;
800 [label="squared_error = 0.0\nsamples = 3\nvalue = 1.0"] ;
798 -> 800 ;
801 [label="Months <= 9.5\nsquared_error = 0.0\nsamples = 25\nvalue = 1.0"] ;
795 -> 801 ;
802 [label="Intervention <= 2.0\nsquared_error = 0.1\nsamples = 9\nvalue = 0.9"] ;
801 -> 802 ;
803 [label="squared_error = 0.0\nsamples = 5\nvalue = 1.0"] ;
802 -> 803 ;
804 [label="Intervention <= 3.5\nsquared_error = 0.2\nsamples = 4\nvalue = 0.7"] ;
802 -> 804 ;
805 [label="EFraction <= 1.2\nsquared_error = 0.2\nsamples = 3\nvalue = 0.5"] ;
804 -> 805 ;
806 [label="Gender <= 1.5\nsquared_error = 0.2\nsamples = 2\nvalue = 0.3"] ;
805 -> 806 ;
807 [label="squared_error = 0.0\nsamples = 1\nvalue = 1.0"] ;
806 -> 807 ;
808 [label="squared_error = 0.0\nsamples = 1\nvalue = 0.0"] ;
806 -> 808 ;
809 [label="squared_error = 0.0\nsamples = 1\nvalue = 1.0"] ;
805 -> 809 ;
810 [label="squared_error = 0.0\nsamples = 1\nvalue = 1.0"] ;
804 -> 810 ;
811 [label="squared_error = 0.0\nsamples = 16\nvalue = 1.0"] ;
801 -> 811 ;
812 [label="Months <= 9.5\nsquared_error = 0.2\nsamples = 9\nvalue = 0.8"] ;
794 -> 812 ;
813 [label="squared_error = 0.0\nsamples = 3\nvalue = 1.0"] ;
812 -> 813 ;
814 [label="Months <= 10.5\nsquared_error = 0.2\nsamples = 6\nvalue = 0.6"] ;
812 -> 814 ;
815 [label="Gender <= 1.0\nsquared_error = 0.2\nsamples = 3\nvalue = 0.2"] ;
814 -> 815 ;
816 [label="squared_error = 0.0\nsamples = 1\nvalue = 1.0"] ;
815 -> 816 ;
817 [label="squared_error = 0.0\nsamples = 2\nvalue = 0.0"] ;
815 -> 817 ;
818 [label="squared_error = 0.0\nsamples = 3\nvalue = 1.0"] ;
814 -> 818 ;
819 [label="squared_error = 0.0\nsamples = 27\nvalue = 1.0"] ;
793 -> 819 ;
820 [label="EFraction <= 0.9\nsquared_error = 0.1\nsamples = 1992\nvalue = 0.9"] ;
748 -> 820 ;
821 [label="Intervention <= 0.5\nsquared_error = 0.1\nsamples = 175\nvalue = 0.9"] ;
820 -> 821 ;
822 [label="Months <= 16.5\nsquared_error = 0.1\nsamples = 111\nvalue = 0.9"] ;
821 -> 822 ;
823 [label="Gender <= 1.5\nsquared_error = 0.2\nsamples = 4\nvalue = 0.4"] ;
822 -> 823 ;
824 [label="squared_error = 0.0\nsamples = 2\nvalue = 1.0"] ;
823 -> 824 ;
825 [label="squared_error = 0.0\nsamples = 2\nvalue = 0.0"] ;
823 -> 825 ;
826 [label="EFraction <= 0.8\nsquared_error = 0.1\nsamples = 107\nvalue = 0.9"] ;
822 -> 826 ;
827 [label="Gender <= 1.5\nsquared_error = 0.1\nsamples = 82\nvalue = 0.9"] ;
826 -> 827 ;
828 [label="EFraction <= 0.7\nsquared_error = 0.0\nsamples = 30\nvalue = 1.0"] ;
827 -> 828 ;
829 [label="Gender <= 0.5\nsquared_error = 0.2\nsamples = 4\nvalue = 0.8"] ;
828 -> 829 ;
830 [label="squared_error = 0.0\nsamples = 1\nvalue = 0.0"] ;
829 -> 830 ;
831 [label="squared_error = 0.0\nsamples = 3\nvalue = 1.0"] ;
829 -> 831 ;
832 [label="squared_error = 0.0\nsamples = 26\nvalue = 1.0"] ;
828 -> 832 ;
833 [label="EFraction <= 0.8\nsquared_error = 0.1\nsamples = 52\nvalue = 0.9"] ;
827 -> 833 ;
834 [label="squared_error = 0.0\nsamples = 17\nvalue = 1.0"] ;
833 -> 834 ;
835 [label="EFraction <= 0.8\nsquared_error = 0.2\nsamples = 35\nvalue = 0.8"] ;
833 -> 835 ;
836 [label="EFraction <= 0.8\nsquared_error = 0.2\nsamples = 10\nvalue = 0.5"] ;
835 -> 836 ;
837 [label="EFraction <= 0.8\nsquared_error = 0.2\nsamples = 8\nvalue = 0.7"] ;
836 -> 837 ;
838 [label="EFraction <= 0.8\nsquared_error = 0.2\nsamples = 4\nvalue = 0.3"] ;
837 -> 838 ;
839 [label="squared_error = 0.0\nsamples = 1\nvalue = 0.0"] ;
838 -> 839 ;
840 [label="EFraction <= 0.8\nsquared_error = 0.2\nsamples = 3\nvalue = 0.5"] ;
838 -> 840 ;
841 [label="squared_error = 0.0\nsamples = 2\nvalue = 1.0"] ;
840 -> 841 ;
842 [label="squared_error = 0.0\nsamples = 1\nvalue = 0.0"] ;
840 -> 842 ;
843 [label="squared_error = 0.0\nsamples = 4\nvalue = 1.0"] ;
837 -> 843 ;
844 [label="squared_error = 0.0\nsamples = 2\nvalue = 0.0"] ;
836 -> 844 ;
845 [label="Months <= 37.0\nsquared_error = 0.1\nsamples = 25\nvalue = 0.9"] ;
835 -> 845 ;
846 [label="Months <= 35.5\nsquared_error = 0.2\nsamples = 7\nvalue = 0.7"] ;
845 -> 846 ;
847 [label="EFraction <= 0.8\nsquared_error = 0.1\nsamples = 5\nvalue = 0.9"] ;
846 -> 847 ;
848 [label="squared_error = 0.0\nsamples = 3\nvalue = 1.0"] ;
847 -> 848 ;
849 [label="EFraction <= 0.8\nsquared_error = 0.2\nsamples = 2\nvalue = 0.8"] ;
847 -> 849 ;
850 [label="squared_error = 0.0\nsamples = 1\nvalue = 0.0"] ;
849 -> 850 ;
851 [label="squared_error = 0.0\nsamples = 1\nvalue = 1.0"] ;
849 -> 851 ;
852 [label="squared_error = 0.2\nsamples = 2\nvalue = 0.2"] ;
846 -> 852 ;
853 [label="squared_error = 0.0\nsamples = 18\nvalue = 1.0"] ;
845 -> 853 ;
854 [label="EFraction <= 0.8\nsquared_error = 0.2\nsamples = 25\nvalue = 0.8"] ;
826 -> 854 ;
855 [label="Months <= 40.5\nsquared_error = 0.2\nsamples = 7\nvalue = 0.5"] ;
854 -> 855 ;
856 [label="Months <= 35.0\nsquared_error = 0.2\nsamples = 3\nvalue = 0.8"] ;
855 -> 856 ;
857 [label="squared_error = 0.0\nsamples = 1\nvalue = 0.0"] ;
856 -> 857 ;
858 [label="squared_error = 0.0\nsamples = 2\nvalue = 1.0"] ;
856 -> 858 ;
859 [label="Months <= 55.0\nsquared_error = 0.2\nsamples = 4\nvalue = 0.3"] ;
855 -> 859 ;
860 [label="squared_error = 0.0\nsamples = 2\nvalue = 0.0"] ;
859 -> 860 ;
861 [label="squared_error = 0.0\nsamples = 2\nvalue = 1.0"] ;
859 -> 861 ;
862 [label="Months <= 26.5\nsquared_error = 0.1\nsamples = 18\nvalue = 0.9"] ;
854 -> 862 ;
863 [label="EFraction <= 0.9\nsquared_error = 0.2\nsamples = 3\nvalue = 0.4"] ;
862 -> 863 ;
864 [label="squared_error = 0.0\nsamples = 1\nvalue = 1.0"] ;
863 -> 864 ;
865 [label="squared_error = 0.0\nsamples = 2\nvalue = 0.0"] ;
863 -> 865 ;
866 [label="Months <= 126.5\nsquared_error = 0.0\nsamples = 15\nvalue = 1.0"] ;
862 -> 866 ;
867 [label="squared_error = 0.0\nsamples = 14\nvalue = 1.0"] ;
866 -> 867 ;
868 [label="squared_error = 0.0\nsamples = 1\nvalue = 0.0"] ;
866 -> 868 ;
869 [label="Months <= 136.5\nsquared_error = 0.0\nsamples = 64\nvalue = 1.0"] ;
821 -> 869 ;
870 [label="Intervention <= 8.5\nsquared_error = 0.0\nsamples = 62\nvalue = 1.0"] ;
869 -> 870 ;
871 [label="squared_error = 0.0\nsamples = 45\nvalue = 1.0"] ;
870 -> 871 ;
872 [label="Intervention <= 9.5\nsquared_error = 0.1\nsamples = 17\nvalue = 0.9"] ;
870 -> 872 ;
873 [label="squared_error = 0.0\nsamples = 1\nvalue = 0.0"] ;
872 -> 873 ;
874 [label="EFraction <= 0.8\nsquared_error = 0.0\nsamples = 16\nvalue = 1.0"] ;
872 -> 874 ;
875 [label="Gender <= 0.5\nsquared_error = 0.1\nsamples = 5\nvalue = 0.8"] ;
874 -> 875 ;
876 [label="squared_error = 0.0\nsamples = 1\nvalue = 0.0"] ;
875 -> 876 ;
877 [label="squared_error = 0.0\nsamples = 4\nvalue = 1.0"] ;
875 -> 877 ;
878 [label="squared_error = 0.0\nsamples = 11\nvalue = 1.0"] ;
874 -> 878 ;
879 [label="Gender <= 1.0\nsquared_error = 0.2\nsamples = 2\nvalue = 0.7"] ;
869 -> 879 ;
880 [label="squared_error = 0.0\nsamples = 1\nvalue = 0.0"] ;
879 -> 880 ;
881 [label="squared_error = 0.0\nsamples = 1\nvalue = 1.0"] ;
879 -> 881 ;
882 [label="EFraction <= 2.6\nsquared_error = 0.0\nsamples = 1817\nvalue = 0.9"] ;
820 -> 882 ;
883 [label="Months <= 27.5\nsquared_error = 0.0\nsamples = 1776\nvalue = 1.0"] ;
882 -> 883 ;
884 [label="Intervention <= 0.5\nsquared_error = 0.1\nsamples = 365\nvalue = 0.9"] ;
883 -> 884 ;
885 [label="EFraction <= 1.2\nsquared_error = 0.1\nsamples = 199\nvalue = 0.9"] ;
884 -> 885 ;
886 [label="Gender <= 0.5\nsquared_error = 0.1\nsamples = 172\nvalue = 0.9"] ;
885 -> 886 ;
887 [label="Months <= 20.5\nsquared_error = 0.1\nsamples = 47\nvalue = 0.8"] ;
886 -> 887 ;
888 [label="Months <= 15.5\nsquared_error = 0.0\nsamples = 17\nvalue = 1.0"] ;
887 -> 888 ;
889 [label="Months <= 14.5\nsquared_error = 0.2\nsamples = 4\nvalue = 0.8"] ;
888 -> 889 ;
890 [label="squared_error = 0.0\nsamples = 2\nvalue = 1.0"] ;
889 -> 890 ;
891 [label="squared_error = 0.2\nsamples = 2\nvalue = 0.5"] ;
889 -> 891 ;
892 [label="squared_error = 0.0\nsamples = 13\nvalue = 1.0"] ;
888 -> 892 ;
893 [label="Months <= 22.5\nsquared_error = 0.2\nsamples = 30\nvalue = 0.7"] ;
887 -> 893 ;
894 [label="Age_Type <= 4.5\nsquared_error = 0.2\nsamples = 6\nvalue = 0.5"] ;
893 -> 894 ;
895 [label="Months <= 21.5\nsquared_error = 0.2\nsamples = 5\nvalue = 0.6"] ;
894 -> 895 ;
896 [label="squared_error = 0.2\nsamples = 3\nvalue = 0.4"] ;
895 -> 896 ;
897 [label="squared_error = 0.0\nsamples = 2\nvalue = 1.0"] ;
895 -> 897 ;
898 [label="squared_error = 0.0\nsamples = 1\nvalue = 0.0"] ;
894 -> 898 ;
899 [label="Months <= 23.5\nsquared_error = 0.1\nsamples = 24\nvalue = 0.8"] ;
893 -> 899 ;
900 [label="squared_error = 0.0\nsamples = 4\nvalue = 1.0"] ;
899 -> 900 ;
901 [label="EFraction <= 1.0\nsquared_error = 0.2\nsamples = 20\nvalue = 0.8"] ;
899 -> 901 ;
902 [label="EFraction <= 1.0\nsquared_error = 0.2\nsamples = 16\nvalue = 0.7"] ;
901 -> 902 ;
903 [label="Months <= 26.5\nsquared_error = 0.2\nsamples = 15\nvalue = 0.8"] ;
902 -> 903 ;
904 [label="Months <= 25.5\nsquared_error = 0.2\nsamples = 12\nvalue = 0.7"] ;
903 -> 904 ;
905 [label="Months <= 24.5\nsquared_error = 0.1\nsamples = 6\nvalue = 0.9"] ;
904 -> 905 ;
906 [label="squared_error = 0.2\nsamples = 3\nvalue = 0.8"] ;
905 -> 906 ;
907 [label="squared_error = 0.0\nsamples = 3\nvalue = 1.0"] ;
905 -> 907 ;
908 [label="squared_error = 0.2\nsamples = 6\nvalue = 0.6"] ;
904 -> 908 ;
909 [label="squared_error = 0.0\nsamples = 3\nvalue = 1.0"] ;
903 -> 909 ;
910 [label="squared_error = 0.0\nsamples = 1\nvalue = 0.0"] ;
902 -> 910 ;
911 [label="squared_error = 0.0\nsamples = 4\nvalue = 1.0"] ;
901 -> 911 ;
912 [label="EFraction <= 1.1\nsquared_error = 0.1\nsamples = 125\nvalue = 0.9"] ;
886 -> 912 ;
913 [label="Months <= 16.5\nsquared_error = 0.1\nsamples = 120\nvalue = 0.9"] ;
912 -> 913 ;
914 [label="squared_error = 0.0\nsamples = 11\nvalue = 1.0"] ;
913 -> 914 ;
915 [label="EFraction <= 0.9\nsquared_error = 0.1\nsamples = 109\nvalue = 0.9"] ;
913 -> 915 ;
916 [label="squared_error = 0.0\nsamples = 1\nvalue = 0.0"] ;
915 -> 916 ;
917 [label="Months <= 19.5\nsquared_error = 0.1\nsamples = 108\nvalue = 0.9"] ;
915 -> 917 ;
918 [label="Gender <= 1.5\nsquared_error = 0.1\nsamples = 35\nvalue = 0.8"] ;
917 -> 918 ;
919 [label="Months <= 18.5\nsquared_error = 0.1\nsamples = 13\nvalue = 0.9"] ;
918 -> 919 ;
920 [label="EFraction <= 1.0\nsquared_error = 0.1\nsamples = 8\nvalue = 0.8"] ;
919 -> 920 ;
921 [label="squared_error = 0.0\nsamples = 2\nvalue = 1.0"] ;
920 -> 921 ;
922 [label="Months <= 17.5\nsquared_error = 0.2\nsamples = 6\nvalue = 0.8"] ;
920 -> 922 ;
923 [label="squared_error = 0.0\nsamples = 1\nvalue = 1.0"] ;
922 -> 923 ;
924 [label="squared_error = 0.2\nsamples = 5\nvalue = 0.8"] ;
922 -> 924 ;
925 [label="squared_error = 0.0\nsamples = 5\nvalue = 1.0"] ;
919 -> 925 ;
926 [label="EFraction <= 1.1\nsquared_error = 0.2\nsamples = 22\nvalue = 0.8"] ;
918 -> 926 ;
927 [label="EFraction <= 1.0\nsquared_error = 0.2\nsamples = 19\nvalue = 0.8"] ;
926 -> 927 ;
928 [label="EFraction <= 1.0\nsquared_error = 0.2\nsamples = 15\nvalue = 0.8"] ;
927 -> 928 ;
929 [label="Months <= 18.5\nsquared_error = 0.2\nsamples = 2\nvalue = 0.5"] ;
928 -> 929 ;
930 [label="squared_error = 0.0\nsamples = 1\nvalue = 1.0"] ;
929 -> 930 ;
931 [label="squared_error = 0.0\nsamples = 1\nvalue = 0.0"] ;
929 -> 931 ;
932 [label="Months <= 17.5\nsquared_error = 0.2\nsamples = 13\nvalue = 0.8"] ;
928 -> 932 ;
933 [label="squared_error = 0.2\nsamples = 5\nvalue = 0.7"] ;
932 -> 933 ;
934 [label="Months <= 18.5\nsquared_error = 0.1\nsamples = 8\nvalue = 0.8"] ;
932 -> 934 ;
935 [label="squared_error = 0.0\nsamples = 1\nvalue = 1.0"] ;
934 -> 935 ;
936 [label="squared_error = 0.2\nsamples = 7\nvalue = 0.8"] ;
934 -> 936 ;
937 [label="squared_error = 0.0\nsamples = 4\nvalue = 1.0"] ;
927 -> 937 ;
938 [label="EFraction <= 1.1\nsquared_error = 0.2\nsamples = 3\nvalue = 0.6"] ;
926 -> 938 ;
939 [label="squared_error = 0.2\nsamples = 2\nvalue = 0.3"] ;
938 -> 939 ;
940 [label="squared_error = 0.0\nsamples = 1\nvalue = 1.0"] ;
938 -> 940 ;
941 [label="Months <= 24.5\nsquared_error = 0.1\nsamples = 73\nvalue = 0.9"] ;
917 -> 941 ;
942 [label="Gender <= 1.5\nsquared_error = 0.0\nsamples = 40\nvalue = 1.0"] ;
941 -> 942 ;
943 [label="Months <= 21.5\nsquared_error = 0.1\nsamples = 13\nvalue = 0.9"] ;
942 -> 943 ;
944 [label="Months <= 20.5\nsquared_error = 0.2\nsamples = 3\nvalue = 0.8"] ;
943 -> 944 ;
945 [label="squared_error = 0.0\nsamples = 1\nvalue = 1.0"] ;
944 -> 945 ;
946 [label="EFraction <= 1.0\nsquared_error = 0.2\nsamples = 2\nvalue = 0.5"] ;
944 -> 946 ;
947 [label="squared_error = 0.0\nsamples = 1\nvalue = 0.0"] ;
946 -> 947 ;
948 [label="squared_error = 0.0\nsamples = 1\nvalue = 1.0"] ;
946 -> 948 ;
949 [label="Months <= 23.5\nsquared_error = 0.1\nsamples = 10\nvalue = 0.9"] ;
943 -> 949 ;
950 [label="squared_error = 0.0\nsamples = 5\nvalue = 1.0"] ;
949 -> 950 ;
951 [label="EFraction <= 1.0\nsquared_error = 0.1\nsamples = 5\nvalue = 0.9"] ;
949 -> 951 ;
952 [label="squared_error = 0.0\nsamples = 1\nvalue = 1.0"] ;
951 -> 952 ;
953 [label="Age_Type <= 4.0\nsquared_error = 0.1\nsamples = 4\nvalue = 0.8"] ;
951 -> 953 ;
954 [label="EFraction <= 1.1\nsquared_error = 0.2\nsamples = 3\nvalue = 0.8"] ;
953 -> 954 ;
955 [label="squared_error = 0.2\nsamples = 2\nvalue = 0.8"] ;
954 -> 955 ;
956 [label="squared_error = 0.0\nsamples = 1\nvalue = 1.0"] ;
954 -> 956 ;
957 [label="squared_error = 0.0\nsamples = 1\nvalue = 1.0"] ;
953 -> 957 ;
958 [label="squared_error = 0.0\nsamples = 27\nvalue = 1.0"] ;
942 -> 958 ;
959 [label="EFraction <= 1.1\nsquared_error = 0.1\nsamples = 33\nvalue = 0.9"] ;
941 -> 959 ;
960 [label="EFraction <= 1.0\nsquared_error = 0.1\nsamples = 31\nvalue = 0.9"] ;
959 -> 960 ;
961 [label="Gender <= 1.5\nsquared_error = 0.1\nsamples = 24\nvalue = 0.9"] ;
960 -> 961 ;
962 [label="squared_error = 0.0\nsamples = 5\nvalue = 1.0"] ;
961 -> 962 ;
963 [label="EFraction <= 0.9\nsquared_error = 0.1\nsamples = 19\nvalue = 0.9"] ;
961 -> 963 ;
964 [label="Months <= 26.0\nsquared_error = 0.2\nsamples = 3\nvalue = 0.7"] ;
963 -> 964 ;
965 [label="squared_error = 0.0\nsamples = 2\nvalue = 1.0"] ;
964 -> 965 ;
966 [label="squared_error = 0.0\nsamples = 1\nvalue = 0.0"] ;
964 -> 966 ;
967 [label="Months <= 26.5\nsquared_error = 0.1\nsamples = 16\nvalue = 0.9"] ;
963 -> 967 ;
968 [label="Age_Type <= 4.0\nsquared_error = 0.1\nsamples = 12\nvalue = 0.8"] ;
967 -> 968 ;
969 [label="EFraction <= 1.0\nsquared_error = 0.1\nsamples = 10\nvalue = 0.8"] ;
968 -> 969 ;
970 [label="squared_error = 0.0\nsamples = 1\nvalue = 1.0"] ;
969 -> 970 ;
971 [label="Months <= 25.5\nsquared_error = 0.2\nsamples = 9\nvalue = 0.8"] ;
969 -> 971 ;
972 [label="squared_error = 0.1\nsamples = 5\nvalue = 0.9"] ;
971 -> 972 ;
973 [label="squared_error = 0.2\nsamples = 4\nvalue = 0.8"] ;
971 -> 973 ;
974 [label="squared_error = 0.0\nsamples = 2\nvalue = 1.0"] ;
968 -> 974 ;
975 [label="squared_error = 0.0\nsamples = 4\nvalue = 1.0"] ;
967 -> 975 ;
976 [label="squared_error = 0.0\nsamples = 7\nvalue = 1.0"] ;
960 -> 976 ;
977 [label="Months <= 26.0\nsquared_error = 0.2\nsamples = 2\nvalue = 0.7"] ;
959 -> 977 ;
978 [label="squared_error = 0.0\nsamples = 1\nvalue = 0.0"] ;
977 -> 978 ;
979 [label="squared_error = 0.0\nsamples = 1\nvalue = 1.0"] ;
977 -> 979 ;
980 [label="Months <= 21.5\nsquared_error = 0.2\nsamples = 5\nvalue = 0.7"] ;
912 -> 980 ;
981 [label="squared_error = 0.0\nsamples = 2\nvalue = 0.0"] ;
980 -> 981 ;
982 [label="squared_error = 0.0\nsamples = 3\nvalue = 1.0"] ;
980 -> 982 ;
983 [label="squared_error = 0.0\nsamples = 27\nvalue = 1.0"] ;
885 -> 983 ;
984 [label="EFraction <= 1.8\nsquared_error = 0.0\nsamples = 166\nvalue = 1.0"] ;
884 -> 984 ;
985 [label="Intervention <= 4.5\nsquared_error = 0.0\nsamples = 162\nvalue = 1.0"] ;
984 -> 985 ;
986 [label="squared_error = 0.0\nsamples = 82\nvalue = 1.0"] ;
985 -> 986 ;
987 [label="Intervention <= 5.5\nsquared_error = 0.0\nsamples = 80\nvalue = 1.0"] ;
985 -> 987 ;
988 [label="Months <= 18.5\nsquared_error = 0.1\nsamples = 22\nvalue = 0.8"] ;
987 -> 988 ;
989 [label="squared_error = 0.0\nsamples = 9\nvalue = 1.0"] ;
988 -> 989 ;
990 [label="Months <= 20.5\nsquared_error = 0.2\nsamples = 13\nvalue = 0.7"] ;
988 -> 990 ;
991 [label="squared_error = 0.0\nsamples = 2\nvalue = 0.0"] ;
990 -> 991 ;
992 [label="Months <= 22.5\nsquared_error = 0.2\nsamples = 11\nvalue = 0.8"] ;
990 -> 992 ;
993 [label="squared_error = 0.0\nsamples = 4\nvalue = 1.0"] ;
992 -> 993 ;
994 [label="EFraction <= 1.0\nsquared_error = 0.2\nsamples = 7\nvalue = 0.6"] ;
992 -> 994 ;
995 [label="Months <= 23.5\nsquared_error = 0.2\nsamples = 6\nvalue = 0.7"] ;
994 -> 995 ;
996 [label="squared_error = 0.2\nsamples = 2\nvalue = 0.3"] ;
995 -> 996 ;
997 [label="squared_error = 0.0\nsamples = 4\nvalue = 1.0"] ;
995 -> 997 ;
998 [label="squared_error = 0.0\nsamples = 1\nvalue = 0.0"] ;
994 -> 998 ;
999 [label="Months <= 24.5\nsquared_error = 0.0\nsamples = 58\nvalue = 1.0"] ;
987 -> 999 ;
1000 [label="squared_error = 0.0\nsamples = 47\nvalue = 1.0"] ;
999 -> 1000 ;
1001 [label="Gender <= 1.0\nsquared_error = 0.1\nsamples = 11\nvalue = 0.9"] ;
999 -> 1001 ;
1002 [label="Intervention <= 8.5\nsquared_error = 0.1\nsamples = 4\nvalue = 0.9"] ;
1001 -> 1002 ;
1003 [label="Months <= 25.5\nsquared_error = 0.2\nsamples = 2\nvalue = 0.8"] ;
1002 -> 1003 ;
1004 [label="squared_error = 0.0\nsamples = 1\nvalue = 0.0"] ;
1003 -> 1004 ;
1005 [label="squared_error = 0.0\nsamples = 1\nvalue = 1.0"] ;
1003 -> 1005 ;
1006 [label="squared_error = 0.0\nsamples = 2\nvalue = 1.0"] ;
1002 -> 1006 ;
1007 [label="squared_error = 0.0\nsamples = 7\nvalue = 1.0"] ;
1001 -> 1007 ;
1008 [label="EFraction <= 2.0\nsquared_error = 0.2\nsamples = 4\nvalue = 0.7"] ;
984 -> 1008 ;
1009 [label="squared_error = 0.0\nsamples = 1\nvalue = 0.0"] ;
1008 -> 1009 ;
1010 [label="squared_error = 0.0\nsamples = 3\nvalue = 1.0"] ;
1008 -> 1010 ;
1011 [label="Months <= 31.5\nsquared_error = 0.0\nsamples = 1411\nvalue = 1.0"] ;
883 -> 1011 ;
1012 [label="Age_Type <= 1.0\nsquared_error = 0.0\nsamples = 112\nvalue = 1.0"] ;
1011 -> 1012 ;
1013 [label="squared_error = 0.0\nsamples = 1\nvalue = 0.0"] ;
1012 -> 1013 ;
1014 [label="squared_error = 0.0\nsamples = 111\nvalue = 1.0"] ;
1012 -> 1014 ;
1015 [label="Intervention <= 7.5\nsquared_error = 0.0\nsamples = 1299\nvalue = 1.0"] ;
1011 -> 1015 ;
1016 [label="Intervention <= 6.0\nsquared_error = 0.0\nsamples = 1230\nvalue = 1.0"] ;
1015 -> 1016 ;
1017 [label="Months <= 155.5\nsquared_error = 0.0\nsamples = 1200\nvalue = 1.0"] ;
1016 -> 1017 ;
1018 [label="Age_Type <= 4.5\nsquared_error = 0.0\nsamples = 1175\nvalue = 1.0"] ;
1017 -> 1018 ;
1019 [label="Intervention <= 1.5\nsquared_error = 0.0\nsamples = 1127\nvalue = 1.0"] ;
1018 -> 1019 ;
1020 [label="Months <= 33.5\nsquared_error = 0.0\nsamples = 920\nvalue = 1.0"] ;
1019 -> 1020 ;
1021 [label="Gender <= 1.5\nsquared_error = 0.1\nsamples = 35\nvalue = 0.9"] ;
1020 -> 1021 ;
1022 [label="Months <= 32.5\nsquared_error = 0.0\nsamples = 16\nvalue = 1.0"] ;
1021 -> 1022 ;
1023 [label="EFraction <= 1.0\nsquared_error = 0.1\nsamples = 6\nvalue = 0.9"] ;
1022 -> 1023 ;
1024 [label="Gender <= 0.5\nsquared_error = 0.2\nsamples = 2\nvalue = 0.5"] ;
1023 -> 1024 ;
1025 [label="squared_error = 0.0\nsamples = 1\nvalue = 0.0"] ;
1024 -> 1025 ;
1026 [label="squared_error = 0.0\nsamples = 1\nvalue = 1.0"] ;
1024 -> 1026 ;
1027 [label="squared_error = 0.0\nsamples = 4\nvalue = 1.0"] ;
1023 -> 1027 ;
1028 [label="squared_error = 0.0\nsamples = 10\nvalue = 1.0"] ;
1022 -> 1028 ;
1029 [label="EFraction <= 1.0\nsquared_error = 0.2\nsamples = 19\nvalue = 0.8"] ;
1021 -> 1029 ;
1030 [label="EFraction <= 0.9\nsquared_error = 0.1\nsamples = 10\nvalue = 0.9"] ;
1029 -> 1030 ;
1031 [label="EFraction <= 0.9\nsquared_error = 0.2\nsamples = 2\nvalue = 0.5"] ;
1030 -> 1031 ;
1032 [label="squared_error = 0.0\nsamples = 1\nvalue = 1.0"] ;
1031 -> 1032 ;
1033 [label="squared_error = 0.0\nsamples = 1\nvalue = 0.0"] ;
1031 -> 1033 ;
1034 [label="squared_error = 0.0\nsamples = 8\nvalue = 1.0"] ;
1030 -> 1034 ;
1035 [label="EFraction <= 1.0\nsquared_error = 0.2\nsamples = 9\nvalue = 0.7"] ;
1029 -> 1035 ;
1036 [label="squared_error = 0.0\nsamples = 1\nvalue = 0.0"] ;
1035 -> 1036 ;
1037 [label="EFraction <= 1.1\nsquared_error = 0.2\nsamples = 8\nvalue = 0.8"] ;
1035 -> 1037 ;
1038 [label="EFraction <= 1.0\nsquared_error = 0.2\nsamples = 3\nvalue = 0.6"] ;
1037 -> 1038 ;
1039 [label="squared_error = 0.0\nsamples = 2\nvalue = 1.0"] ;
1038 -> 1039 ;
1040 [label="squared_error = 0.0\nsamples = 1\nvalue = 0.0"] ;
1038 -> 1040 ;
1041 [label="EFraction <= 1.3\nsquared_error = 0.1\nsamples = 5\nvalue = 0.9"] ;
1037 -> 1041 ;
1042 [label="squared_error = 0.0\nsamples = 3\nvalue = 1.0"] ;
1041 -> 1042 ;
1043 [label="EFraction <= 1.4\nsquared_error = 0.2\nsamples = 2\nvalue = 0.5"] ;
1041 -> 1043 ;
1044 [label="squared_error = 0.0\nsamples = 1\nvalue = 0.0"] ;
1043 -> 1044 ;
1045 [label="squared_error = 0.0\nsamples = 1\nvalue = 1.0"] ;
1043 -> 1045 ;
1046 [label="Months <= 52.5\nsquared_error = 0.0\nsamples = 885\nvalue = 1.0"] ;
1020 -> 1046 ;
1047 [label="Months <= 41.5\nsquared_error = 0.0\nsamples = 381\nvalue = 1.0"] ;
1046 -> 1047 ;
1048 [label="EFraction <= 1.0\nsquared_error = 0.0\nsamples = 167\nvalue = 1.0"] ;
1047 -> 1048 ;
1049 [label="EFraction <= 0.9\nsquared_error = 0.1\nsamples = 93\nvalue = 0.9"] ;
1048 -> 1049 ;
1050 [label="Gender <= 0.5\nsquared_error = 0.1\nsamples = 8\nvalue = 0.9"] ;
1049 -> 1050 ;
1051 [label="squared_error = 0.0\nsamples = 1\nvalue = 0.0"] ;
1050 -> 1051 ;
1052 [label="squared_error = 0.0\nsamples = 7\nvalue = 1.0"] ;
1050 -> 1052 ;
1053 [label="Months <= 36.5\nsquared_error = 0.1\nsamples = 85\nvalue = 0.9"] ;
1049 -> 1053 ;
1054 [label="squared_error = 0.0\nsamples = 32\nvalue = 1.0"] ;
1053 -> 1054 ;
1055 [label="Gender <= 0.5\nsquared_error = 0.1\nsamples = 53\nvalue = 0.9"] ;
1053 -> 1055 ;
1056 [label="squared_error = 0.0\nsamples = 18\nvalue = 1.0"] ;
1055 -> 1056 ;
1057 [label="EFraction <= 1.0\nsquared_error = 0.1\nsamples = 35\nvalue = 0.9"] ;
1055 -> 1057 ;
1058 [label="squared_error = 0.0\nsamples = 3\nvalue = 1.0"] ;
1057 -> 1058 ;
1059 [label="Months <= 40.5\nsquared_error = 0.1\nsamples = 32\nvalue = 0.9"] ;
1057 -> 1059 ;
1060 [label="Months <= 39.5\nsquared_error = 0.1\nsamples = 26\nvalue = 0.8"] ;
1059 -> 1060 ;
1061 [label="Intervention <= 0.5\nsquared_error = 0.1\nsamples = 22\nvalue = 0.9"] ;
1060 -> 1061 ;
1062 [label="Months <= 38.5\nsquared_error = 0.1\nsamples = 20\nvalue = 0.9"] ;
1061 -> 1062 ;
1063 [label="Gender <= 1.5\nsquared_error = 0.1\nsamples = 10\nvalue = 0.8"] ;
1062 -> 1063 ;
1064 [label="squared_error = 0.0\nsamples = 1\nvalue = 0.0"] ;
1063 -> 1064 ;
1065 [label="Months <= 37.5\nsquared_error = 0.1\nsamples = 9\nvalue = 0.9"] ;
1063 -> 1065 ;
1066 [label="squared_error = 0.0\nsamples = 5\nvalue = 1.0"] ;
1065 -> 1066 ;
1067 [label="squared_error = 0.2\nsamples = 4\nvalue = 0.8"] ;
1065 -> 1067 ;
1068 [label="Gender <= 1.5\nsquared_error = 0.1\nsamples = 10\nvalue = 0.9"] ;
1062 -> 1068 ;
1069 [label="squared_error = 0.0\nsamples = 2\nvalue = 1.0"] ;
1068 -> 1069 ;
1070 [label="Age_Type <= 3.5\nsquared_error = 0.1\nsamples = 8\nvalue = 0.8"] ;
1068 -> 1070 ;
1071 [label="squared_error = 0.1\nsamples = 7\nvalue = 0.8"] ;
1070 -> 1071 ;
1072 [label="squared_error = 0.0\nsamples = 1\nvalue = 1.0"] ;
1070 -> 1072 ;
1073 [label="squared_error = 0.0\nsamples = 2\nvalue = 1.0"] ;
1061 -> 1073 ;
1074 [label="Gender <= 1.5\nsquared_error = 0.2\nsamples = 4\nvalue = 0.7"] ;
1060 -> 1074 ;
1075 [label="squared_error = 0.0\nsamples = 1\nvalue = 1.0"] ;
1074 -> 1075 ;
1076 [label="squared_error = 0.2\nsamples = 3\nvalue = 0.5"] ;
1074 -> 1076 ;
1077 [label="Intervention <= 0.5\nsquared_error = 0.1\nsamples = 6\nvalue = 0.9"] ;
1059 -> 1077 ;
1078 [label="squared_error = 0.1\nsamples = 5\nvalue = 0.9"] ;
1077 -> 1078 ;
1079 [label="squared_error = 0.0\nsamples = 1\nvalue = 1.0"] ;
1077 -> 1079 ;
1080 [label="Months <= 39.5\nsquared_error = 0.0\nsamples = 74\nvalue = 1.0"] ;
1048 -> 1080 ;
1081 [label="squared_error = 0.0\nsamples = 51\nvalue = 1.0"] ;
1080 -> 1081 ;
1082 [label="EFraction <= 1.2\nsquared_error = 0.0\nsamples = 23\nvalue = 1.0"] ;
1080 -> 1082 ;
1083 [label="squared_error = 0.0\nsamples = 12\nvalue = 1.0"] ;
1082 -> 1083 ;
1084 [label="EFraction <= 1.2\nsquared_error = 0.1\nsamples = 11\nvalue = 0.9"] ;
1082 -> 1084 ;
1085 [label="squared_error = 0.0\nsamples = 1\nvalue = 0.0"] ;
1084 -> 1085 ;
1086 [label="squared_error = 0.0\nsamples = 10\nvalue = 1.0"] ;
1084 -> 1086 ;
1087 [label="EFraction <= 1.1\nsquared_error = 0.0\nsamples = 214\nvalue = 1.0"] ;
1047 -> 1087 ;
1088 [label="Months <= 48.5\nsquared_error = 0.0\nsamples = 158\nvalue = 1.0"] ;
1087 -> 1088 ;
1089 [label="squared_error = 0.0\nsamples = 112\nvalue = 1.0"] ;
1088 -> 1089 ;
1090 [label="Months <= 49.5\nsquared_error = 0.0\nsamples = 46\nvalue = 1.0"] ;
1088 -> 1090 ;
1091 [label="Gender <= 1.5\nsquared_error = 0.0\nsamples = 16\nvalue = 1.0"] ;
1090 -> 1091 ;
1092 [label="squared_error = 0.0\nsamples = 9\nvalue = 1.0"] ;
1091 -> 1092 ;
1093 [label="EFraction <= 1.0\nsquared_error = 0.1\nsamples = 7\nvalue = 0.9"] ;
1091 -> 1093 ;
1094 [label="EFraction <= 1.0\nsquared_error = 0.1\nsamples = 5\nvalue = 0.9"] ;
1093 -> 1094 ;
1095 [label="squared_error = 0.0\nsamples = 1\nvalue = 1.0"] ;
1094 -> 1095 ;
1096 [label="squared_error = 0.1\nsamples = 4\nvalue = 0.8"] ;
1094 -> 1096 ;
1097 [label="squared_error = 0.0\nsamples = 2\nvalue = 1.0"] ;
1093 -> 1097 ;
1098 [label="squared_error = 0.0\nsamples = 30\nvalue = 1.0"] ;
1090 -> 1098 ;
1099 [label="EFraction <= 1.2\nsquared_error = 0.0\nsamples = 56\nvalue = 1.0"] ;
1087 -> 1099 ;
1100 [label="Months <= 45.0\nsquared_error = 0.2\nsamples = 2\nvalue = 0.3"] ;
1099 -> 1100 ;
1101 [label="squared_error = 0.0\nsamples = 1\nvalue = 1.0"] ;
1100 -> 1101 ;
1102 [label="squared_error = 0.0\nsamples = 1\nvalue = 0.0"] ;
1100 -> 1102 ;
1103 [label="EFraction <= 1.2\nsquared_error = 0.0\nsamples = 54\nvalue = 1.0"] ;
1099 -> 1103 ;
1104 [label="EFraction <= 1.2\nsquared_error = 0.1\nsamples = 9\nvalue = 0.9"] ;
1103 -> 1104 ;
1105 [label="squared_error = 0.0\nsamples = 6\nvalue = 1.0"] ;
1104 -> 1105 ;
1106 [label="Gender <= 1.5\nsquared_error = 0.2\nsamples = 3\nvalue = 0.8"] ;
1104 -> 1106 ;
1107 [label="squared_error = 0.0\nsamples = 1\nvalue = 1.0"] ;
1106 -> 1107 ;
1108 [label="Months <= 45.5\nsquared_error = 0.2\nsamples = 2\nvalue = 0.5"] ;
1106 -> 1108 ;
1109 [label="squared_error = 0.0\nsamples = 1\nvalue = 0.0"] ;
1108 -> 1109 ;
1110 [label="squared_error = 0.0\nsamples = 1\nvalue = 1.0"] ;
1108 -> 1110 ;
1111 [label="squared_error = 0.0\nsamples = 45\nvalue = 1.0"] ;
1103 -> 1111 ;
1112 [label="EFraction <= 1.0\nsquared_error = 0.1\nsamples = 504\nvalue = 0.9"] ;
1046 -> 1112 ;
1113 [label="squared_error = 0.0\nsamples = 54\nvalue = 1.0"] ;
1112 -> 1113 ;
1114 [label="EFraction <= 1.0\nsquared_error = 0.1\nsamples = 450\nvalue = 0.9"] ;
1112 -> 1114 ;
1115 [label="squared_error = 0.0\nsamples = 1\nvalue = 0.0"] ;
1114 -> 1115 ;
1116 [label="Months <= 55.5\nsquared_error = 0.1\nsamples = 449\nvalue = 0.9"] ;
1114 -> 1116 ;
1117 [label="EFraction <= 1.6\nsquared_error = 0.1\nsamples = 46\nvalue = 0.9"] ;
1116 -> 1117 ;
1118 [label="EFraction <= 1.0\nsquared_error = 0.0\nsamples = 42\nvalue = 0.9"] ;
1117 -> 1118 ;
1119 [label="squared_error = 0.0\nsamples = 20\nvalue = 1.0"] ;
1118 -> 1119 ;
1120 [label="EFraction <= 1.0\nsquared_error = 0.1\nsamples = 22\nvalue = 0.9"] ;
1118 -> 1120 ;
1121 [label="squared_error = 0.0\nsamples = 1\nvalue = 0.0"] ;
1120 -> 1121 ;
1122 [label="Months <= 53.5\nsquared_error = 0.0\nsamples = 21\nvalue = 1.0"] ;
1120 -> 1122 ;
1123 [label="EFraction <= 1.1\nsquared_error = 0.1\nsamples = 7\nvalue = 0.9"] ;
1122 -> 1123 ;
1124 [label="EFraction <= 1.0\nsquared_error = 0.2\nsamples = 2\nvalue = 0.5"] ;
1123 -> 1124 ;
1125 [label="squared_error = 0.0\nsamples = 1\nvalue = 1.0"] ;
1124 -> 1125 ;
1126 [label="squared_error = 0.0\nsamples = 1\nvalue = 0.0"] ;
1124 -> 1126 ;
1127 [label="squared_error = 0.0\nsamples = 5\nvalue = 1.0"] ;
1123 -> 1127 ;
1128 [label="squared_error = 0.0\nsamples = 14\nvalue = 1.0"] ;
1122 -> 1128 ;
1129 [label="EFraction <= 1.7\nsquared_error = 0.2\nsamples = 4\nvalue = 0.4"] ;
1117 -> 1129 ;
1130 [label="squared_error = 0.0\nsamples = 2\nvalue = 0.0"] ;
1129 -> 1130 ;
1131 [label="squared_error = 0.0\nsamples = 2\nvalue = 1.0"] ;
1129 -> 1131 ;
1132 [label="EFraction <= 1.0\nsquared_error = 0.0\nsamples = 403\nvalue = 0.9"] ;
1116 -> 1132 ;
1133 [label="EFraction <= 1.0\nsquared_error = 0.2\nsamples = 3\nvalue = 0.7"] ;
1132 -> 1133 ;
1134 [label="squared_error = 0.0\nsamples = 1\nvalue = 1.0"] ;
1133 -> 1134 ;
1135 [label="Months <= 98.5\nsquared_error = 0.2\nsamples = 2\nvalue = 0.5"] ;
1133 -> 1135 ;
1136 [label="squared_error = 0.0\nsamples = 1\nvalue = 0.0"] ;
1135 -> 1136 ;
1137 [label="squared_error = 0.0\nsamples = 1\nvalue = 1.0"] ;
1135 -> 1137 ;
1138 [label="Gender <= 0.5\nsquared_error = 0.0\nsamples = 400\nvalue = 1.0"] ;
1132 -> 1138 ;
1139 [label="EFraction <= 1.3\nsquared_error = 0.1\nsamples = 129\nvalue = 0.9"] ;
1138 -> 1139 ;
1140 [label="Months <= 79.5\nsquared_error = 0.1\nsamples = 114\nvalue = 0.9"] ;
1139 -> 1140 ;
1141 [label="Months <= 70.5\nsquared_error = 0.1\nsamples = 65\nvalue = 0.9"] ;
1140 -> 1141 ;
1142 [label="EFraction <= 1.1\nsquared_error = 0.0\nsamples = 45\nvalue = 1.0"] ;
1141 -> 1142 ;
1143 [label="Months <= 59.5\nsquared_error = 0.0\nsamples = 39\nvalue = 1.0"] ;
1142 -> 1143 ;
1144 [label="Months <= 58.5\nsquared_error = 0.1\nsamples = 15\nvalue = 0.9"] ;
1143 -> 1144 ;
1145 [label="squared_error = 0.0\nsamples = 11\nvalue = 1.0"] ;
1144 -> 1145 ;
1146 [label="EFraction <= 1.0\nsquared_error = 0.2\nsamples = 4\nvalue = 0.8"] ;
1144 -> 1146 ;
1147 [label="squared_error = 0.2\nsamples = 2\nvalue = 0.3"] ;
1146 -> 1147 ;
1148 [label="squared_error = 0.0\nsamples = 2\nvalue = 1.0"] ;
1146 -> 1148 ;
1149 [label="squared_error = 0.0\nsamples = 24\nvalue = 1.0"] ;
1143 -> 1149 ;
1150 [label="EFraction <= 1.1\nsquared_error = 0.1\nsamples = 6\nvalue = 0.9"] ;
1142 -> 1150 ;
1151 [label="squared_error = 0.0\nsamples = 1\nvalue = 0.0"] ;
1150 -> 1151 ;
1152 [label="squared_error = 0.0\nsamples = 5\nvalue = 1.0"] ;
1150 -> 1152 ;
1153 [label="Months <= 71.5\nsquared_error = 0.2\nsamples = 20\nvalue = 0.8"] ;
1141 -> 1153 ;
1154 [label="Age_Type <= 3.5\nsquared_error = 0.2\nsamples = 3\nvalue = 0.2"] ;
1153 -> 1154 ;
1155 [label="squared_error = 0.2\nsamples = 2\nvalue = 0.2"] ;
1154 -> 1155 ;
1156 [label="squared_error = 0.0\nsamples = 1\nvalue = 0.0"] ;
1154 -> 1156 ;
1157 [label="EFraction <= 1.0\nsquared_error = 0.1\nsamples = 17\nvalue = 0.9"] ;
1153 -> 1157 ;
1158 [label="Months <= 78.0\nsquared_error = 0.2\nsamples = 8\nvalue = 0.7"] ;
1157 -> 1158 ;
1159 [label="Intervention <= 0.5\nsquared_error = 0.1\nsamples = 7\nvalue = 0.8"] ;
1158 -> 1159 ;
1160 [label="Months <= 74.5\nsquared_error = 0.2\nsamples = 4\nvalue = 0.7"] ;
1159 -> 1160 ;
1161 [label="squared_error = 0.0\nsamples = 2\nvalue = 1.0"] ;
1160 -> 1161 ;
1162 [label="squared_error = 0.2\nsamples = 2\nvalue = 0.3"] ;
1160 -> 1162 ;
1163 [label="squared_error = 0.0\nsamples = 3\nvalue = 1.0"] ;
1159 -> 1163 ;
1164 [label="squared_error = 0.0\nsamples = 1\nvalue = 0.0"] ;
1158 -> 1164 ;
1165 [label="squared_error = 0.0\nsamples = 9\nvalue = 1.0"] ;
1157 -> 1165 ;
1166 [label="EFraction <= 1.1\nsquared_error = 0.0\nsamples = 49\nvalue = 1.0"] ;
1140 -> 1166 ;
1167 [label="squared_error = 0.0\nsamples = 42\nvalue = 1.0"] ;
1166 -> 1167 ;
1168 [label="EFraction <= 1.1\nsquared_error = 0.1\nsamples = 7\nvalue = 0.9"] ;
1166 -> 1168 ;
1169 [label="squared_error = 0.0\nsamples = 1\nvalue = 0.0"] ;
1168 -> 1169 ;
1170 [label="squared_error = 0.0\nsamples = 6\nvalue = 1.0"] ;
1168 -> 1170 ;
1171 [label="EFraction <= 1.3\nsquared_error = 0.2\nsamples = 15\nvalue = 0.8"] ;
1139 -> 1171 ;
1172 [label="squared_error = 0.0\nsamples = 1\nvalue = 0.0"] ;
1171 -> 1172 ;
1173 [label="EFraction <= 1.4\nsquared_error = 0.1\nsamples = 14\nvalue = 0.9"] ;
1171 -> 1173 ;
1174 [label="EFraction <= 1.4\nsquared_error = 0.2\nsamples = 5\nvalue = 0.8"] ;
1173 -> 1174 ;
1175 [label="squared_error = 0.0\nsamples = 4\nvalue = 1.0"] ;
1174 -> 1175 ;
1176 [label="squared_error = 0.0\nsamples = 1\nvalue = 0.0"] ;
1174 -> 1176 ;
1177 [label="squared_error = 0.0\nsamples = 9\nvalue = 1.0"] ;
1173 -> 1177 ;
1178 [label="EFraction <= 1.0\nsquared_error = 0.0\nsamples = 271\nvalue = 1.0"] ;
1138 -> 1178 ;
1179 [label="EFraction <= 1.0\nsquared_error = 0.0\nsamples = 149\nvalue = 0.9"] ;
1178 -> 1179 ;
1180 [label="Months <= 79.0\nsquared_error = 0.0\nsamples = 139\nvalue = 1.0"] ;
1179 -> 1180 ;
1181 [label="squared_error = 0.0\nsamples = 86\nvalue = 1.0"] ;
1180 -> 1181 ;
1182 [label="Months <= 80.5\nsquared_error = 0.1\nsamples = 53\nvalue = 0.9"] ;
1180 -> 1182 ;
1183 [label="Gender <= 1.5\nsquared_error = 0.2\nsamples = 3\nvalue = 0.5"] ;
1182 -> 1183 ;
